#include "neural_nets.h"
     
// sensor 30
struct NeuralNet sensor31 = {
 
//     weights and biases for NN (constant)
    //b1[] = 
    {-0.00434956280515f, -0.10003413259983f, 0.06957039982080f,
    -0.04156430810690f, 0.01053310558200f, 0.07223464548588f,
    0.10396304726601f, 0.02073648013175f, -0.00555394357070f,
    0.03045085631311f, 0.03484293818474f, -0.20383645594120f},
    //b2[] = 
    {-0.03140387684107f, -0.01672471873462f, -0.00495396414772f,
    0.00139516312629f, 0.05780613794923f, 0.00000000000000f,
    -0.00507353711873f, 0.15006630122662f, 0.13056904077530f,
    0.13657629489899f, -0.01179085019976f, 0.07662057876587f,
    -0.06802046298981f, -0.03170579671860f, 0.07238139212132f,
    0.07784441113472f, -0.00565168261528f, 0.09108311682940f,
    0.00756963435560f, 0.00356539268978f, 0.01871140301228f,
    0.01088996231556f, 0.06320345401764f, 0.00706349592656f,
    -0.03165801987052f, 0.14149411022663f, 0.05128571391106f,
    -0.08883570134640f, -0.06704881787300f, 0.03340324386954f,
    0.06671122461557f, 0.13216608762741f, 0.05190697312355f,
    -0.04366985335946f, -0.06592820584774f, 0.02051124908030f,
    -0.07301694154739f, 0.03354309126735f, 0.00907889194787f,
    -0.03029606677592f, 0.13423983752728f, -0.03591391071677f,
    0.04081398621202f, 0.11944131553173f, 0.03833831846714f,
    0.10885567963123f, 0.12782356142998f, -0.06535326689482f,
    -0.04335977509618f, -0.02374158427119f, -0.04500254988670f,
    0.13200283050537f, 0.11626079678535f, -0.03155512735248f,
    0.02607737109065f, -0.19286629557610f, 0.02503207884729f,
    -0.18179966509342f, 0.07517082244158f, -0.07128418236971f,
    -0.02166173420846f, 0.00000000000000f, -0.01233296748251f,
    0.14513030648232f},
    //b3[] =  
    {-0.14499679207802f, 0.07118632644415f, 0.17991825938225f,
    0.08735276758671f, -0.15451523661613f, 0.14949363470078f,
    -0.06636438518763f, -0.07594616711140f, -0.09901763498783f,
    0.30869227647781f, -0.10435003042221f, 0.06602553278208f,
    0.13735942542553f, 0.13231697678566f, -0.03477849438787f,
    -0.04730376973748f, -0.06842338293791f, -0.11070335656404f,
    0.01540303789079f, 0.11415587365627f, -0.20911300182343f,
    0.10880702733994f, 0.23405870795250f, -0.07879248261452f,
    -0.01075022481382f, -0.04401500895619f, -0.02130785398185f,
    0.04831423982978f, -0.20369184017181f, 0.16502827405930f,
    -0.29003617167473f, -0.06628977507353f, 0.18981179594994f,
    0.03730847314000f, -0.10362549871206f, -0.06994848698378f,
    0.25422155857086f, -0.19555677473545f, -0.07836867123842f,
    0.02013283967972f, 0.04365688189864f, 0.10981377214193f,
    0.11004617065191f, -0.05846795439720f, -0.03077450208366f,
    -0.03245123848319f, 0.04942920431495f, 0.10944870114326f,
    -0.08905014395714f, 0.07221481204033f, -0.04829342290759f,
    0.20826253294945f, 0.02800902165473f, 0.06049901247025f,
    0.07225707918406f, 0.09981101751328f, 0.19529393315315f,
    0.10810348391533f, 0.21992859244347f, -0.13236734271049f,
    0.08761493861675f, -0.02036008425057f, 0.05521240457892f,
    0.10710284113884f},
    //b4[] =
    {0.17972479760647f, 0.29114347696304f, 0.35253486037254f,
    0.25676918029785f, 0.33745509386063f},
    
    //w1[][] = 
    { {0.64608770608902f, 0.24275594949722f, 0.76330047845840f,
    -0.08396841585636f, 0.07372044771910f, -1.13997781276703f,
    -0.35489282011986f, -0.59372305870056f, 0.81983441114426f,
    -0.56254565715790f, -0.50138235092163f, -0.83912217617035f},
    {0.46047356724739f, 0.06156270578504f, -0.72782015800476f,
    0.18379428982735f, 0.18982225656509f, 0.66553068161011f,
    0.18025840818882f, 0.07259315997362f, -0.06753080338240f,
    0.75282216072083f, -0.12245799601078f, 0.65326130390167f},
    {0.15687714517117f, -1.19752871990204f, 0.20339117944241f,
    -0.01039352826774f, -0.87528932094574f, -1.12704622745514f,
    0.32426619529724f, -1.20996689796448f, 0.27436718344688f,
    0.05703734979033f, 0.26049637794495f, 0.49644577503204f},
    {0.11742316186428f, 0.72618246078491f, -0.15936031937599f,
    0.06655819714069f, 0.41966238617897f, -0.08569384366274f,
    -0.22621589899063f, 0.44731587171555f, -0.76593184471130f,
    -0.12921628355980f, 0.30121949315071f, 0.36254075169563f},
    {-0.05893258377910f, -0.35104474425316f, -0.21984604001045f,
    -0.81883782148361f, 0.95412892103195f, 0.18381345272064f,
    0.83991390466690f, 0.42987778782845f, 0.65377998352051f,
    0.89225274324417f, 0.34008303284645f, 0.07906414568424f},
    {-0.09423395246267f, 0.42696902155876f, 0.60994231700897f,
    1.02960371971130f, 0.17763446271420f, 0.16855667531490f,
    -0.98690384626389f, 0.61485660076141f, 0.42663615942001f,
    -0.51769399642944f, -0.34728583693504f, 0.50827771425247f},
    {0.28426781296730f, 0.05001035705209f, 0.57521706819534f,
    0.31662091612816f, 0.72676688432693f, 0.43411803245544f,
    0.50779604911804f, -0.55387914180756f, -0.43614429235458f,
    -0.26309239864349f, 0.62332361936569f, 0.15308050811291f},
    {-0.28042703866959f, 0.35544502735138f, -0.39737737178802f,
    0.32154124975204f, -0.64136290550232f, -0.40689381957054f,
    0.27978530526161f, -0.74345564842224f, 0.40516474843025f,
    0.00273127108812f, -0.13573119044304f, 0.12279427051544f} },
    //w2[][] = 
    { {-0.22562184929848f, -0.11796968430281f, -0.08462356030941f,
    -0.31266579031944f, -0.00527835357934f, -0.20269522070885f,
    0.22337907552719f, 0.31796738505363f, -0.58147561550140f,
    -0.55069929361343f, 0.17834331095219f, 0.29000788927078f,
    0.33462730050087f, -0.16122256219387f, 0.15931415557861f,
    -0.23937125504017f, -0.13990101218224f, 0.15784525871277f,
    0.06117709353566f, -0.06011233478785f, -0.35050860047340f,
    -0.64371150732040f, -0.43066477775574f, 0.34044277667999f,
    -0.21615165472031f, -0.21412533521652f, -0.38139078021049f,
    -0.06183822825551f, -0.15853701531887f, 0.26687330007553f,
    -0.53875559568405f, 0.04331630095840f, -0.22552333772182f,
    0.00795199256390f, 0.06004102900624f, -0.19693599641323f,
    0.30999070405960f, 0.22230961918831f, 0.02156871370971f,
    -0.18745881319046f, 0.09072989970446f, -0.20017276704311f,
    -0.42763134837151f, 0.30510658025742f, 0.19568884372711f,
    -0.47371193766594f, 0.12689001858234f, -0.19551557302475f,
    0.03043854795396f, -0.19165286421776f, -0.31258878111839f,
    0.30585503578186f, 0.21056565642357f, -0.12559504806995f,
    0.02948985248804f, 0.13033038377762f, -0.15167395770550f,
    0.30114221572876f, -0.17104780673981f, -0.19840337336063f,
    0.29540649056435f, -0.21149796247482f, -0.25780040025711f,
    -0.20767949521542f},
    {-0.03458684682846f, 0.21714480221272f, -0.40995424985886f,
    -0.22454543411732f, 0.55411171913147f, 0.02463269233704f,
    0.26171040534973f, -0.51817202568054f, -0.23091618716717f,
    0.38087970018387f, -0.11309061944485f, 0.47941535711288f,
    0.07425377517939f, 0.20880573987961f, -0.13058356940746f,
    0.13624830543995f, 0.11047173291445f, -0.68440711498260f,
    0.63109809160233f, -0.23693704605103f, -0.76924169063568f,
    -1.21577119827271f, 0.22079116106033f, 0.44914349913597f,
    0.00202926993370f, -0.41389343142509f, -0.67505431175232f,
    0.33800753951073f, 0.44637539982796f, -0.02588798478246f,
    0.53473621606827f, 0.60334599018097f, -0.33866575360298f,
    -0.25531184673309f, 0.81131887435913f, 0.07371000945568f,
    0.25664666295052f, 0.44770038127899f, 0.12025802582502f,
    -0.16718444228172f, -0.00931377988309f, 0.52777355909348f,
    0.59106153249741f, 0.41068768501282f, 0.06845740228891f,
    0.49677270650864f, -0.92294830083847f, 0.05904674902558f,
    0.78644639253616f, 0.34646660089493f, -0.24819239974022f,
    -0.68400907516479f, -0.69524252414703f, -0.11763343960047f,
    0.49664935469627f, -0.42769709229469f, 0.79895251989365f,
    0.53413963317871f, 0.16442780196667f, 0.30208384990692f,
    0.22604185342789f, -0.09203980863094f, -0.26960775256157f,
    -1.06128585338593f},
    {-0.17254070937634f, -0.08259045332670f, 0.52692812681198f,
    0.12060194462538f, -0.20224051177502f, -0.24013444781303f,
    0.32018294930458f, -0.14796718955040f, -0.39625430107117f,
    -0.39206621050835f, 0.56428837776184f, 0.00579135958105f,
    0.16236300766468f, -0.25409284234047f, 0.33290401101112f,
    0.49248903989792f, 0.50085026025772f, -0.13299068808556f,
    -0.44699317216873f, -0.05066651105881f, -0.25019201636314f,
    -0.63373887538910f, -0.20350694656372f, 0.13795597851276f,
    -0.18533866107464f, 0.14485485851765f, 0.36461347341537f,
    -0.41406682133675f, 0.20419293642044f, -0.07363016903400f,
    0.36147406697273f, -0.85804224014282f, 0.39699509739876f,
    -0.22614815831184f, 0.56975972652435f, -0.45022809505463f,
    0.19345097243786f, -0.45472273230553f, 0.51458185911179f,
    -0.20632560551167f, -0.04678226262331f, -0.49275270104408f,
    0.11143642663956f, 0.17959506809711f, 0.23577164113522f,
    -0.56994956731796f, -0.22449252009392f, -0.02073175832629f,
    0.34510022401810f, 0.38369992375374f, -0.08190435916185f,
    -0.13774947822094f, 0.29123947024345f, -0.26467168331146f,
    0.43579110503197f, -0.39159211516380f, -0.62433344125748f,
    0.27485409379005f, 0.22172981500626f, -0.19925779104233f,
    -0.60800415277481f, -0.20750027894974f, -0.04059122130275f,
    -0.78899264335632f},
    {0.15678054094315f, -0.17971485853195f, 0.26032525300980f,
    0.20100730657578f, -0.47937193512917f, -0.00846543908119f,
    -0.11652330309153f, 0.21705152094364f, -0.20491087436676f,
    0.21045579016209f, -0.13974127173424f, -0.42670863866806f,
    0.10067991912365f, 0.06058735027909f, -0.05120991915464f,
    -0.43980038166046f, 0.72265833616257f, -0.59982085227966f,
    0.56923770904541f, -0.18665894865990f, -0.02722837403417f,
    0.50774717330933f, -0.40999627113342f, 0.10408271104097f,
    -0.08871451765299f, -0.16049368679523f, 0.37156659364700f,
    0.48323538899422f, -0.35858476161957f, 0.38863682746887f,
    0.37753400206566f, 0.19683648645878f, 0.42087325453758f,
    -0.25877195596695f, 0.48996230959892f, 0.24421329796314f,
    0.37682721018791f, 0.26812276244164f, -0.37926039099693f,
    -0.28101128339767f, -0.11149960756302f, -0.03499333560467f,
    -0.16344842314720f, 0.28627854585648f, -0.15176452696323f,
    -0.18700364232063f, 0.30969232320786f, -0.30393442511559f,
    0.34208232164383f, 0.45377519726753f, -0.12668785452843f,
    -0.33857658505440f, -0.67004269361496f, 0.14416821300983f,
    0.44575780630112f, -0.00713396118954f, 0.34838595986366f,
    -0.36894348263741f, 0.61379432678223f, -0.09612925350666f,
    -0.15617881715298f, -0.10010211169720f, -0.18878123164177f,
    0.19176824390888f},
    {-0.28109303116798f, 0.03797879815102f, 0.37806308269501f,
    0.28053578734398f, -0.67769783735275f, -0.27304828166962f,
    0.42578107118607f, -1.73831164836884f, -0.22995263338089f,
    -0.48808369040489f, 0.35846388339996f, -0.31778928637505f,
    0.08518634736538f, -0.15518857538700f, -0.44933632016182f,
    0.10606263577938f, -0.20718094706535f, 0.42310521006584f,
    -0.03917989507318f, -0.27151459455490f, -0.36712139844894f,
    -0.39402216672897f, 0.24030245840549f, 0.36560475826263f,
    -0.14489777386189f, -0.91505599021912f, -0.36191022396088f,
    0.26553830504417f, -0.14711076021194f, -0.78135198354721f,
    -0.31505918502808f, -0.59118705987930f, -0.09462053328753f,
    0.05968832224607f, -0.03505606576800f, -0.02632265351713f,
    0.05613503232598f, -0.78029841184616f, -0.36821615695953f,
    -0.09522669017315f, -0.14504739642143f, 0.67569243907928f,
    0.41978874802589f, -0.45060312747955f, 0.21154695749283f,
    0.17155392467976f, 0.03146057575941f, -0.29673564434052f,
    0.23763398826122f, 0.18162220716476f, 0.19835434854031f,
    -0.69052028656006f, 0.32530236244202f, -0.25618454813957f,
    -0.58638197183609f, -0.49395078420639f, 0.26723286509514f,
    0.31292453408241f, -0.50580191612244f, 0.20442104339600f,
    0.24946147203445f, -0.04538896679878f, 0.13863070309162f,
    -1.36947739124298f},
    {0.03064784407616f, -0.09736929088831f, 0.29765319824219f,
    -0.24790430068970f, 0.31342226266861f, -0.22057206928730f,
    0.38121426105499f, -0.56594687700272f, 0.47196713089943f,
    -0.04304738715291f, 0.29520645737648f, -0.59551912546158f,
    -0.22703938186169f, 0.17945539951324f, 0.04101983457804f,
    -0.01633873395622f, -0.91595327854156f, 0.10608603060246f,
    -0.76770514249802f, 0.80611878633499f, -0.62140876054764f,
    0.47803118824959f, 0.36941307783127f, 0.05642281472683f,
    -0.12689495086670f, -0.38334757089615f, 0.98065680265427f,
    -0.47363084554672f, 0.30732741951942f, -0.22471198439598f,
    -0.44791343808174f, -2.18063330650330f, -0.19635637104511f,
    -0.27721819281578f, -0.05270204693079f, 0.11326622217894f,
    -0.27104458212852f, -0.03370400145650f, -0.07472128421068f,
    0.06165960803628f, -0.41746073961258f, 0.60835397243500f,
    -0.44566637277603f, -0.27508002519608f, -0.00410919357091f,
    -0.20290137827396f, -0.17622010409832f, 0.14695943892002f,
    -1.42033982276917f, 0.12678800523281f, 0.09170656651258f,
    -0.07476332783699f, 0.51637339591980f, 0.13484746217728f,
    -1.04464483261108f, -0.11824198067188f, 0.51197344064713f,
    0.03622826933861f, 0.60731762647629f, 0.19295507669449f,
    0.25809687376022f, -0.13018248975277f, -0.20580938458443f,
    -0.46089172363281f},
    {-0.26116040349007f, -0.23955775797367f, -0.23445738852024f,
    0.09588446468115f, -0.35621520876884f, 0.02509540319443f,
    0.01967289485037f, -0.42334064841270f, 0.22034534811974f,
    0.12778186798096f, -0.07654669135809f, 0.09791246056557f,
    0.24314315617085f, -0.12173128128052f, 0.09046666324139f,
    0.21273227035999f, -0.48485553264618f, -0.19105030596256f,
    -1.02195715904236f, 0.44673392176628f, 0.21468046307564f,
    0.21857292950153f, 0.33919012546539f, 0.05805714428425f,
    0.19345034658909f, -0.49144381284714f, 0.31100687384605f,
    0.02024618163705f, -0.12793436646461f, 0.08278559148312f,
    -0.82379662990570f, -0.64484471082687f, -0.24510091543198f,
    -0.17238658666611f, -0.66231703758240f, -0.50935894250870f,
    -0.17279562354088f, -0.96753287315369f, -0.07806139439344f,
    0.17054685950279f, -0.54271876811981f, -0.02518447488546f,
    0.09933491051197f, -0.66890794038773f, -0.37111404538155f,
    -0.39432093501091f, -0.20913626253605f, 0.13968877494335f,
    -0.05448222905397f, 0.10220240056515f, -0.14341719448566f,
    0.51017987728119f, -0.46835225820541f, -0.04205021262169f,
    -0.45548802614212f, 0.33823156356812f, -0.20776890218258f,
    -0.12594670057297f, -0.11722463369370f, -0.24154295027256f,
    0.30437722802162f, -0.25943574309349f, -0.04134859889746f,
    -0.04437554627657f},
    {-0.09159138798714f, -0.16576237976551f, -0.18006952106953f,
    -0.11460995674133f, -1.08894836902618f, -0.12203216552734f,
    -0.09464094042778f, -0.61766350269318f, 0.59109127521515f,
    -0.37480381131172f, 0.15501706302166f, -0.85191136598587f,
    0.07420948147774f, -0.08365723490715f, -0.07996558398008f,
    0.32032939791679f, -0.58288353681564f, 0.02953356876969f,
    -1.52148973941803f, -0.16743566095829f, -0.00502127548680f,
    0.43318554759026f, -0.11078522354364f, 0.00259180739522f,
    0.13566741347313f, -0.61660754680634f, -0.02473201416433f,
    -0.27295881509781f, 0.03054810315371f, 0.46746492385864f,
    -0.85219222307205f, -1.30630433559418f, -0.23579517006874f,
    0.16044762730598f, -1.94965410232544f, -0.49696403741837f,
    0.08928597718477f, -0.04882530868053f, 0.10961598902941f,
    -0.07356427609921f, -0.83716809749603f, 0.01941319182515f,
    -0.15238443017006f, 0.57797801494598f, -0.11236910521984f,
    0.32897341251373f, -1.04693484306335f, 0.04933553934097f,
    -0.07294852286577f, 0.00672336900607f, -0.24003972113132f,
    -0.29754525423050f, 0.23893229663372f, -0.14986664056778f,
    -0.52510339021683f, 0.41042459011078f, -0.02413271367550f,
    -0.05551980808377f, -0.30039736628532f, 0.06640618294477f,
    0.35681971907616f, 0.21041467785835f, 0.03899157047272f,
    -0.20330864191055f},
    {0.16899333894253f, -0.18844276666641f, -0.23709519207478f,
    0.38254615664482f, -1.32843959331512f, -0.00402709841728f,
    -0.62168198823929f, -0.24194049835205f, 0.36937466263771f,
    -1.02181851863861f, -0.61354267597198f, -0.05838023498654f,
    -0.08494740724564f, -0.13976730406284f, 0.66455072164536f,
    -0.05985512584448f, 0.12911972403526f, -0.05291784182191f,
    0.34068089723587f, 0.24831798672676f, -0.05889336019754f,
    -0.22633849084377f, 0.24103918671608f, -0.45386677980423f,
    -0.07981710880995f, 0.75219035148621f, -0.03905348479748f,
    -0.17068094015121f, 0.45866852998734f, 0.04272858425975f,
    -0.07152054458857f, -0.52373331785202f, -0.02903958782554f,
    -0.14322893321514f, -0.24499674141407f, 0.60135328769684f,
    -0.32461792230606f, 0.56527394056320f, -0.14282190799713f,
    0.10050747543573f, 0.44927483797073f, -0.74254471063614f,
    0.19581910967827f, -0.22511865198612f, -0.21532040834427f,
    -0.12140493839979f, -0.08952761441469f, 0.13177473843098f,
    -1.40379917621613f, -0.56304860115051f, -0.43784728646278f,
    -0.07152899354696f, -0.40320938825607f, -0.08539744466543f,
    0.26238748431206f, 0.44069433212280f, -0.04902046918869f,
    -0.11819909512997f, -0.32529494166374f, -0.17179009318352f,
    -0.25506138801575f, -0.11933059990406f, -0.06313864141703f,
    -0.37844935059547f},
    {0.06013123318553f, -0.01797609589994f, -0.24509653449059f,
    0.29272490739822f, -0.18776787817478f, 0.00427180528641f,
    -0.37968894839287f, -0.00673624733463f, 0.44902041554451f,
    -0.45063433051109f, 0.24919264018536f, -0.36375859379768f,
    -0.39475154876709f, -0.13170650601387f, -0.20645447075367f,
    -0.34003663063049f, -0.33490484952927f, 0.29786404967308f,
    -0.17658925056458f, 0.45735892653465f, 0.55908077955246f,
    0.50128674507141f, 0.29886648058891f, 0.31479811668396f,
    0.04176295921206f, -0.09739773720503f, -0.08914435654879f,
    0.32601246237755f, 0.12707826495171f, -0.22972291707993f,
    -0.35695922374725f, -0.01741817221045f, -0.15587581694126f,
    -0.26242586970329f, -0.68057429790497f, 0.44232407212257f,
    -0.47999086976051f, 0.17412872612476f, 0.24347640573978f,
    -0.02783906273544f, -0.69368737936020f, 0.04894239455462f,
    -0.50044214725494f, -0.53800278902054f, 0.35151574015617f,
    0.27239114046097f, -0.11348059773445f, 0.02623656392097f,
    -0.43696865439415f, -0.23971155285835f, -0.16997778415680f,
    -0.16924032568932f, 0.39873483777046f, -0.01238092780113f,
    0.08373801410198f, 0.28746744990349f, 0.37661531567574f,
    0.15897051990032f, 0.09525937587023f, 0.02669419534504f,
    0.39624652266502f, -0.27286005020142f, -0.06016899645329f,
    0.10370690375566f},
    {-0.14131931960583f, 0.00477496255189f, -0.12802714109421f,
    -0.75013244152069f, 0.36885216832161f, -0.03643731772900f,
    -0.09059487283230f, -0.39245447516441f, -0.59689819812775f,
    0.17755207419395f, 0.01346176676452f, 0.29985982179642f,
    0.25827321410179f, -0.15644842386246f, -0.16988417506218f,
    0.27933049201965f, -0.01551031880081f, 0.20849029719830f,
    -0.59146988391876f, -0.21754643321037f, 0.26731422543526f,
    0.23083855211735f, -0.19940063357353f, -0.28341361880302f,
    -0.29215154051781f, 0.00289182318375f, 0.24705241620541f,
    -0.00262085208669f, -0.12598955631256f, 0.02431457862258f,
    0.05895661562681f, 0.09209402650595f, 0.17552793025970f,
    -0.03632683679461f, 0.22974981367588f, -0.71185630559921f,
    0.03370255604386f, -0.84004408121109f, 0.27003058791161f,
    -0.22844088077545f, -0.04493883624673f, 0.05820957198739f,
    -0.12651933729649f, 0.34214502573013f, -0.05430533364415f,
    0.15550912916660f, -0.36429992318153f, 0.00595473824069f,
    -0.06867543607950f, 0.12996816635132f, 0.04076230898499f,
    0.24649572372437f, -0.22816300392151f, -0.05884630233049f,
    -0.43804457783699f, -0.01458921656013f, -0.33536398410797f,
    -0.28786817193031f, 0.14191557466984f, -0.41650170087814f,
    -0.07122562825680f, 0.12119069695473f, 0.21454881131649f,
    0.37931963801384f},
    {-0.23010057210922f, 0.10223333537579f, 0.22019061446190f,
    -0.63960289955139f, 0.39743793010712f, -0.17088556289673f,
    -0.22028991580009f, 0.37788990139961f, -0.51733088493347f,
    0.32506433129311f, -0.32827550172806f, -0.55726808309555f,
    -0.09324217587709f, 0.12278069555759f, -0.42900440096855f,
    -0.55303770303726f, 0.07468289136887f, -0.20216718316078f,
    0.38103315234184f, 0.20137122273445f, 0.50302267074585f,
    0.41272696852684f, -0.34666433930397f, -0.23966030776501f,
    0.22633780539036f, 0.19369539618492f, -0.26678583025932f,
    0.13055318593979f, 0.48156172037125f, 0.02874946966767f,
    0.21761520206928f, 0.12773564457893f, 0.06788450479507f,
    0.05441236123443f, -0.38388469815254f, 0.13180549442768f,
    0.09582268446684f, -1.20135676860809f, 0.32045951485634f,
    -0.29051703214645f, 0.05553986132145f, 0.35038769245148f,
    -1.17022323608398f, -0.56812632083893f, -0.08051981031895f,
    0.01070141512901f, 0.08433663100004f, -0.11380217224360f,
    0.04742358624935f, -0.01370310410857f, 0.00151626137085f,
    -0.05066323652864f, -0.11034807562828f, -0.19220401346684f,
    0.18193453550339f, 0.38757640123367f, -0.49508553743362f,
    0.12176630645990f, -0.02816879563034f, -0.09766528010368f,
    0.07037624716759f, -0.02011275291443f, -0.29059690237045f,
    0.36096131801605f} },                
    //w3[][] = 
    { {-0.11593039333820f, 0.11747625470161f, 0.22117896378040f,
    -0.20589086413383f, -0.05416505038738f, -0.04458413645625f,
    -0.21201428771019f, 0.08023028075695f, 0.12760403752327f,
    -0.04436907917261f, -0.18492263555527f, -0.18846768140793f,
    -0.00419087428600f, -0.08893677592278f, -0.02242614328861f,
    0.11489303410053f, 0.12044660747051f, -0.19251072406769f,
    0.07591156661510f, -0.12697422504425f, -0.17742502689362f,
    0.12180112302303f, -0.17127762734890f, 0.08950726687908f,
    0.12567616999149f, -0.08640645444393f, -0.18682348728180f,
    0.19812023639679f, -0.00480192899704f, -0.02166981995106f,
    0.12282480299473f, 0.01359952986240f, -0.12820793688297f,
    0.04098121449351f, 0.15596784651279f, 0.19177974760532f,
    0.05803933367133f, -0.15913146734238f, -0.04263223707676f,
    0.16487503051758f, -0.14770630002022f, 0.11949450522661f,
    -0.12206253409386f, -0.06730344891548f, -0.14614982903004f,
    -0.17296700179577f, -0.13762158155441f, -0.11490445584059f,
    0.03200195729733f, -0.19584670662880f, -0.08190232515335f,
    0.03966782987118f, 0.10668613761663f, 0.12018395960331f,
    -0.11753031611443f, -0.21497298777103f, 0.01094212569296f,
    -0.06535893678665f, 0.16765050590038f, -0.02699659578502f,
    -0.06110411509871f, -0.07135236263275f, -0.00549280224368f,
    -0.00932409148663f},
    {-0.10858157277107f, -0.15671567618847f, 0.23109260201454f,
    -0.04874000698328f, 0.23550331592560f, 0.24663490056992f,
    -0.08769631385803f, -0.11379056423903f, 0.12474618107080f,
    -0.17443309724331f, -0.07141172140837f, -0.16551075875759f,
    0.02955871634185f, -0.12330657243729f, 0.13919335603714f,
    0.20097492635250f, 0.21500955522060f, 0.10749477148056f,
    -0.23657974600792f, -0.00846680626273f, -0.07348799705505f,
    -0.14199158549309f, -0.10085131227970f, -0.07669013738632f,
    -0.11155269294977f, -0.03204934298992f, 0.20668022334576f,
    0.01409041043371f, -0.24813202023506f, -0.12511502206326f,
    -0.12105301767588f, -0.02343384921551f, 0.05695942789316f,
    0.10610007494688f, 0.03244686126709f, 0.16085721552372f,
    -0.06372182816267f, 0.08366261422634f, 0.09970395267010f,
    -0.05403770133853f, -0.17242591083050f, 0.10414671897888f,
    -0.17853263020515f, -0.00216871290468f, 0.09671474993229f,
    -0.06633097678423f, 0.01370144542307f, -0.09019324928522f,
    -0.00740938726813f, 0.12478403002024f, 0.21113082766533f,
    0.14317819476128f, 0.00253430637531f, 0.11262307316065f,
    -0.05402154475451f, 0.02555939927697f, -0.24277213215828f,
    -0.08949038386345f, -0.06438285112381f, 0.02423956058919f,
    -0.02645162679255f, -0.11279519647360f, 0.07892189174891f,
    -0.18395446240902f},
    {0.25865653157234f, -0.68229144811630f, 0.16652606427670f,
    -0.32768467068672f, 0.20246620476246f, -0.03854188695550f,
    0.10445524752140f, 0.08266065269709f, 0.40512672066689f,
    -0.09017439931631f, -0.16433015465736f, 0.01161236781627f,
    0.34516626596451f, 0.14896085858345f, 0.06065394729376f,
    -0.07776347547770f, -0.36541423201561f, 0.39235636591911f,
    0.04150744527578f, -0.25762927532196f, -0.11917210370302f,
    0.11872065067291f, -0.07109640538692f, -0.01959738694131f,
    -0.13851787149906f, -0.10848395526409f, 0.10447812080383f,
    -0.38121792674065f, 0.36605075001717f, 0.18722566962242f,
    0.23374909162521f, -0.24977606534958f, 0.16400466859341f,
    -0.07086462527514f, -0.37229970097542f, -0.04245155304670f,
    0.24981728196144f, 0.05788599327207f, -0.04560134932399f,
    0.04261071607471f, -0.27482101321220f, -0.30906641483307f,
    -0.32927209138870f, -0.01062079425901f, -0.16572755575180f,
    -0.16197717189789f, -0.08439893275499f, 0.27213585376740f,
    -0.16196033358574f, -0.23158247768879f, 0.08247977495193f,
    0.00140679534525f, 0.09241788089275f, -0.24993506073952f,
    0.18652029335499f, -0.04565317928791f, -0.08046966046095f,
    -0.39138048887253f, -0.20360767841339f, 0.23719289898872f,
    -0.31211566925049f, -0.11237893998623f, -0.15907242894173f,
    0.07329104840755f},
    {0.41765117645264f, -0.82959681749344f, 0.07744172215462f,
    -0.78789895772934f, -0.11770656704903f, 0.15322253108025f,
    -0.15635550022125f, -0.09104987978935f, 0.21647749841213f,
    -0.07274083048105f, 0.35749092698097f, 0.02889879420400f,
    0.29152414202690f, 0.29335719347000f, -0.20342919230461f,
    0.09477868676186f, -0.14633202552795f, -0.06344930082560f,
    -0.10137372463942f, -0.16505920886993f, 0.22669647634029f,
    -0.15642087161541f, 0.14626930654049f, 0.15034146606922f,
    0.09143380820751f, 0.11225880682468f, -0.55323374271393f,
    0.02318659238517f, -0.63212728500366f, 0.18150250613689f,
    0.06401392817497f, -0.03507504612207f, 0.00678365305066f,
    -0.72800850868225f, -0.32263284921646f, -0.21723338961601f,
    -0.02078208513558f, 0.30591478943825f, 0.18850341439247f,
    0.08464175462723f, -0.17020533978939f, -0.17246994376183f,
    -0.65585440397263f, -0.13865542411804f, -0.03865401446819f,
    -0.55436873435974f, 0.00506096426398f, 0.42887017130852f,
    0.08531542867422f, -0.34658965468407f, -0.69090676307678f,
    -0.19973328709602f, 0.08014170825481f, 0.23459425568581f,
    -0.10370139032602f, -0.25466030836105f, -0.06911510229111f,
    0.10812692344189f, -0.25436973571777f, 0.11738649755716f,
    0.24896131455898f, 0.09080757945776f, -0.04961428791285f,
    -0.17240427434444f},
    {-0.08374308794737f, -0.36422026157379f, -0.13071767985821f,
    -0.21625520288944f, 0.11234629154205f, -0.24379925429821f,
    -0.05259828269482f, -0.19622363150120f, -0.40814661979675f,
    0.14717438817024f, 0.03864073008299f, 0.15053559839725f,
    -0.11838560551405f, -0.68088996410370f, -0.67324197292328f,
    -0.08506591618061f, 0.15802128612995f, 0.81426459550858f,
    -0.12405446171761f, -0.22565115988255f, -1.32374298572540f,
    -0.84032833576202f, -0.55061829090118f, -0.08525587618351f,
    -0.12948973476887f, -0.25802809000015f, 0.02608203142881f,
    0.12341748923063f, -0.03824751079082f, -0.99500006437302f,
    -0.50611042976379f, 0.12901090085506f, -0.24187484383583f,
    -0.90039420127869f, -0.22872203588486f, 0.09255319088697f,
    0.19865785539150f, -1.72524559497833f, 0.08949704468250f,
    -0.26794216036797f, -0.40239420533180f, 0.03013291582465f,
    -0.27133834362030f, 0.10648024082184f, 0.13067390024662f,
    -0.49538445472717f, 0.14352579414845f, 0.06645485013723f,
    0.09852300584316f, -0.07100631296635f, 0.03675988689065f,
    -0.13476148247719f, -0.20714634656906f, -0.27714869379997f,
    -0.10877486318350f, -0.59909617900848f, -0.65143835544586f,
    0.12273689359426f, -0.20735941827297f, -0.04288870096207f,
    0.13635997474194f, 0.22754624485970f, -0.76271742582321f,
    0.41785639524460f},
    {0.12180922925472f, -0.12303033471107f, 0.08867888152599f,
    -0.02597510814667f, -0.05632437765598f, -0.19361455738544f,
    -0.12321606278419f, 0.06822367012501f, -0.10263758152723f,
    0.00235001742840f, 0.06498853862286f, 0.03698040544987f,
    0.11215139925480f, -0.04184752702713f, -0.14009325206280f,
    0.04203180968761f, -0.16663461923599f, 0.11937741935253f,
    0.03310577571392f, -0.20290413498878f, 0.14943157136440f,
    0.16042877733707f, -0.19229558110237f, -0.21290715038776f,
    0.02945429086685f, 0.15128158032894f, 0.07018928229809f,
    0.11797563731670f, 0.10586331784725f, -0.10942915827036f,
    0.13981120288372f, 0.16347657144070f, 0.19648458063602f,
    0.20098246634007f, 0.20986823737621f, -0.20387685298920f,
    -0.18051391839981f, -0.09988075494766f, -0.09173303842545f,
    0.10926537215710f, 0.03210957348347f, 0.11890874803066f,
    0.18347640335560f, 0.11459650099277f, -0.14896643161774f,
    -0.09178687632084f, -0.07631549239159f, 0.09194220602512f,
    -0.12745213508606f, 0.19626013934612f, -0.13417837023735f,
    -0.21564379334450f, -0.07271531224251f, 0.17752806842327f,
    -0.02135044336319f, 0.10913951694965f, -0.06328046321869f,
    0.01116517186165f, 0.08647514879704f, -0.14150819182396f,
    -0.06054846942425f, -0.06437933444977f, 0.00527919828892f,
    0.20478250086308f},
    {0.20930743217468f, 0.12398825585842f, -0.36759954690933f,
    -0.30736148357391f, 0.37601575255394f, 0.14848402142525f,
    -0.21558205783367f, -0.18500675261021f, 0.18203470110893f,
    -0.00811900664121f, -1.10935974121094f, -0.02284730412066f,
    0.01106420904398f, -0.34154921770096f, 0.25441074371338f,
    -0.21259494125843f, -0.39316871762276f, 0.16360315680504f,
    -0.33293503522873f, 0.25722649693489f, -0.28551033139229f,
    0.00003282643593f, 0.36286270618439f, -0.24913193285465f,
    0.28896525502205f, -0.02287623286247f, -1.35756468772888f,
    0.52303433418274f, -0.02838538214564f, 0.19884291291237f,
    0.56625831127167f, -0.20981310307980f, 0.11058732867241f,
    0.00543226813897f, 0.40413856506348f, -0.15296165645123f,
    -0.03812848031521f, 0.26852089166641f, -0.22970199584961f,
    0.16034729778767f, -0.10131001472473f, -0.69754320383072f,
    0.12937708199024f, -0.26898440718651f, 0.12741589546204f,
    -0.01747965998948f, -0.00773862097412f, 0.32368680834770f,
    -0.02956411428750f, 0.36000928282738f, 0.18798005580902f,
    -0.14563815295696f, -0.01089152693748f, 0.32423537969589f,
    -0.37489050626755f, 0.27715718746185f, -0.25376638770103f,
    -1.28199088573456f, 0.03544228151441f, -0.22701258957386f,
    -0.30202144384384f, -0.61231446266174f, -0.44653356075287f,
    -0.23640917241573f},
    {0.00990442465991f, -1.35570716857910f, -0.09060825407505f,
    0.69627112150192f, 0.21569538116455f, -0.25330331921577f,
    -0.08226425945759f, 0.15337458252907f, 0.75920408964157f,
    -0.89080536365509f, 0.67407608032227f, -0.08542750030756f,
    -0.18927618861198f, -0.17636537551880f, -1.15333092212677f,
    -0.16163633763790f, -0.51850104331970f, 0.40877151489258f,
    0.42095294594765f, -0.12647971510887f, 0.45752239227295f,
    0.33500453829765f, -0.35750210285187f, -0.04307758435607f,
    -0.83365947008133f, 0.02957370504737f, 0.41869813203812f,
    -0.45668679475784f, -0.21989025175571f, -1.35259461402893f,
    -0.28898450732231f, 0.15880890190601f, 0.06149920821190f,
    -0.19995419681072f, 0.30392938852310f, -0.04994140192866f,
    0.28489169478416f, -0.05353114381433f, -0.08963628113270f,
    0.28340181708336f, -4.40194749832153f, 0.29689189791679f,
    -1.92653036117554f, 1.21789026260376f, 0.02261948026717f,
    0.34381586313248f, -0.82740521430969f, -0.17321544885635f,
    0.50984960794449f, 0.21456903219223f, -2.32079720497131f,
    -1.12407159805298f, 0.48975867033005f, 0.09636670351028f,
    0.23958721756935f, -1.17871534824371f, -0.33113646507263f,
    -0.27503120899200f, -0.22904352843761f, -0.10318807512522f,
    -0.21210688352585f, 0.84655052423477f, -0.12414948642254f,
    0.37008044123650f},
    {-0.35217612981796f, 0.19645524024963f, 0.28267529606819f,
    0.41474848985672f, 0.24845677614212f, -0.38144388794899f,
    -0.12263767421246f, 0.11048133671284f, 0.08310981094837f,
    0.14990498125553f, -0.41013902425766f, 0.08002436161041f,
    -0.60787880420685f, 0.07750006765127f, 0.44761899113655f,
    0.21838013827801f, 0.42112249135971f, 0.30738171935081f,
    0.20199432969093f, 0.26881155371666f, -0.09345819056034f,
    -0.84535586833954f, -0.21007378399372f, -0.16054320335388f,
    -0.32017180323601f, -0.17575961351395f, 0.51910644769669f,
    -0.22155721485615f, 0.14644406735897f, -0.09618303924799f,
    -0.63169300556183f, 0.17591105401516f, -0.62951397895813f,
    -0.01630895398557f, -0.23998621106148f, -0.02014353871346f,
    0.09098340570927f, -0.57178807258606f, 0.06490521878004f,
    0.16880860924721f, -0.90976637601852f, -0.05344233289361f,
    0.29437842965126f, 0.40473887324333f, 0.01881796121597f,
    0.00730111030862f, -0.08347468078136f, 0.37535083293915f,
    0.39981898665428f, 0.50785779953003f, 0.13938295841217f,
    0.28500100970268f, 0.49056866765022f, 0.35936459898949f,
    0.05726976692677f, -0.29277455806732f, -0.06727195531130f,
    0.09721617400646f, 0.28641802072525f, -0.17948970198631f,
    -0.54911178350449f, -0.11954951286316f, -0.10725636780262f,
    0.12134296447039f},
    {0.42543098330498f, 0.01672078482807f, 0.14474236965179f,
    -0.01393890939653f, 0.36215874552727f, -0.14121590554714f,
    -0.19576554000378f, 0.12052442133427f, 0.32587891817093f,
    0.20666404068470f, 0.17531640827656f, -0.15462487936020f,
    0.11323704570532f, -0.36183831095695f, 0.29156550765038f,
    -0.00528527796268f, 0.40439343452454f, 0.16782361268997f,
    -0.66591382026672f, 0.12491957098246f, -0.15816482901573f,
    0.49795252084732f, 0.11952719092369f, 0.15047936141491f,
    0.94356936216354f, -0.19247402250767f, -0.89649713039398f,
    -0.21786649525166f, 0.18185788393021f, -0.02770210057497f,
    0.02609511464834f, -0.04034784436226f, 0.07215660065413f,
    -0.47955691814423f, 0.59293508529663f, -0.19916892051697f,
    0.07609041035175f, 0.45696935057640f, -0.20048548281193f,
    -0.31148076057434f, -0.15550480782986f, -0.31390821933746f,
    0.62787920236588f, 0.15380215644836f, -0.04748301580548f,
    0.20601996779442f, 0.46239775419235f, -0.05694248527288f,
    0.24165332317352f, 0.02884563431144f, 0.33285433053970f,
    0.27115735411644f, -0.23137117922306f, 0.18664939701557f,
    -0.44005328416824f, -0.02140791714191f, -0.46121788024902f,
    0.43115279078484f, -0.00080384116154f, 0.21651774644852f,
    -0.48260679841042f, 0.26488810777664f, -0.22486594319344f,
    -0.15920704603195f},
    {0.09404603391886f, 0.04381230100989f, -0.27111393213272f,
    -1.39783513545990f, 0.45841512084007f, -0.02115643583238f,
    -0.25277227163315f, 0.08184954524040f, 0.28373584151268f,
    0.01253241207451f, -1.72467720508575f, 0.05272896587849f,
    0.19377255439758f, -0.01215680502355f, 0.23671916127205f,
    -0.14349277317524f, -0.71164387464523f, 0.24364961683750f,
    0.31370016932487f, -0.31885007023811f, -0.10761328786612f,
    0.01874339953065f, 0.13370095193386f, 0.08110253512859f,
    0.05883451551199f, 0.06233919039369f, 0.34391695261002f,
    0.08279159665108f, 0.60117739439011f, 0.13414537906647f,
    0.31730881333351f, 0.11353318393230f, 0.11995154619217f,
    0.05533201619983f, 0.14894008636475f, -0.15543612837791f,
    0.09054274857044f, -0.23108495771885f, -0.23945365846157f,
    0.21787960827351f, -0.41384178400040f, -0.09248577803373f,
    -0.19098572432995f, -0.66200667619705f, -0.02300484478474f,
    0.22091639041901f, -0.66335451602936f, 0.08424576371908f,
    -0.34785294532776f, -0.13153210282326f, 0.25049391388893f,
    0.02645457908511f, 0.06884868443012f, 0.06730280816555f,
    -0.00672783004120f, 0.18070037662983f, -0.23947107791901f,
    0.09984599798918f, 0.00871083419770f, -0.27049016952515f,
    -0.28646227717400f, -0.59441703557968f, 0.24288295209408f,
    0.06457974016666f},
    {0.08756579458714f, -0.15389481186867f, -0.08873717486858f,
    -0.07880017906427f, -0.14171323180199f, 0.05377754569054f,
    -0.18647179007530f, -0.20715002715588f, -0.61785554885864f,
    -0.05394353345037f, 0.52958691120148f, -0.14422574639320f,
    -0.27694422006607f, -0.02114755287766f, 0.25693568587303f,
    -0.13120427727699f, 0.30543011426926f, -0.28347611427307f,
    -0.28876468539238f, -0.20830681920052f, -0.00020000638324f,
    0.46262910962105f, 0.23291841149330f, -0.01800405234098f,
    -0.12980952858925f, 0.16670982539654f, 0.30655306577682f,
    0.44311147928238f, 0.06487877666950f, 0.12599927186966f,
    -0.39974749088287f, -0.10205907374620f, 0.05871292203665f,
    0.22939193248749f, 0.28054279088974f, -0.05057851970196f,
    -0.35671755671501f, -0.10088384151459f, -0.14380972087383f,
    0.16145221889019f, 0.08834645897150f, 0.39808571338654f,
    -0.03590048104525f, 0.37653389573097f, -0.18206006288528f,
    -0.15209805965424f, 0.30646970868111f, 0.00751187233254f,
    -0.10956822335720f, 0.10061136633158f, 0.11095748841763f,
    0.06267237663269f, -0.19439494609833f, -0.00772236334160f,
    0.21411898732185f, -0.01930064707994f, 0.01871706731617f,
    0.47055739164352f, 0.27103295922279f, -0.36760687828064f,
    0.12358031421900f, 0.04706438258290f, -0.35206803679466f,
    0.03202524781227f},
    {0.12012121826410f, -0.12656429409981f, -0.18587762117386f,
    -0.59222513437271f, 0.13980795443058f, -0.08008452504873f,
    -0.00401394115761f, -0.20896957814693f, -0.24012246727943f,
    -0.16519880294800f, -0.32764136791229f, -0.05569389462471f,
    -0.34714165329933f, -0.48392966389656f, 0.22983241081238f,
    0.13051696121693f, -0.72995769977570f, 0.29893505573273f,
    0.10825858265162f, -0.10386256128550f, 0.19131185114384f,
    0.09371051937342f, -0.02100126817822f, -0.01845180615783f,
    -0.50176638364792f, 0.04507561028004f, 0.17094443738461f,
    0.10659333318472f, -0.19500952959061f, 0.13500918447971f,
    0.32984468340874f, 0.02037923038006f, 0.27612763643265f,
    -0.24775415658951f, -0.16497555375099f, -0.04460301995277f,
    -0.17301574349403f, 0.16419303417206f, -0.21300634741783f,
    -0.25679868459702f, -0.72341525554657f, -0.67024493217468f,
    -0.17926105856895f, -0.31869938969612f, 0.00247363746166f,
    0.18566524982452f, -0.76763027906418f, 0.07385134696960f,
    0.12776206433773f, -0.20002369582653f, -0.07390452921391f,
    -0.12242577224970f, 0.01601910032332f, -0.21803353726864f,
    -0.23296739161015f, -0.17950502038002f, -0.48680472373962f,
    -0.38946744799614f, 0.01148274075240f, -0.06485496461391f,
    -0.06671937555075f, 0.08258665353060f, -0.02169842272997f,
    0.22264245152473f},
    {-0.04216395318508f, -0.19479335844517f, 0.18778912723064f,
    0.08620814979076f, 0.06726820766926f, -0.14959254860878f,
    0.18844242393970f, 0.05024819076061f, -0.05035258829594f,
    -0.19973663985729f, 0.01365697570145f, 0.03866368532181f,
    0.05952792987227f, -0.17983528971672f, -0.07807637006044f,
    0.02466078102589f, 0.10063309967518f, 0.03415711969137f,
    0.07964207231998f, -0.18739914894104f, -0.16314473748207f,
    0.18206346035004f, -0.08015530556440f, -0.06057836115360f,
    -0.10234040021896f, 0.20814596116543f, -0.03768636286259f,
    0.13682878017426f, 0.00605590641499f, 0.15546157956123f,
    -0.19689762592316f, -0.02407996356487f, 0.20491050183773f,
    -0.14309112727642f, 0.17745333909988f, -0.02542789280415f,
    0.18220184743404f, -0.10153900831938f, 0.03527687489986f,
    -0.17439439892769f, -0.07260008156300f, 0.15681894123554f,
    0.18009111285210f, -0.10635565221310f, -0.04036889970303f,
    0.18806131184101f, -0.16769100725651f, -0.15762838721275f,
    0.04138236120343f, -0.08051039278507f, 0.14500126242638f,
    0.15946672856808f, -0.12537136673927f, -0.01476117968559f,
    -0.18639984726906f, 0.19518192112446f, -0.10061901062727f,
    0.14712388813496f, 0.01563040725887f, -0.05144156515598f,
    0.13909175992012f, -0.01495483517647f, 0.14304789900780f,
    -0.18452283740044f},
    {0.09360568225384f, -0.27051225304604f, 0.08793321996927f,
    -0.28643855452538f, -0.75581002235413f, -0.21645548939705f,
    -0.07355009019375f, 0.08164179325104f, 0.00364702939987f,
    -0.16627418994904f, 0.48000472784042f, 0.08965322375298f,
    0.29258072376251f, -0.48676279187202f, -0.55882811546326f,
    -0.26512309908867f, 0.06810258328915f, -0.17196786403656f,
    -0.34125074744225f, -0.16177147626877f, 0.26394549012184f,
    -0.57779473066330f, -0.06388060003519f, -0.11199009418488f,
    -1.55970478057861f, -0.06214707717299f, -0.07056839764118f,
    0.24533735215664f, -0.05433224886656f, -0.28982239961624f,
    -0.13006138801575f, 0.01027632411569f, 0.03852489590645f,
    0.26599249243736f, 0.28297263383865f, -0.02592881582677f,
    -0.27093076705933f, -0.22164095938206f, -0.22763584554195f,
    -0.44665235280991f, -0.14505508542061f, 0.08397395163774f,
    -0.95830082893372f, 0.10650008171797f, -0.22349897027016f,
    -0.49295300245285f, -0.33722183108330f, -0.38463476300240f,
    -0.18524257838726f, -0.01252209767699f, -0.28450918197632f,
    -0.37910971045494f, -0.23294465243816f, 0.19395953416824f,
    -0.00099752610549f, -0.61335480213165f, 0.34657019376755f,
    0.21967598795891f, 0.10097339749336f, 0.38717773556709f,
    0.34101676940918f, 0.38238734006882f, 0.03019353561103f,
    0.50920742750168f},
    {0.26891741156578f, 0.59760689735413f, -0.17673578858376f,
    0.34908396005630f, -0.52180492877960f, 0.17508125305176f,
    -0.06323748081923f, -0.22614805400372f, 0.09215480089188f,
    -0.07815182209015f, 0.23451787233353f, -0.04460300877690f,
    -0.25641277432442f, -0.16814835369587f, -0.19717775285244f,
    0.00569365452975f, 0.03291561082006f, -0.14648538827896f,
    -0.10671097040176f, -0.29629987478256f, 0.29255864024162f,
    -0.01158336456865f, 0.14999775588512f, -0.21930955350399f,
    -0.00596189312637f, -0.19417613744736f, -2.60151290893555f,
    -0.14705717563629f, -0.63465738296509f, -0.25313091278076f,
    -0.09338601678610f, -0.08793800324202f, 0.08206242322922f,
    0.00324077019468f, 0.14588852226734f, -0.00400147493929f,
    0.24227651953697f, -0.16324323415756f, -0.18755681812763f,
    0.38412436842918f, -0.06013090163469f, 0.11862840503454f,
    -0.21860745549202f, 0.10179871320724f, -0.12170844525099f,
    -0.00223988131620f, 0.04393177852035f, -0.24358218908310f,
    -0.06943705677986f, -0.26661586761475f, -0.10566165298223f,
    -0.08636043965816f, -0.32663613557816f, -0.16421443223953f,
    0.49820345640182f, 0.12099119275808f, 0.32641771435738f,
    0.16548560559750f, -0.38752076029778f, -0.19163501262665f,
    0.26502817869186f, 0.15532115101814f, -0.11243128031492f,
    0.32720896601677f},
    {0.00616633659229f, -0.30974069237709f, 0.10150969028473f,
    0.26487189531326f, -0.12247795611620f, -0.26390209794044f,
    -0.07132673263550f, 0.10812187194824f, 0.42402905225754f,
    -0.20679934322834f, -0.42440867424011f, -0.11462106555700f,
    0.11881718784571f, 0.03334999829531f, 0.04474367573857f,
    -0.00967436283827f, -0.49327701330185f, -0.13321468234062f,
    0.08388580381870f, -0.14229759573936f, -0.00316115049645f,
    -0.29013404250145f, 0.12357502430677f, 0.04414781928062f,
    -0.02095325291157f, 0.07456478476524f, -0.23834095895290f,
    -0.17078053951263f, 0.29246428608894f, 0.06381455808878f,
    0.34863972663879f, -0.21959947049618f, -0.01067318394780f,
    0.19908156991005f, 0.24058362841606f, 0.02726147696376f,
    0.21567809581757f, 0.05076999962330f, -0.22845202684402f,
    -0.07696645706892f, 0.04107673838735f, -0.16961118578911f,
    -0.00772243738174f, -0.40128374099731f, -0.11318810284138f,
    0.22876003384590f, -1.09897303581238f, 0.00956418178976f,
    -1.35586917400360f, 0.22888980805874f, 0.18784376978874f,
    0.31977865099907f, 0.11185573786497f, 0.25197559595108f,
    -0.19270952045918f, -0.02578300982714f, 0.23806214332581f,
    -0.22864039242268f, 0.06689242273569f, 0.33892348408699f,
    -0.36277532577515f, 0.15994068980217f, -0.21390004456043f,
    0.01633634045720f},
    {-0.08298816531897f, 0.24209348857403f, -0.06146577000618f,
    -0.56318688392639f, 0.19062131643295f, -0.12086851149797f,
    -0.22642733156681f, -0.27838906645775f, -0.02648105472326f,
    -0.07069952785969f, -0.71401649713516f, -0.03799943253398f,
    -0.31334760785103f, 0.08447211980820f, -0.19648292660713f,
    0.09624709188938f, -0.18620930612087f, 0.11822736263275f,
    0.33837789297104f, 0.09696392714977f, 0.06039677560329f,
    -0.19403977692127f, -0.09754649549723f, -0.21155612170696f,
    0.09916661679745f, 0.04590112343431f, -0.23457773029804f,
    0.02496443130076f, -0.11372394114733f, -0.09742747247219f,
    -0.21230651438236f, -0.07085369527340f, 0.14460936188698f,
    -0.43553650379181f, -0.32117673754692f, 0.08086831122637f,
    0.07596977055073f, 0.22521851956844f, -0.22955451905727f,
    0.13101175427437f, -1.28192102909088f, -0.14965192973614f,
    -0.06288134306669f, -0.14207957684994f, -0.20651479065418f,
    0.25614383816719f, 0.21210798621178f, -0.10462196171284f,
    -0.28652307391167f, -0.30234807729721f, -0.17865732312202f,
    -0.06871533393860f, 0.15714691579342f, -0.17095941305161f,
    0.47151687741280f, 0.11507279425859f, -0.50717759132385f,
    -0.31612840294838f, 0.00830242689699f, 0.01057458296418f,
    0.21273665130138f, -0.01745447143912f, -0.47975498437881f,
    -0.25536462664604f},
    {1.00827491283417f, 0.67460018396378f, 0.42175653576851f,
    0.36111953854561f, -0.45173317193985f, 0.05786918476224f,
    -0.04446823894978f, 0.05317172408104f, 0.58939844369888f,
    -1.26138651371002f, -0.63883745670319f, 0.00487795565277f,
    0.26309588551521f, -2.60540533065796f, -0.36589777469635f,
    0.13687355816364f, -0.09317117929459f, 0.46200764179230f,
    -3.10147190093994f, 0.93740332126617f, 0.74430763721466f,
    -3.11130189895630f, 0.49155619740486f, -0.21023999154568f,
    -0.98432046175003f, 0.14140881597996f, -0.42481198906898f,
    -0.16146026551723f, 0.39182102680206f, -0.40510767698288f,
    0.27957057952881f, -0.21015578508377f, -0.01320838369429f,
    -0.05191549286246f, -0.34368053078651f, -0.03687613829970f,
    0.44476550817490f, -0.19591718912125f, -0.01263325568289f,
    -0.08208277076483f, 0.43696621060371f, -0.80271631479263f,
    0.11218863725662f, 0.05469562113285f, -0.12702493369579f,
    0.30759897828102f, -0.23480437695980f, -0.57876223325729f,
    -0.69702744483948f, 0.41927939653397f, 0.11522938311100f,
    -0.21567861735821f, 0.00341849052347f, 0.34016290307045f,
    0.62208944559097f, 0.61939996480942f, -0.49646115303040f,
    -0.20197923481464f, 0.27082967758179f, 0.88224428892136f,
    0.03075296431780f, -0.62176048755646f, 0.41738879680634f,
    0.06657050549984f},
    {0.18356955051422f, 0.05308714881539f, -0.11565760523081f,
    0.11578176170588f, 0.27009665966034f, -0.20892927050591f,
    -0.22185683250427f, -0.22652687132359f, 0.07874489575624f,
    0.25690945982933f, -0.10986188054085f, -0.10984743386507f,
    -0.29298943281174f, -0.09651095420122f, 0.33991599082947f,
    -0.12208595871925f, 0.04784907773137f, -0.31923097372055f,
    0.20425099134445f, 0.19261193275452f, 0.23064152896404f,
    0.23279507458210f, 0.05702431872487f, -0.01012509688735f,
    -0.40145736932755f, 0.06928384304047f, -0.17741680145264f,
    -0.04101679474115f, 0.18625932931900f, -0.34152978658676f,
    0.37433391809464f, 0.15086552500725f, -0.17512494325638f,
    -0.34270393848419f, -0.05878521129489f, -0.05819836631417f,
    -0.06957304477692f, 0.39900884032249f, 0.09141486883163f,
    -0.80140030384064f, -0.55000907182693f, -0.29028522968292f,
    -0.19382332265377f, 0.16110897064209f, -0.17194534838200f,
    -0.02640647813678f, -0.38855803012848f, -0.16072790324688f,
    0.07369269430637f, -0.00126184872352f, -0.03449079021811f,
    -0.08671171218157f, -0.04658285528421f, -0.26622194051743f,
    -0.30075779557228f, -0.58813923597336f, 0.17884972691536f,
    0.18076939880848f, -0.07908464223146f, -0.01499587111175f,
    0.28079310059547f, 0.22443866729736f, 0.16095267236233f,
    0.03733287751675f},
    {-0.54541319608688f, -0.45517906546593f, 0.12010432779789f,
    -0.36454430222511f, 0.19374532997608f, 0.04619399085641f,
    0.03495354205370f, 0.13620190322399f, 0.25894659757614f,
    0.01425984501839f, 0.21509790420532f, 0.19494819641113f,
    0.26949229836464f, -0.13080123066902f, -1.42222070693970f,
    0.12924845516682f, 0.05643843486905f, -0.45880261063576f,
    -0.11364567279816f, 0.08610644191504f, 0.21995520591736f,
    -0.64889109134674f, 0.03213456645608f, -0.03197468072176f,
    0.05796416103840f, -0.22089928388596f, 0.04511216655374f,
    -0.32367384433746f, 0.49977895617485f, -0.54572230577469f,
    -0.21545220911503f, 0.03195617720485f, -0.49316257238388f,
    -1.88574838638306f, 0.08063700795174f, 0.14472354948521f,
    -0.61041009426117f, 0.08137489855289f, -0.02412052080035f,
    -0.30561366677284f, 0.23264044523239f, 0.22791279852390f,
    -1.47429692745209f, 0.41833975911140f, 0.07411889731884f,
    -0.14108462631702f, 0.06877654790878f, -0.07937826216221f,
    0.32738944888115f, -0.03801542520523f, -0.24343192577362f,
    -0.28641560673714f, -0.02573886513710f, -0.78241801261902f,
    0.24395236372948f, -0.24340334534645f, 0.10407213121653f,
    0.42428055405617f, -0.01506763603538f, 0.43780091404915f,
    0.01552113983780f, 0.06688516587019f, -0.27743795514107f,
    -0.30663499236107f},
    {-0.35049489140511f, -0.66831201314926f, 0.09019807726145f,
    -0.62374824285507f, 0.25888422131538f, -0.06788685917854f,
    0.02460839599371f, -0.17710161209106f, 0.29811927676201f,
    0.16742964088917f, 0.28085154294968f, -0.56926602125168f,
    0.66704821586609f, 0.32367843389511f, -0.31518825888634f,
    -0.08432585000992f, 0.05096886679530f, -1.41698098182678f,
    -0.35106208920479f, 0.32716283202171f, 0.45986223220825f,
    -0.89814412593842f, 0.52754515409470f, 0.03477657213807f,
    -0.09295759350061f, 0.05559270456433f, -1.59626698493958f,
    0.20867595076561f, 0.07236850261688f, -1.07430660724640f,
    -0.41238728165627f, 0.00881118886173f, -0.73686879873276f,
    -0.38293933868408f, 0.14564412832260f, 0.04904720187187f,
    -1.48023402690887f, -0.49465742707253f, -0.00963141582906f,
    -0.35018411278725f, -0.10398294031620f, 0.38287463784218f,
    0.39596679806709f, 0.35872113704681f, -0.20700643956661f,
    0.09022409468889f, 0.80996149778366f, -1.40679359436035f,
    0.35335591435432f, -0.02754799276590f, 0.43482890725136f,
    0.07211492955685f, -0.61526912450790f, -0.41276276111603f,
    -0.66041815280914f, -0.94903528690338f, 0.30108019709587f,
    0.63709878921509f, 0.09197507798672f, 0.65553814172745f,
    -0.22235070168972f, -1.07767868041992f, 0.48231804370880f,
    -0.43338549137115f},
    {0.14784626662731f, 0.00933767855167f, -0.18602484464645f,
    -0.23797538876534f, -0.44130110740662f, -0.00974223483354f,
    0.10525150597095f, -0.21903498470783f, -0.36544877290726f,
    -0.01245836913586f, 0.08448871970177f, -0.30072832107544f,
    -0.80465877056122f, -0.07163392007351f, -0.47778245806694f,
    -0.14578483998775f, -0.00486863637343f, -0.36325761675835f,
    0.63028973340988f, -0.25474569201469f, -0.01648188382387f,
    0.24300394952297f, -0.01656678877771f, 0.07719089090824f,
    -0.06431992352009f, -0.17499464750290f, -0.44281122088432f,
    0.22712996602058f, -0.15120576322079f, -0.17345228791237f,
    0.27631977200508f, -0.16104336082935f, -0.22470647096634f,
    0.08863130956888f, 0.59017562866211f, -0.02705708891153f,
    -0.01922596804798f, -0.14083035290241f, 0.06201187521219f,
    -0.03094247542322f, 0.17413629591465f, 0.26287180185318f,
    -0.53710299730301f, 0.15367320179939f, -0.14617930352688f,
    -0.06674475967884f, 0.40668505430222f, -0.03883050754666f,
    0.28844314813614f, -0.56957191228867f, -0.61883413791656f,
    0.02649534866214f, -0.16477029025555f, -0.32462638616562f,
    0.34635937213898f, -0.17639173567295f, 0.14767907559872f,
    0.11819159239531f, -0.06005650758743f, -0.34754765033722f,
    -0.02528959140182f, 0.32082545757294f, 0.33418777585030f,
    -0.03712766990066f},
    {0.07490161806345f, 0.08999917656183f, -0.07757147401571f,
    -0.14586484432220f, -0.04292940720916f, -0.07548239082098f,
    -0.04224254935980f, -0.13682469725609f, -0.33900907635689f,
    0.18947479128838f, -1.01874089241028f, 0.11742025613785f,
    0.06323979049921f, 0.27909129858017f, 0.27552273869514f,
    0.10845295339823f, -0.07793849706650f, 0.14291632175446f,
    0.07292179018259f, 0.05214597657323f, 0.10510469973087f,
    -0.29596740007401f, 0.25417232513428f, -0.05708131194115f,
    0.07897397130728f, -0.20823781192303f, 0.00621105730534f,
    0.38778644800186f, 0.11667890101671f, 0.38320785760880f,
    -0.07235997170210f, -0.05235437303782f, 0.30438211560249f,
    0.13155922293663f, -0.19607061147690f, 0.00626703258604f,
    0.08850963413715f, 0.40247425436974f, 0.00099112163298f,
    0.17357510328293f, -0.08914709836245f, -0.32164534926414f,
    0.13823787868023f, -0.17255575954914f, -0.19338452816010f,
    0.24076478183270f, -0.28789034485817f, 0.15990252792835f,
    -0.23050077259541f, -0.15587975084782f, -0.10783135145903f,
    0.21473628282547f, 0.26012563705444f, 0.20942857861519f,
    0.18740621209145f, 0.07558584958315f, -0.28094899654388f,
    -0.43875950574875f, 0.00982455071062f, 0.03367182612419f,
    0.17021340131760f, -0.19669316709042f, -0.35969644784927f,
    -0.07116834819317f},
    {0.15140299499035f, 0.03525929152966f, 0.19866815209389f,
    -0.05821151286364f, -0.20269781351089f, -0.10715875029564f,
    0.16490192711353f, -0.20082843303680f, 0.06783287227154f,
    0.05354559794068f, 0.14645685255527f, 0.01193803176284f,
    0.18045467138290f, 0.14981517195702f, 0.04139889776707f,
    -0.00064647197723f, -0.09703530371189f, -0.16337895393372f,
    -0.14290294051170f, -0.00842239428312f, -0.12465113401413f,
    0.05990968644619f, 0.17964765429497f, -0.11792644113302f,
    0.04390011727810f, 0.10886563360691f, 0.14782275259495f,
    0.19154854118824f, 0.12608928978443f, 0.13414476811886f,
    0.03795100748539f, 0.20696212351322f, -0.07403345406055f,
    -0.08928887546062f, -0.15867154300213f, 0.18338276445866f,
    0.12364394962788f, 0.08124065399170f, 0.14140908420086f,
    0.14028918743134f, 0.13729529082775f, 0.15052986145020f,
    -0.06166468560696f, 0.09269320964813f, -0.09571886062622f,
    0.01435388624668f, 0.10753142088652f, -0.08466266095638f,
    0.01250963844359f, 0.09246168285608f, 0.07574318349361f,
    0.04598313570023f, 0.17779554426670f, -0.16214710474014f,
    0.20993341505527f, -0.00000007491413f, 0.08512522280216f,
    -0.12217258661985f, 0.03737972304225f, -0.02779479324818f,
    0.01723241619766f, 0.05226897448301f, 0.05988058820367f,
    0.17389960587025f},
    {0.27209129929543f, -1.11229622364044f, -0.01341365370899f,
    -0.26758402585983f, -0.18864642083645f, 0.20909625291824f,
    0.02298561856151f, -0.15671172738075f, 0.32493972778320f,
    -0.17316378653049f, -0.37718492746353f, -0.16482739150524f,
    -0.14022007584572f, 0.42458865046501f, -1.70092546939850f,
    -0.09081716090441f, -0.17001181840897f, -0.09031572192907f,
    0.36103951931000f, 0.41252356767654f, -0.29013332724571f,
    -0.12643170356750f, -0.16322493553162f, 0.10581059753895f,
    -0.92262476682663f, -0.23563797771931f, -0.37178444862366f,
    0.14155367016792f, 0.13566195964813f, -0.48178908228874f,
    -0.28980565071106f, -0.06877379119396f, 0.18409508466721f,
    -0.32113045454025f, 0.14965985715389f, -0.13357910513878f,
    -0.60900998115540f, 0.79343819618225f, -0.07028305530548f,
    0.50805866718292f, -1.36780238151550f, -0.23331625759602f,
    -2.54745030403137f, -0.26405012607574f, -0.20206077396870f,
    -0.24950462579727f, -0.06388867646456f, 0.23580873012543f,
    -0.13734406232834f, 0.15021792054176f, -1.79105603694916f,
    0.30629092454910f, 0.03792430087924f, -0.04847539961338f,
    -0.19601178169250f, 0.13610684871674f, 0.22128555178642f,
    0.15216971933842f, -0.02825288847089f, 0.25084462761879f,
    -0.70482361316681f, -0.03479714691639f, 0.64951837062836f,
    -0.01325830165297f},
    {-0.10547821968794f, 0.18495380878448f, 0.02467425540090f,
    -0.41770568490028f, 0.03491136804223f, 0.10943692922592f,
    -0.19594958424568f, 0.03418689593673f, 0.32162433862686f,
    -0.32626026868820f, 0.44361206889153f, 0.10861884057522f,
    0.01733533293009f, -0.00749078206718f, 0.35616520047188f,
    -0.00135075522121f, -0.22796167433262f, -0.40630477666855f,
    -0.00895491428673f, 0.06324777752161f, 0.07417807728052f,
    -0.26431518793106f, 0.15040837228298f, -0.10251595824957f,
    -0.18883380293846f, -0.00613254448399f, -0.68647181987762f,
    -0.33697152137756f, 0.26710456609726f, 0.00946068577468f,
    -0.07533100992441f, -0.16072407364845f, 0.19917787611485f,
    -0.10709574818611f, -0.14587523043156f, -0.00573984952644f,
    -0.04776514694095f, -0.34003815054893f, 0.07187069207430f,
    -0.54596716165543f, -0.39195832610130f, 0.29212069511414f,
    -0.15605783462524f, 0.08218970894814f, 0.14326031506062f,
    0.19841408729553f, 0.14740337431431f, -0.43277019262314f,
    0.19809478521347f, 0.00762535119429f, -0.05732904747128f,
    0.16843768954277f, 0.05373588576913f, 0.08224837481976f,
    -0.32070073485374f, 0.15902964770794f, -0.31039971113205f,
    0.41695252060890f, -0.02603604272008f, 0.09352501481771f,
    0.41639122366905f, -0.33491319417953f, 0.58477485179901f,
    -0.18426334857941f},
    {-0.08687683939934f, -0.23640525341034f, -0.13411287963390f,
    -0.04736725986004f, 0.34676370024681f, -0.52424776554108f,
    -0.06314566731453f, -0.15344241261482f, -0.25505486130714f,
    -0.00701204361394f, 0.17372959852219f, 0.10086036473513f,
    -0.31269997358322f, -0.01195680443197f, 0.23448939621449f,
    0.16222414374352f, -0.20985205471516f, 0.31333157420158f,
    0.13409392535686f, -0.17407895624638f, 0.07008663564920f,
    0.37753427028656f, -0.01623600162566f, -0.07354202121496f,
    0.00486989691854f, -0.19738273322582f, -1.00593292713165f,
    0.00630322284997f, 0.06304558366537f, 0.10922168940306f,
    0.24717082083225f, -0.18217968940735f, -0.15211196243763f,
    0.24993452429771f, -0.55253744125366f, 0.10396507382393f,
    0.07754123955965f, 0.25791436433792f, 0.03670860454440f,
    -0.23658014833927f, -0.17242221534252f, -0.38219809532166f,
    0.08627520501614f, 0.01593177765608f, -0.02243613265455f,
    0.07241303473711f, -0.08721874654293f, -0.15530401468277f,
    -0.07750776410103f, 0.09150411188602f, -0.10047332197428f,
    -0.10787354409695f, 0.17454971373081f, 0.21824419498444f,
    -0.61773097515106f, 0.25306269526482f, 0.08156341314316f,
    -0.13850975036621f, -0.07803186774254f, -0.18806020915508f,
    -0.01336412411183f, -0.24819195270538f, -0.01029900368303f,
    -0.10264462977648f},
    {0.06120351701975f, -0.34065374732018f, -0.20755299925804f,
    0.43013447523117f, -0.35739466547966f, -0.08473179489374f,
    -0.19207464158535f, 0.03309000283480f, 0.03625512123108f,
    -0.22635968029499f, -0.04308500885963f, -0.16734288632870f,
    -0.44706907868385f, -0.11914725601673f, 0.05192300677299f,
    -0.17342035472393f, -0.71135562658310f, -0.20159260928631f,
    -0.04778862372041f, -0.01329021994025f, -0.12911599874496f,
    0.00315134413540f, -0.17298808693886f, -0.16720947623253f,
    -0.19417823851109f, -0.18531715869904f, -0.04863771796227f,
    0.04785388335586f, 0.18990184366703f, -0.11678049713373f,
    -0.04473434016109f, -0.09934591501951f, -0.05064438283443f,
    -0.73163831233978f, -0.27006015181541f, -0.13956138491631f,
    -0.30941677093506f, 0.14416912198067f, -0.27276709675789f,
    -0.16455435752869f, -0.67444735765457f, -0.00912549812347f,
    -0.12689487636089f, -0.09170655906200f, -0.13232141733170f,
    0.00913819111884f, -0.07183429598808f, -0.15636828541756f,
    -0.16074080765247f, -0.13072364032269f, -0.07228360325098f,
    -0.01959919184446f, 0.13440135121346f, -0.58724689483643f,
    0.15494960546494f, -0.01883644238114f, 0.13257931172848f,
    -0.00262919277884f, -0.17275553941727f, 0.39528572559357f,
    -0.25409930944443f, 0.30151572823524f, 0.16046349704266f,
    -0.01510319020599f},
    {0.32234600186348f, -0.57798182964325f, 0.21587890386581f,
    -0.33907857537270f, 0.19917529821396f, -0.07036419957876f,
    -0.26513463258743f, -0.15641133487225f, 0.15308757126331f,
    -0.11238295584917f, 0.33775919675827f, -0.12755583226681f,
    -0.03018135577440f, -0.41646897792816f, 0.59719550609589f,
    -0.12869073450565f, -0.11663614213467f, 0.38983091711998f,
    -0.35620811581612f, -0.00272862589918f, 0.24085035920143f,
    -0.67404919862747f, 0.01445851568133f, 0.11265785247087f,
    -0.30400446057320f, 0.08376564830542f, 0.08225096762180f,
    0.16985014081001f, -0.31665116548538f, -0.07094372063875f,
    -0.37068137526512f, 0.10204280167818f, 0.28496965765953f,
    -0.25597295165062f, 0.33355611562729f, 0.16876389086246f,
    0.11051703989506f, 0.11414323002100f, 0.12070184201002f,
    0.23176503181458f, -0.12204460799694f, 0.01106700953096f,
    -0.01298866607249f, 0.09228428453207f, -0.18385814130306f,
    -0.16518944501877f, -0.34668865799904f, 0.31717094779015f,
    0.42479011416435f, -0.10467508435249f, 0.20682416856289f,
    0.11768408864737f, -0.15362356603146f, -0.04501621052623f,
    -0.57386386394501f, 0.10631465911865f, 0.07915232330561f,
    -0.36909335851669f, 0.20780079066753f, -0.01507604774088f,
    0.03517650440335f, 0.53212070465088f, 0.21391126513481f,
    -0.08439328521490f},
    {0.15275952219963f, 0.49938589334488f, 0.22690069675446f,
    0.52596908807755f, -0.16955797374249f, -0.18546886742115f,
    -0.21795347332954f, -0.00572112528607f, 0.21029646694660f,
    -0.60128617286682f, -0.76270788908005f, 0.17914925515652f,
    0.04096506908536f, -0.81173920631409f, 0.13411737978458f,
    0.10907921940088f, -0.18219996988773f, 0.69045454263687f,
    -0.55076056718826f, 0.46898865699768f, 0.71520495414734f,
    0.39895766973495f, 0.07030758261681f, -0.08941864967346f,
    0.24435380101204f, -0.14381486177444f, -0.10336674004793f,
    -0.07683407515287f, -0.96768993139267f, -0.09366121143103f,
    0.44799315929413f, 0.14860238134861f, 0.07296910881996f,
    0.23418290913105f, -0.74299693107605f, -0.06713872402906f,
    0.01363502629101f, -1.91591250896454f, -0.11531306058168f,
    0.22170072793961f, 0.23200932145119f, -0.06493491679430f,
    0.06135524436831f, -1.52307653427124f, 0.12282733619213f,
    -0.15515197813511f, -0.01841272413731f, -0.09642253071070f,
    -0.61932730674744f, 0.56464821100235f, 0.16530926525593f,
    -0.49584656953812f, -0.20413127541542f, 0.49528557062149f,
    0.08353303372860f, -0.45547294616699f, 0.21915805339813f,
    -0.39598342776299f, 0.37483832240105f, -0.67218780517578f,
    0.08849854022264f, 0.55800396203995f, 0.39329552650452f,
    0.02130107767880f},
    {-0.19891999661922f, 0.46194931864738f, -0.10705427825451f,
    0.27884891629219f, 0.24918754398823f, -0.32545498013496f,
    0.08971373736858f, -0.00850486755371f, -0.29964408278465f,
    0.06969302892685f, -0.27366051077843f, -0.01958795264363f,
    -0.16655069589615f, 0.02063714340329f, 0.32196834683418f,
    -0.08258916437626f, 0.77832949161530f, -0.39505141973495f,
    0.07601919770241f, -0.20886233448982f, 0.36420291662216f,
    0.00760607467964f, -0.03141759335995f, -0.09069897979498f,
    0.62943685054779f, 0.16138577461243f, 1.80161178112030f,
    0.27183976769447f, -0.23963747918606f, -0.20519143342972f,
    -0.17948010563850f, 0.05439274013042f, 0.07936146855354f,
    0.07761590182781f, -0.00335154728964f, -0.20070552825928f,
    0.08491875976324f, 1.00968074798584f, 0.08256228268147f,
    0.36613491177559f, 0.38029712438583f, -0.08088272809982f,
    0.49033084511757f, -0.02430242486298f, -0.19957037270069f,
    0.24784938991070f, 0.53293764591217f, -0.09389676153660f,
    -0.10039497911930f, 0.04606983810663f, 0.45715662837029f,
    0.04152562469244f, 0.71038544178009f, -0.06585645675659f,
    0.24478131532669f, 0.25885862112045f, -0.24802598357201f,
    -0.10582106560469f, -0.14598008990288f, -0.33050316572189f,
    0.37190333008766f, -0.40624278783798f, -0.07945431768894f,
    0.39989498257637f},
    {-0.04251565784216f, -0.15475721657276f, -0.12783390283585f,
    -0.15278518199921f, 0.28918421268463f, -0.11899453401566f,
    -0.11646264046431f, -0.13859310746193f, 0.29920303821564f,
    -0.00239391205832f, -0.03879112005234f, -0.29885944724083f,
    0.29622402787209f, -0.04004161059856f, -0.09775470197201f,
    -0.16876295208931f, -0.49748751521111f, -0.08563280105591f,
    -0.29506444931030f, -0.08399236947298f, -0.18459759652615f,
    0.21639582514763f, -0.12729880213737f, -0.02910462953150f,
    -0.17936405539513f, 0.00535363424569f, 0.08801586925983f,
    -0.04012551903725f, 0.03348305076361f, -0.01734085008502f,
    0.05051419511437f, 0.13241605460644f, 0.20566929876804f,
    -0.01828542910516f, -0.39462912082672f, -0.19288130104542f,
    0.17660552263260f, -0.07696870714426f, -0.20671057701111f,
    0.07897600531578f, -0.17531403899193f, 0.03395656496286f,
    0.19636400043964f, -0.32172489166260f, 0.13367168605328f,
    -0.04728290811181f, 0.06969255954027f, 0.03928890824318f,
    0.04130603373051f, -0.18748740851879f, 0.04766384884715f,
    0.12442326545715f, 0.27673831582069f, 0.05477221682668f,
    0.01150294393301f, -0.06770469248295f, 0.12412401288748f,
    -0.09654378890991f, -0.06163975223899f, 0.08934053033590f,
    -0.00210279575549f, -0.13060739636421f, 0.28058603405952f,
    0.19852925837040f},
    {-0.09765906631947f, 0.02126278169453f, -0.10312138497829f,
    0.06907727569342f, -0.01493685133755f, 0.16110511124134f,
    -0.10106412321329f, 0.17663200199604f, -0.01603484526277f,
    -0.12041922658682f, 0.12565903365612f, -0.01613654755056f,
    -0.19660405814648f, 0.15386863052845f, -0.06202158331871f,
    0.14670531451702f, 0.20538051426411f, -0.02663349173963f,
    -0.02884713560343f, 0.13423061370850f, 0.06402988731861f,
    -0.13446857035160f, -0.19027540087700f, -0.04872278869152f,
    -0.17871540784836f, 0.01202014088631f, 0.05274434387684f,
    0.04958003014326f, 0.21292556822300f, 0.16235855221748f,
    0.17686103284359f, -0.03338338434696f, 0.15009483695030f,
    0.12811540067196f, 0.14563034474850f, -0.01061046123505f,
    -0.11027385294437f, 0.19510877132416f, 0.00219041109085f,
    0.20356006920338f, -0.16415886580944f, 0.21590916812420f,
    -0.10249815136194f, -0.15003781020641f, -0.02481538057327f,
    -0.02020121365786f, -0.19671462476254f, -0.11295663565397f,
    0.09294876456261f, -0.18749648332596f, 0.10679801553488f,
    -0.01090298593044f, -0.00947019364685f, 0.17870269715786f,
    0.12456028163433f, -0.09427359700203f, -0.15510435402393f,
    -0.04344461858273f, -0.06694626063108f, 0.05652799084783f,
    0.15125702321529f, -0.18936802446842f, -0.19123204052448f,
    0.19742780923843f},
    {0.63865625858307f, 0.14476297795773f, -0.23922775685787f,
    -0.02981605753303f, 1.00319528579712f, 0.03008213825524f,
    -0.15823382139206f, -0.10430488735437f, -0.20211802423000f,
    -0.52010810375214f, -0.36567676067352f, -0.01446692831814f,
    0.44709745049477f, -0.01863702759147f, 0.66838437318802f,
    0.06366441398859f, -0.17209456861019f, 0.17835019528866f,
    -0.72967296838760f, 0.14058166742325f, 0.15586894750595f,
    -0.42939814925194f, 0.37230655550957f, -0.01662539131939f,
    -0.25715640187263f, 0.00288735982031f, 0.17940098047256f,
    -0.17491526901722f, -1.37926757335663f, 0.06764631718397f,
    0.98883831501007f, 0.04522711783648f, -0.17767630517483f,
    0.63663727045059f, 0.70033937692642f, 0.01201793272048f,
    0.25526171922684f, 0.06497070938349f, -0.18406042456627f,
    -0.36097851395607f, 0.04921041056514f, -0.97788971662521f,
    -0.09525873512030f, -1.17463791370392f, 0.02858962491155f,
    -0.17696949839592f, -0.42668214440346f, 0.01224620733410f,
    0.01919793896377f, -0.43997833132744f, 0.25289827585220f,
    0.10273360460997f, -0.79057192802429f, 0.68752080202103f,
    -0.50707972049713f, 0.10874186456203f, -0.95976370573044f,
    -1.01082265377045f, -0.01104480586946f, -0.51266890764236f,
    0.03109184280038f, -1.08135223388672f, -2.08581972122192f,
    -0.25060084462166f},
    {0.08727251738310f, -0.18876984715462f, -0.25825455784798f,
    -0.24737076461315f, -1.06632208824158f, -0.33264845609665f,
    -0.09402830898762f, -0.25938856601715f, -0.20657661557198f,
    -0.04906011000276f, 0.43148365616798f, 0.04416007176042f,
    0.18539923429489f, 0.35435882210732f, 0.32803040742874f,
    -0.07394451647997f, -0.22786849737167f, -0.41160342097282f,
    -0.08020060509443f, -0.13417632877827f, 0.23434865474701f,
    -0.42941778898239f, 0.00568037061021f, -0.19352445006371f,
    -0.17944097518921f, 0.13523308932781f, -0.56764537096024f,
    0.20387838780880f, 0.29972216486931f, -0.19953458011150f,
    -0.63170284032822f, 0.10615330934525f, -0.02497357130051f,
    -0.03383285924792f, -0.98945534229279f, 0.02111714519560f,
    -0.13965167105198f, 0.61051326990128f, -0.05915901437402f,
    0.33597332239151f, -0.01468208152801f, 0.11902084201574f,
    -0.56566792726517f, 0.16135941445827f, 0.01863981783390f,
    -0.08622963726521f, -0.05808467417955f, -0.67023360729218f,
    0.06415665894747f, 0.02176774851978f, -0.06243079155684f,
    -0.21733556687832f, 0.03153922036290f, 1.03498947620392f,
    0.18113131821156f, -0.02124673686922f, 0.02010809630156f,
    0.52689200639725f, 0.11478047072887f, -0.27295467257500f,
    -0.42947414517403f, 0.34596204757690f, -0.05635676905513f,
    -0.01214290689677f},
    {0.08681857585907f, 0.01969119906425f, 0.03314544260502f,
    -0.37610918283463f, 0.57671117782593f, -0.17094898223877f,
    0.05833198875189f, -0.24296098947525f, 0.27248308062553f,
    -0.03986930102110f, -0.00199296418577f, 0.13258753716946f,
    0.15831868350506f, 0.35270497202873f, 0.21776111423969f,
    -0.19337218999863f, -0.46955168247223f, 0.27343225479126f,
    -0.16850560903549f, -0.10271966457367f, -0.21638840436935f,
    -0.22685551643372f, -0.01885536871850f, 0.05709162726998f,
    -0.18239267170429f, -0.22780416905880f, 0.17036114633083f,
    0.07650259882212f, 0.80516088008881f, 0.10819547623396f,
    0.12708088755608f, -0.11174635589123f, 0.33295539021492f,
    -0.00564342970029f, -0.02264216169715f, 0.01086530182511f,
    0.05720033496618f, 0.05396238341928f, -0.27529850602150f,
    -0.10067994892597f, -0.20763222873211f, -0.20312507450581f,
    0.02528983168304f, -0.19575306773186f, -0.19185993075371f,
    0.20515632629395f, -0.21520929038525f, -0.19227190315723f,
    0.29501610994339f, -0.03658647835255f, 0.03901744633913f,
    0.29686614871025f, 0.21465998888016f, -0.13700938224792f,
    -0.30875417590141f, 0.42061719298363f, -0.45898109674454f,
    -0.51739871501923f, 0.18678162992001f, 0.12371040135622f,
    -0.25564479827881f, -0.20206892490387f, -0.63627725839615f,
    -0.02967526204884f},
    {-1.25401890277863f, -0.59896439313889f, -0.15645407140255f,
    0.96276462078094f, 0.03601421043277f, 0.21593075990677f,
    0.17146040499210f, 0.19294045865536f, -1.08477210998535f,
    -0.39021533727646f, 0.70854377746582f, -0.12790866196156f,
    0.11216833442450f, -1.11403214931488f, -1.32024264335632f,
    -0.08406135439873f, -0.08609574288130f, 0.23504902422428f,
    0.19169111549854f, 0.15407621860504f, -0.06434193253517f,
    0.88396275043488f, -0.00416880100965f, 0.17400334775448f,
    -0.57912105321884f, 0.03714407235384f, 0.18824696540833f,
    0.53319966793060f, 0.10630832612514f, -0.39551669359207f,
    -0.14944137632847f, -0.04089397192001f, -0.12698470056057f,
    0.03881245851517f, 0.53827261924744f, -0.05466219037771f,
    -0.43868854641914f, 0.22016516327858f, -0.15005502104759f,
    0.35476371645927f, -0.11375973373652f, 0.14312690496445f,
    -2.28507518768311f, 0.20811752974987f, 0.09514166414738f,
    -0.79072397947311f, 1.59365355968475f, -0.49567908048630f,
    0.64989060163498f, 0.01823173090816f, -1.69556248188019f,
    -0.18279126286507f, -0.51655042171478f, -0.04396911337972f,
    -0.35897845029831f, -0.49901387095451f, 0.14327719807625f,
    -1.05405080318451f, -0.09969300031662f, -0.49242663383484f,
    0.10598506033421f, -0.00852488167584f, 0.71952021121979f,
    -0.05677032843232f},
    {0.21706524491310f, -0.82731497287750f, 0.06210490316153f,
    -0.12188349664211f, -0.09827270358801f, -0.27730756998062f,
    0.05247245356441f, -0.15570031106472f, 0.32657882571220f,
    -0.10101387649775f, 0.15598219633102f, 0.13052673637867f,
    0.00297612999566f, -0.29737931489944f, 0.17551188170910f,
    -0.16619031131268f, -0.09135058522224f, -0.03169942647219f,
    -0.21577082574368f, -0.06890731304884f, 0.19382433593273f,
    -0.03570430725813f, -0.28434020280838f, -0.10828683525324f,
    -2.06428480148315f, 0.15235194563866f, 0.22103977203369f,
    -0.29317381978035f, 0.35894638299942f, -0.15041783452034f,
    0.05398252233863f, 0.04397239163518f, 0.06991300731897f,
    0.61813640594482f, 0.02904219552875f, -0.10729852318764f,
    -0.23442575335503f, -0.01860130392015f, 0.07687423378229f,
    -0.28903540968895f, 0.09614841639996f, 0.33896920084953f,
    -0.38455983996391f, 0.01726287975907f, 0.07085180282593f,
    -0.55226647853851f, -0.35604482889175f, -0.09254334121943f,
    0.17278751730919f, -0.18096625804901f, 0.38932001590729f,
    0.01199098117650f, 0.03977313637733f, -0.36550924181938f,
    0.19590641558170f, -0.63684260845184f, -0.02004817314446f,
    -0.16159003973007f, 0.04214013740420f, 0.00347346230410f,
    0.05801396444440f, 0.22850447893143f, 0.25332063436508f,
    0.73567336797714f},
    {0.09125970304012f, 0.03358170762658f, -0.11976657062769f,
    -0.05191022157669f, 0.17717684805393f, 0.05502549558878f,
    0.02197834849358f, -0.10155920684338f, 0.04662741720676f,
    0.10995832085609f, 0.06086077913642f, -0.05291317403316f,
    -0.14583018422127f, 0.07253951579332f, 0.07436939328909f,
    -0.01789852976799f, 0.16331045329571f, -0.07007312774658f,
    -0.08394952863455f, -0.07559676468372f, 0.05013266578317f,
    0.08511485159397f, 0.00395703734830f, -0.20605723559856f,
    0.18244479596615f, 0.14379997551441f, 0.05649875104427f,
    -0.17436307668686f, 0.18693740665913f, -0.07653232663870f,
    0.09736488759518f, -0.05863040685654f, 0.00240230560303f,
    0.05644340813160f, -0.19979366660118f, 0.16368995606899f,
    0.11253081262112f, 0.04921297356486f, -0.09023922681808f,
    -0.06188086047769f, 0.00723069906235f, 0.17579175531864f,
    -0.01011265814304f, 0.06699594855309f, 0.18863050639629f,
    0.11439539492130f, 0.08714285492897f, -0.00654907524586f,
    0.07028616964817f, -0.10600415617228f, 0.10033588111401f,
    0.06296265870333f, -0.07269956171513f, 0.07425354421139f,
    0.10248812288046f, 0.06583492457867f, 0.15799514949322f,
    0.17848502099514f, -0.17374444007874f, 0.16344507038593f,
    -0.15693981945515f, 0.09714150428772f, 0.02489601634443f,
    0.15946651995182f},
    {0.03201422095299f, 0.08166082203388f, 0.37504976987839f,
    0.02195860259235f, -0.15077385306358f, -0.12962830066681f,
    -0.04268450662494f, -0.08220941573381f, -0.13209244608879f,
    -0.21693485975266f, -0.26326569914818f, 0.25206208229065f,
    -0.18149016797543f, -0.32436180114746f, -0.50186783075333f,
    0.18375714123249f, -0.39819031953812f, -0.00200214306824f,
    0.30923768877983f, -0.28909909725189f, -0.05984845757484f,
    -0.40971657633781f, 0.23646968603134f, 0.12825791537762f,
    -0.32528510689735f, -0.11989249289036f, 0.07935746759176f,
    -0.42278501391411f, -0.30136424303055f, 0.11471220850945f,
    -0.05024289712310f, -0.07689186185598f, 0.06425265222788f,
    0.14505763351917f, 0.13889013230801f, -0.07523660361767f,
    -0.01541530247778f, -0.11521423608065f, -0.04527674615383f,
    -0.06310852617025f, -0.02870527654886f, 0.60584992170334f,
    -0.15513294935226f, -0.03577161952853f, 0.17759458720684f,
    0.00161538249813f, -0.36505302786827f, -0.15008808672428f,
    -0.32417890429497f, 0.14346197247505f, 0.04996468499303f,
    0.26565062999725f, 0.26625028252602f, 0.02893179841340f,
    -0.08240312337875f, -0.47393897175789f, -0.26967349648476f,
    -0.02355608530343f, 0.24946044385433f, 0.41144165396690f,
    0.01150784455240f, 0.03100942447782f, -0.24415531754494f,
    -0.00704457517713f},
    {-0.50442165136337f, -0.32012262940407f, -0.21387752890587f,
    -0.29693406820297f, 0.29551407694817f, -0.05396548658609f,
    -0.08306937664747f, -0.07659404724836f, 0.12769833207130f,
    -0.08320041000843f, 0.23338399827480f, -0.09501761943102f,
    -0.45374116301537f, 0.15052607655525f, 0.76796686649323f,
    0.16617384552956f, -0.16276343166828f, 0.80591058731079f,
    0.75678694248199f, -0.12993688881397f, 0.33996191620827f,
    0.40921187400818f, -0.36333444714546f, 0.05401838943362f,
    0.58593583106995f, 0.07696213573217f, -1.57276749610901f,
    -0.08654565364122f, -0.15657563507557f, 0.53399103879929f,
    0.08252447098494f, -0.21162612736225f, -0.18352955579758f,
    -1.38247430324554f, -0.37302404642105f, 0.07587196677923f,
    -0.13608132302761f, 0.52015835046768f, -0.01194601040334f,
    -0.20467230677605f, -0.18257796764374f, -0.24925304949284f,
    0.40992563962936f, -0.39588651061058f, -0.18514071404934f,
    -0.23821482062340f, 0.21988181769848f, 0.19899468123913f,
    0.24850641191006f, 0.33899080753326f, -0.62714660167694f,
    -0.24439059197903f, -0.20421521365643f, -0.73744678497314f,
    -0.20716449618340f, 0.50733035802841f, 0.17635653913021f,
    0.09430197626352f, -0.09408541023731f, -0.17293781042099f,
    -0.14963050186634f, 0.07397063076496f, 0.66901779174805f,
    -0.14886744320393f},
    {0.15326805412769f, 0.51084625720978f, 0.38136819005013f,
    -0.51613235473633f, -2.41171121597290f, 0.39740213751793f,
    -0.01949061453342f, 0.20958828926086f, -0.47460076212883f,
    0.08568863570690f, -0.41591930389404f, -0.25356498360634f,
    0.30592870712280f, 0.18025214970112f, -0.21390128135681f,
    -0.21594332158566f, -0.04335622861981f, -0.45880442857742f,
    -0.09470824152231f, 0.14578829705715f, 0.78201609849930f,
    -0.09568355977535f, 0.36581671237946f, -0.21054008603096f,
    -0.37985149025917f, 0.15284147858620f, -1.14160633087158f,
    0.43710634112358f, -0.20751465857029f, -0.23266674578190f,
    0.22863398492336f, 0.05955762788653f, -0.17119193077087f,
    -0.09173483401537f, 0.06771187484264f, -0.20749101042747f,
    -0.29565620422363f, -0.11704720556736f, -0.11454673111439f,
    -0.01170359738171f, 0.33837050199509f, 0.35153582692146f,
    -0.36022314429283f, 0.29872500896454f, -0.05606384575367f,
    -0.32737228274345f, 0.53418844938278f, -0.24706526100636f,
    0.20450441539288f, -1.25090193748474f, -0.29704564809799f,
    -0.00442940974608f, -0.83158594369888f, 0.14177340269089f,
    0.69812107086182f, -0.46646088361740f, 0.79601305723190f,
    -0.33771207928658f, -0.30049675703049f, 0.14859327673912f,
    -0.14295943081379f, 0.06158656999469f, -0.30188745260239f,
    0.19139687716961f},
    {-0.28521278500557f, 0.19093009829521f, -0.07250913232565f,
    -0.36941680312157f, -0.00589107768610f, -0.09592021256685f,
    0.11767368018627f, -0.13801106810570f, -0.03037422150373f,
    -0.63671088218689f, -1.72925889492035f, -0.03656312078238f,
    -0.03629486262798f, -0.04193590953946f, 0.20165757834911f,
    0.19218216836452f, -0.45287671685219f, -0.21416129171848f,
    -0.17742340266705f, -0.25644540786743f, 0.08372089266777f,
    -0.49708789587021f, 0.00970632210374f, -0.00120886589866f,
    -0.08468837291002f, -0.16854088008404f, -0.05261143296957f,
    0.17334045469761f, -0.02015798166394f, -0.03945835679770f,
    0.09829518944025f, -0.03496563062072f, 0.18514464795589f,
    0.39706259965897f, 0.65367001295090f, 0.11263158172369f,
    0.20449604094028f, 0.06072916835546f, 0.00416961964220f,
    0.12098499387503f, 0.14633105695248f, 0.62194496393204f,
    0.12138489633799f, -0.29266169667244f, 0.07809758186340f,
    -0.04037220031023f, 0.23665115237236f, 0.11130715161562f,
    0.31748238205910f, -0.36901685595512f, 0.58229470252991f,
    -0.24631287157536f, -0.21814395487309f, -0.01504737604409f,
    0.35809749364853f, 0.00147148396354f, -0.04535914957523f,
    -1.00070369243622f, 0.07723014801741f, -1.34149992465973f,
    0.12129439413548f, 0.35325944423676f, 0.00361874978989f,
    0.03927430137992f},
    {-0.00613465765491f, -0.21807275712490f, 0.07320497184992f,
    0.02934683673084f, -0.08980622142553f, -0.07866178452969f,
    -0.09030167758465f, -0.24344612658024f, 0.06648684293032f,
    0.05389151722193f, -0.32042810320854f, 0.04153267666698f,
    -0.03026783838868f, 0.22179976105690f, -0.12136511504650f,
    -0.16019874811172f, -0.19567422568798f, -0.11902423202991f,
    -0.11570330709219f, -0.24657587707043f, -0.09630873799324f,
    -0.10590036958456f, -0.08801669627428f, 0.07004264742136f,
    0.06368032842875f, -0.12250146269798f, 0.16627641022205f,
    0.05544180050492f, -0.42934969067574f, -0.03335014358163f,
    -0.03012371063232f, -0.11030292510986f, 0.28565761446953f,
    0.09439088404179f, 0.08223244547844f, -0.01489939726889f,
    0.14827598631382f, 0.24721246957779f, -0.27491638064384f,
    0.03380975499749f, -0.05005015432835f, 0.03367289900780f,
    -0.15300981700420f, -0.22530815005302f, 0.13926361501217f,
    0.31790649890900f, 0.24962398409843f, 0.06527844071388f,
    -0.13954056799412f, 0.02462483942509f, 0.11792086809874f,
    0.29140773415565f, 0.19348640739918f, 0.23170550167561f,
    0.03930288180709f, 0.10517797619104f, -0.00123072415590f,
    -0.22317250072956f, 0.10078292340040f, -0.20919711887836f,
    -0.09856392443180f, -0.49136611819267f, -0.58142495155334f,
    0.03214165940881f},
    {-1.00172531604767f, -0.18440020084381f, -0.26377367973328f,
    0.30524438619614f, -0.30613094568253f, 0.05717429518700f,
    0.00462532555684f, 0.02102312259376f, -0.16888496279716f,
    0.01783729903400f, 0.87686842679977f, -0.34323757886887f,
    -0.28684732317924f, -0.04739813134074f, -0.18912395834923f,
    -0.16666884720325f, 0.35870283842087f, 0.27382802963257f,
    0.21717895567417f, -0.11849334090948f, -0.12076479196548f,
    0.09142489731312f, -0.36429527401924f, -0.22900801897049f,
    -0.06515020877123f, 0.03354441374540f, 0.34988021850586f,
    0.29454690217972f, -0.32324507832527f, -0.07929095625877f,
    0.12659604847431f, -0.00277850963175f, -0.33567428588867f,
    0.18035857379436f, 0.12478169053793f, -0.22762754559517f,
    0.12692970037460f, -0.26021829247475f, 0.10103838145733f,
    -0.21060781180859f, 0.23385907709599f, -0.00967415608466f,
    -0.08887733519077f, 0.10199059545994f, -0.18101617693901f,
    0.18003933131695f, 0.12921737134457f, 0.25390577316284f,
    0.50638568401337f, -0.08036985248327f, 0.10198039561510f,
    -0.25770279765129f, -0.10307644307613f, -0.39648613333702f,
    0.36518511176109f, 0.04611552506685f, 0.02988149225712f,
    0.13450369238853f, -0.08190100640059f, 0.35846918821335f,
    0.18943828344345f, 0.18668384850025f, 0.03559541329741f,
    -0.19990332424641f},
    {-0.07010753452778f, -0.32286512851715f, 0.21699598431587f,
    -0.00294933933765f, -0.41610717773438f, 0.00339642330073f,
    -0.23987388610840f, 0.08297601342201f, 0.00718269310892f,
    0.20737724006176f, 0.11607270687819f, 0.07498688250780f,
    0.18716046214104f, 0.53645735979080f, 0.02061669528484f,
    -0.14859168231487f, 0.04434601962566f, -0.32848063111305f,
    -0.07249841839075f, -0.46971023082733f, -0.23745760321617f,
    0.19396816194057f, 0.01783259958029f, -0.04055818915367f,
    0.15012732148170f, -0.14216805994511f, -0.46749407052994f,
    -0.05468400940299f, -0.22542896866798f, -0.03481538593769f,
    -0.11058535426855f, -0.13435973227024f, 0.11254151910543f,
    -0.16274945437908f, -0.20888796448708f, -0.23641851544380f,
    0.13132199645042f, -0.00541610457003f, 0.05400452762842f,
    0.16185806691647f, -0.05924385413527f, -0.14314572513103f,
    0.28829884529114f, 0.43089926242828f, 0.03333434835076f,
    0.20687419176102f, 0.35201290249825f, -0.13417367637157f,
    0.59065753221512f, 0.10362794995308f, 0.08696316182613f,
    0.00763658853248f, 0.17204448580742f, -0.01734577864408f,
    0.02365547046065f, -0.39428007602692f, 0.34221118688583f,
    0.23203165829182f, 0.22604957222939f, -0.17342482507229f,
    0.14295452833176f, -0.47602114081383f, -0.15501604974270f,
    -0.01826654002070f},
    {-0.18350464105606f, -0.04634316638112f, 0.18268787860870f,
    -0.18733528256416f, 0.14994278550148f, -0.13969683647156f,
    0.11631329357624f, -0.12651354074478f, -0.18412081897259f,
    0.04304327815771f, 0.21355220675468f, -0.11190426349640f,
    -0.17460285127163f, -0.06558209657669f, -0.14272658526897f,
    -0.01228147745132f, -0.07315918803215f, -0.13065317273140f,
    -0.22457191348076f, 0.01624964177608f, -0.05940324068069f,
    0.06812480837107f, 0.10035143047571f, 0.15028202533722f,
    -0.15983022749424f, 0.08327493816614f, 0.16379675269127f,
    -0.15943104028702f, -0.12270152568817f, -0.12771487236023f,
    0.12447386980057f, 0.11513940989971f, 0.04283296689391f,
    0.17464770376682f, 0.01668220758438f, -0.16971927881241f,
    -0.17309471964836f, 0.17974957823753f, -0.03387869149446f,
    0.15790352225304f, 0.05175863206387f, -0.10161318629980f,
    -0.06525675207376f, 0.10083480179310f, 0.04033343493938f,
    -0.16647207736969f, -0.19566795229912f, -0.09153923392296f,
    -0.23500715196133f, 0.10322776436806f, -0.01256426796317f,
    -0.19060625135899f, -0.19036415219307f, -0.21893993020058f,
    -0.10620182752609f, -0.16488331556320f, -0.01524170953780f,
    -0.16627891361713f, -0.20643137395382f, -0.04898601770401f,
    -0.19273382425308f, 0.05532081425190f, 0.09252547472715f,
    -0.14769417047501f},
    {0.27355903387070f, 0.27780458331108f, 0.02379784733057f,
    -1.88476610183716f, 0.30091112852097f, -0.07405712455511f,
    0.12684069573879f, 0.05431891977787f, 0.61080199480057f,
    0.27665436267853f, 0.13567601144314f, -0.10660658031702f,
    0.18712686002254f, -0.11890040338039f, -0.18823026120663f,
    -0.04862506687641f, -0.44723746180534f, -0.15303869545460f,
    -0.55982196331024f, -0.04161442816257f, 0.35640347003937f,
    -0.29266852140427f, -0.18972250819206f, 0.07812195271254f,
    0.37249398231506f, 0.06363333761692f, 0.06372021138668f,
    0.21866576373577f, 0.62927937507629f, 0.22832618653774f,
    -1.09510147571564f, 0.08130829036236f, -0.15026263892651f,
    -0.50171607732773f, 0.97293776273727f, -0.06157074868679f,
    0.54329836368561f, 1.27721405029297f, -0.00580133171752f,
    -0.13831958174706f, -0.35538303852081f, -1.18973529338837f,
    0.38558924198151f, -0.39819350838661f, -0.11498823016882f,
    -0.47658130526543f, 0.90739530324936f, -0.31562563776970f,
    0.20024418830872f, -0.44673055410385f, 0.53365910053253f,
    -0.76535856723785f, -0.04450932890177f, 0.56673496961594f,
    -0.23449185490608f, -0.05484814196825f, -1.37193322181702f,
    0.23045513033867f, -0.38023492693901f, -0.89228254556656f,
    -0.91378676891327f, -1.61005318164825f, -0.32708239555359f,
    -0.43023741245270f},
    {0.09195008873940f, -0.02071664482355f, -0.30472058057785f,
    0.19785785675049f, 0.23630706965923f, -0.05260029807687f,
    -0.26063191890717f, 0.13927358388901f, 0.24713842570782f,
    -0.12507662177086f, 0.04065115749836f, 0.26047170162201f,
    -0.26796963810921f, -0.13834381103516f, 0.31143802404404f,
    -0.17945273220539f, 0.16875778138638f, 0.03985726088285f,
    -0.01569865457714f, -0.15863819420338f, -0.23203794658184f,
    0.13988450169563f, 0.10762847959995f, 0.05365638807416f,
    0.18285441398621f, 0.09616605937481f, -0.18050479888916f,
    -0.17603032290936f, 0.03839722275734f, 0.04593593999743f,
    0.10277822613716f, -0.02136949636042f, 0.10213901102543f,
    -0.08281640708447f, -1.99511480331421f, -0.01045495178550f,
    0.35311722755432f, 0.16838100552559f, -0.01281619258225f,
    0.30062153935432f, -0.04285858944058f, -0.23534560203552f,
    0.23216736316681f, -0.16568709909916f, -0.13173145055771f,
    0.50579130649567f, -0.59651505947113f, 0.06461106985807f,
    0.03172165527940f, 0.29518982768059f, 0.18663555383682f,
    -0.29900819063187f, 0.23453386127949f, 0.03166532889009f,
    -0.27858749032021f, 0.16186071932316f, -0.33269298076630f,
    -0.28488451242447f, -0.05733902007341f, -0.60273545980453f,
    0.04298907145858f, -0.14087624847889f, -0.32520273327827f,
    -0.08266772329807f},
    {-0.15514332056046f, 0.04255650937557f, 0.12477689236403f,
    -0.20035603642464f, -0.14396044611931f, -0.10730693489313f,
    -0.05348944664001f, 0.21179281175137f, -0.14858943223953f,
    0.11306618154049f, 0.07523000985384f, 0.09181424230337f,
    -0.11899703741074f, 0.05526188388467f, 0.03799013793468f,
    0.00084221363068f, -0.04100009799004f, -0.05212589725852f,
    -0.03120575658977f, -0.05426891148090f, -0.04907806217670f,
    0.00503379339352f, -0.14286968111992f, 0.18966521322727f,
    -0.13869382441044f, -0.03302179276943f, -0.06316819787025f,
    -0.03119752928615f, 0.14518520236015f, 0.23684883117676f,
    0.08608850091696f, 0.00380727648735f, -0.21964287757874f,
    0.03897734358907f, 0.07706670463085f, 0.00000159442425f,
    -0.16998080909252f, -0.00137132429518f, -0.12042558193207f,
    0.00696160085499f, 0.02508582547307f, -0.15212023258209f,
    0.22011935710907f, 0.10075567662716f, -0.00180812180042f,
    -0.18685817718506f, -0.07773025333881f, 0.00928262341768f,
    -0.08676604926586f, 0.15419465303421f, -0.13669170439243f,
    0.00111806509085f, 0.09771735221148f, 0.17193827033043f,
    0.11218672990799f, -0.03611038997769f, 0.19919149577618f,
    0.07749776542187f, -0.11665880680084f, -0.17293867468834f,
    0.02783817052841f, 0.10031644254923f, 0.17559720575809f,
    -0.16326010227203f},
    {-0.12679848074913f, 0.06225567311049f, 0.16291998326778f,
    0.10647192597389f, -0.25395506620407f, 0.08871887624264f,
    0.07259199768305f, -0.06085379421711f, -0.35590583086014f,
    0.13259440660477f, 0.09405329078436f, 0.06565813720226f,
    0.37924945354462f, -0.27074265480042f, 0.04122987017035f,
    -0.16008941829205f, 0.37483099102974f, -0.20429889857769f,
    0.49413707852364f, 0.33002632856369f, 0.08709242194891f,
    -0.04943502321839f, -0.08853278309107f, -0.23017789423466f,
    0.01146390102804f, 0.00641873618588f, 0.16939452290535f,
    0.25792828202248f, 0.01087054982781f, -0.28464916348457f,
    0.00995742715895f, -0.13992673158646f, -0.37509679794312f,
    -1.17793416976929f, 0.34760901331902f, -0.07877253741026f,
    -0.19168059527874f, -0.10877043008804f, 0.10948381572962f,
    -0.08027166128159f, -3.52109336853027f, 0.19196705520153f,
    -0.09632588922977f, 0.36182695627213f, -0.23605382442474f,
    -0.20407545566559f, -0.32695627212524f, 0.25323405861855f,
    0.28562802076340f, -0.22378265857697f, -1.11202263832092f,
    0.20114003121853f, 0.14010418951511f, -0.17540913820267f,
    0.09699047356844f, 0.36017969250679f, 0.08390792459249f,
    -0.11219223588705f, 0.18549178540707f, -0.12471421808004f,
    0.29849454760551f, 0.46341311931610f, 0.05874219164252f,
    0.17359499633312f},
    {0.22021000087261f, 0.07232615351677f, -0.07666157931089f,
    -0.28563845157623f, 0.12294037640095f, 0.26383003592491f,
    -0.15503194928169f, -0.04400709643960f, 0.07648417353630f,
    0.25681343674660f, -1.24035286903381f, 0.16089674830437f,
    0.23401564359665f, -0.15446011722088f, -0.29034784436226f,
    0.19176007807255f, -0.35274508595467f, 0.09617771953344f,
    0.04121828079224f, -0.03604587540030f, -0.18024092912674f,
    -0.16110411286354f, -0.05550936609507f, -0.06455565243959f,
    0.10692592710257f, 0.04895683005452f, -0.18160887062550f,
    -0.02274151705205f, 0.07443675398827f, -0.09282662719488f,
    -0.72973555326462f, 0.02992326021194f, -0.12379706650972f,
    0.40631690621376f, -0.20288725197315f, -0.08105855435133f,
    -0.01338648237288f, 0.28924068808556f, -0.26207911968231f,
    0.15668682754040f, -1.12005472183228f, 0.17155055701733f,
    0.27683895826340f, 0.07836411148310f, -0.19569790363312f,
    0.46821346879005f, -0.03828981891274f, 0.02897684276104f,
    0.07378543168306f, -0.18806476891041f, 0.28816312551498f,
    0.05844518542290f, 0.39914077520370f, 0.03659439086914f,
    0.25639897584915f, 0.02870002202690f, -0.52245599031448f,
    -0.53551369905472f, -0.12688486278057f, -0.10855405777693f,
    0.06762287020683f, -0.11938674002886f, -0.04527857527137f,
    -0.19464457035065f},
    {-0.01474308967590f, 0.21387113630772f, -0.13165019452572f,
    -0.17314952611923f, 0.05152743682265f, -0.03599795699120f,
    0.17980740964413f, -0.17359897494316f, -0.03158692270517f,
    0.08185379207134f, -0.11652258038521f, 0.17670708894730f,
    -0.00642536580563f, 0.00200617313385f, 0.03950475901365f,
    0.17468358576298f, -0.20327909290791f, 0.20192819833755f,
    -0.17201302945614f, -0.08543306589127f, -0.10613109916449f,
    0.16782303154469f, 0.16663476824760f, -0.04408341646194f,
    0.18744091689587f, 0.21260099112988f, 0.02396135032177f,
    0.02311471290886f, 0.08034218847752f, -0.13591820001602f,
    -0.03858354687691f, -0.04287335276604f, -0.02704556845129f,
    0.15619295835495f, 0.10510012507439f, 0.04924608767033f,
    0.12735044956207f, 0.01468993443996f, 0.16470287740231f,
    0.00360920024104f, -0.02633045986295f, -0.09551202505827f,
    0.16888615489006f, 0.00022062659264f, 0.10472108423710f,
    0.05913255363703f, -0.02663180232048f, -0.17319457232952f,
    0.06653972715139f, 0.01679382473230f, 0.21225519478321f,
    -0.03748404979706f, -0.08325557410717f, 0.16786608099937f,
    0.18901287019253f, -0.12140014022589f, 0.03157083690166f,
    -0.07028356939554f, 0.18693803250790f, 0.14656113088131f,
    -0.01337851304561f, -0.09256735444069f, 0.11516802012920f,
    0.12525402009487f},
    {0.73760598897934f, -0.09479426592588f, -0.06602346152067f,
    0.33580216765404f, 0.31002646684647f, 0.01053638570011f,
    0.08848328143358f, -0.02753446437418f, 0.21310564875603f,
    -0.49581766128540f, -0.43179687857628f, 0.22858630120754f,
    -0.22095151245594f, -1.02859008312225f, 0.07146756350994f,
    0.03762014210224f, -0.65194302797318f, 0.74577403068542f,
    -0.16413824260235f, 0.19766889512539f, 0.37205198407173f,
    -1.20198297500610f, 0.01595073565841f, -0.23001180589199f,
    -0.17274484038353f, 0.05385882779956f, 0.28227588534355f,
    -0.09320093691349f, -0.22417145967484f, 0.02959207817912f,
    0.26598262786865f, 0.07888922095299f, 0.23359875380993f,
    0.25796604156494f, 0.42384573817253f, 0.09853681176901f,
    0.05973733961582f, -0.17791400849819f, -0.14991950988770f,
    -0.24254840612411f, 0.06317794322968f, -0.28127330541611f,
    -0.30828079581261f, -0.20756819844246f, -0.11651033163071f,
    0.23442132771015f, -0.72542583942413f, 0.15822803974152f,
    -0.39680114388466f, 0.00038595046499f, 0.07514996081591f,
    -0.25977310538292f, -0.05251844599843f, 0.42403081059456f,
    -0.71223723888397f, 0.13999627530575f, 0.07030703872442f,
    -0.06831071525812f, 0.01811776682734f, 0.23331771790981f,
    -0.30874952673912f, 0.13598082959652f, 0.16979300975800f,
    0.21904475986958f},
    {0.14758811891079f, -1.55214023590088f, -0.13212709128857f,
    0.51470661163330f, -0.04682935029268f, 0.18354907631874f,
    0.13842609524727f, 0.02030762098730f, -0.19319687783718f,
    -0.04725669324398f, -0.51976913213730f, -0.32502835988998f,
    -0.30714383721352f, 0.29473254084587f, -0.78287518024445f,
    0.01580841839314f, -0.19498237967491f, 0.26998642086983f,
    -0.04040829092264f, -0.33504137396812f, 0.40194493532181f,
    0.12642079591751f, -0.02669497393072f, -0.09091326594353f,
    -0.28895828127861f, -0.26256015896797f, -0.04824056476355f,
    0.22346301376820f, 0.34554055333138f, 0.20816308259964f,
    0.45008617639542f, -0.11605809628963f, 0.07819017767906f,
    0.10108403861523f, -0.15227335691452f, -0.21588866412640f,
    0.22966356575489f, 0.48017266392708f, 0.12277529388666f,
    -0.63686829805374f, -0.49729081988335f, -0.33290725946426f,
    0.43153652548790f, -0.34996607899666f, 0.07322828471661f,
    0.39193427562714f, 0.21650841832161f, -0.33679592609406f,
    0.47066262364388f, -0.56017041206360f, 0.10680077224970f,
    0.08115980029106f, -0.19386045634747f, 0.10927399247885f,
    -0.54902178049088f, -1.40259885787964f, 0.34019684791565f,
    0.24394178390503f, -0.11905307322741f, -0.04385148733854f,
    0.34196057915688f, -0.04786151275039f, 0.10677489638329f,
    -0.12188478559256f},
    {-1.30242800712585f, 0.15218375623226f, -0.25061485171318f,
    0.13551160693169f, -0.41182321310043f, 0.18029633164406f,
    0.16465084254742f, 0.07249824702740f, -0.40093877911568f,
    0.04867515340447f, -0.17553886771202f, 0.07432256639004f,
    -0.13373753428459f, 0.22537973523140f, 0.04060747846961f,
    -0.13864281773567f, 0.11551675945520f, 0.01015477254987f,
    0.43252453207970f, -0.11350955814123f, 0.87562811374664f,
    0.29569244384766f, -0.00644379807636f, 0.01796367578208f,
    0.31661590933800f, 0.00611468404531f, 0.02279388345778f,
    0.31190821528435f, 0.65537345409393f, -0.04517115652561f,
    0.79713553190231f, -0.05220985412598f, -0.14719428122044f,
    0.70344054698944f, -0.08973288536072f, -0.16402743756771f,
    -0.27150174975395f, 0.36774888634682f, 0.05016230419278f,
    -0.43660688400269f, 0.45757469534874f, 0.43279203772545f,
    -0.27179434895515f, -0.06824383884668f, 0.03137658536434f,
    -0.35656818747520f, -0.32454761862755f, -0.17551739513874f,
    -0.06467904150486f, -0.66995745897293f, 0.31824502348900f,
    -0.13936355710030f, -0.24011102318764f, 0.09750656783581f,
    -0.06023432314396f, -0.03536318987608f, 0.17519846558571f,
    0.06588690727949f, -0.17595292627811f, 0.04075687378645f,
    -0.69927829504013f, 0.17462955415249f, -0.06985322386026f,
    -0.26377400755882f},
    {-0.33116418123245f, -0.52775257825851f, 0.15448206663132f,
    -0.18230220675468f, -0.03455310314894f, -0.64573180675507f,
    -0.03990545868874f, 0.14421874284744f, -0.12440875917673f,
    -0.26813092827797f, -0.30581551790237f, 0.15456774830818f,
    -0.12703137099743f, -0.22744347155094f, -0.28016138076782f,
    -0.15753114223480f, -0.08518713712692f, 0.20064260065556f,
    0.36099356412888f, -0.18992918729782f, -0.05285475403070f,
    -0.04727864265442f, 0.03150233626366f, -0.00251112203114f,
    -0.47823953628540f, -0.13654823601246f, 0.22362884879112f,
