#include "neural_nets.h"
     
// sensor 26
struct NeuralNet sensor28 = {
    
//     weights and biases for NN (constant)
    //b1[] = 
        {0.01908621937037f, 0.12418854981661f, -0.03151028975844f,
    0.13681735098362f, -0.06915926188231f, 0.17346872389317f,
    -0.01114793028682f, -0.03299015015364f, -0.00242685759440f,
    0.00000000000000f, 0.14689014852047f, -0.18449111282825f},
    //b2[] = 
    {-0.02933305688202f, -0.11051513999701f, -0.02824979275465f,
    0.06591129302979f, 0.05819547921419f, 0.07867401838303f,
    0.01008371356875f, 0.02185325510800f, 0.00000000000000f,
    -0.03563976660371f, 0.01730401627719f, -0.09698750823736f,
    -0.11329857259989f, 0.06667447835207f, -0.07497236132622f,
    -0.03616732358932f, -0.17547032237053f, -0.05080885067582f,
    0.01267224084586f, -0.05687248334289f, 0.06845966726542f,
    -0.01849753782153f, 0.17395955324173f, 0.01457006484270f,
    -0.08883270621300f, 0.01748041063547f, -0.15260627865791f,
    0.13070847094059f, -0.09483650326729f, 0.04653685167432f,
    0.06603151559830f, 0.00224756426178f, -0.08484198898077f,
    -0.03184202313423f, 0.04317423701286f, 0.15485349297523f,
    -0.24804590642452f, -0.01638891547918f, 0.00000000000000f,
    0.11904300749302f, 0.00000000000000f, 0.18625085055828f,
    -0.04320405423641f, -0.25242874026299f, 0.20368693768978f,
    0.10256982594728f, -0.08564960956573f, -0.08364138752222f,
    0.05893886089325f, 0.01246791612357f, 0.03579193726182f,
    0.00000000000000f, -0.03213610127568f, -0.05974627286196f,
    -0.02043218724430f, 0.00000000000000f, -0.02073690667748f,
    0.03291971608996f, 0.02039367891848f, -0.00909091345966f,
    0.09056410938501f, 0.09663113951683f, 0.06461054086685f,
    0.05655663460493f},
    //b3[] =  
    {0.16608022153378f, -0.08887026458979f, -0.03077492117882f,
    -0.04643616452813f, -0.02035761252046f, 0.17549724876881f,
    -0.06270195543766f, 0.17409415543079f, -0.07993341237307f,
    -0.05689895153046f, 0.09893333911896f, -0.05046749114990f,
    0.18558223545551f, 0.04627177119255f, -0.01494089979678f,
    0.14840474724770f, 0.02751605585217f, -0.04474081099033f,
    -0.07710313051939f, 0.06221430748701f, 0.16832678020000f,
    0.08878748863935f, -0.06973668932915f, 0.20274241268635f,
    -0.07635559141636f, -0.07903993874788f, 0.09179101139307f,
    0.07274670153856f, 0.12065339088440f, -0.05732178315520f,
    -0.03894224390388f, -0.05285163596272f, -0.04985231906176f,
    -0.08079446107149f, -0.13948071002960f, -0.05743299052119f,
    0.02710587158799f, 0.11165863275528f, 0.17278331518173f,
    -0.08121223747730f, -0.03419776633382f, 0.04333495348692f,
    0.08545976132154f, -0.01881508342922f, 0.05604750663042f,
    -0.01330854929984f, 0.18639016151428f, 0.20045264065266f,
    0.24165511131287f, 0.10941633582115f, -0.03558465838432f,
    -0.08389936387539f, 0.13273179531097f, 0.30306413769722f,
    -0.03168583661318f, -0.14310751855373f, -0.07810612022877f,
    -0.01260225661099f, -0.12879812717438f, -0.06125292181969f,
    -0.04901085421443f, 0.12330891937017f, -0.03577768057585f,
    0.05314098298550f},
    //b4[] =
    {0.22467039525509f, 0.17823378741741f, 0.18112577497959f,
    0.27657586336136f, 0.25056821107864f},
    
    //w1[][] = 
    { {0.14806796610355f, 0.32668265700340f, -0.94988697767258f,
    -0.52584999799728f, 0.11377087235451f, -0.24373310804367f,
    0.64490479230881f, 0.31533440947533f, -0.86383956670761f,
    -0.36855047941208f, 0.25305834412575f, -0.29338556528091f},
    {-0.00707411719486f, 0.38234236836433f, 0.38419276475906f,
    -0.15023668110371f, 0.05531906336546f, 0.37392920255661f,
    -0.35516631603241f, 0.67996352910995f, 1.06886053085327f,
    -0.02148723602295f, -0.01443947385997f, 0.35352817177773f},
    {0.39250522851944f, 0.20118832588196f, -0.67749994993210f,
    0.54090225696564f, -0.49878439307213f, 0.02902391180396f,
    -0.20811748504639f, -0.31302711367607f, 0.15315456688404f,
    -0.05278167128563f, 0.43902188539505f, 0.02516568824649f},
    {-0.30720919370651f, -0.85207432508469f, 0.67906790971756f,
    -0.09194912016392f, 0.27520096302032f, -0.21995186805725f,
    0.42986932396889f, 0.19119988381863f, 0.14516395330429f,
    -0.52098834514618f, -0.47890895605087f, -0.06676507741213f},
    {0.66117572784424f, 0.04987148568034f, -0.11397175490856f,
    -1.22574150562286f, 0.35161972045898f, 0.74840492010117f,
    -0.34146958589554f, 0.11866186559200f, 0.21869274973869f,
    0.19926136732101f, 0.46946015954018f, -0.97137427330017f},
    {0.25363439321518f, 0.19179655611515f, -0.00546873547137f,
    0.13387778401375f, 0.49440690875053f, -0.80777961015701f,
    0.30835756659508f, 0.37172785401344f, -0.08185973018408f,
    -0.14436548948288f, -0.56787830591202f, 0.67553174495697f},
    {-0.47987022995949f, -0.62894821166992f, 0.59824311733246f,
    -0.44870811700821f, 0.72062110900879f, 0.10051318258047f,
    -0.08554529398680f, 0.43823212385178f, -0.10190033912659f,
    -0.12988179922104f, 0.26056659221649f, -0.04496480897069f},
    {0.32630977034569f, 0.45605552196503f, -0.24523735046387f,
    0.34255668520927f, 0.00921693630517f, -0.13540415465832f,
    0.35611447691917f, -0.68121910095215f, 0.26879724860191f,
    -0.08417522907257f, 0.06343363225460f, 0.54388028383255f} },
    //w2[][] = 
    { {0.20890744030476f, -0.12875710427761f, 0.18684381246567f,
    0.30672359466553f, -0.18581421673298f, -0.01651393249631f,
    0.50531065464020f, 0.20746062695980f, -0.22443000972271f,
    -0.23624852299690f, -0.25961574912071f, -0.20303787291050f,
    0.07169685512781f, 0.21268077194691f, -0.09901954978704f,
    -0.08083664625883f, 0.24365711212158f, -0.24435627460480f,
    0.24876229465008f, 0.21558827161789f, -0.25933852791786f,
    0.19977465271950f, -0.31963247060776f, -0.03852818533778f,
    -0.16302786767483f, 0.00558295845985f, 0.16423380374908f,
    -0.51076030731201f, -0.00587024167180f, -0.22243034839630f,
    -0.19249586760998f, -0.12827838957310f, 0.15588811039925f,
    -0.48842114210129f, 0.01522998511791f, -0.04930732771754f,
    0.02139372564852f, 0.01514456421137f, -0.02715954184532f,
    -0.00546858832240f, -0.14957001805305f, 0.01802217587829f,
    -0.24397777020931f, 0.39696660637856f, 0.18910311162472f,
    0.02854898758233f, -0.27480220794678f, -0.28132683038712f,
    -0.49986842274666f, -0.80350685119629f, -0.25651067495346f,
    -0.04276221990585f, -0.18623480200768f, 0.28556370735168f,
    -0.47023180127144f, 0.09526759386063f, -0.03523766994476f,
    -0.11753185838461f, 0.08167817443609f, 0.14939600229263f,
    0.14323750138283f, -0.46734121441841f, -0.35532683134079f,
    -0.00528236944228f},
    {0.15557125210762f, 0.46793442964554f, -0.22541303932667f,
    -0.28939709067345f, 0.40301647782326f, 0.27217689156532f,
    0.32746595144272f, -0.79313766956329f, -0.05439722537994f,
    -0.05213785171509f, 0.14349083602428f, -0.03431328013539f,
    0.04967755451798f, 0.33126068115234f, -0.21094380319118f,
    0.00845160987228f, -0.21192911267281f, 0.25356274843216f,
    0.08953686803579f, -0.38228145241737f, 0.29112139344215f,
    0.04038803651929f, 0.17526291310787f, -0.37373170256615f,
    0.60407817363739f, 0.39426028728485f, 0.36218774318695f,
    -0.65272974967957f, 0.65967321395874f, -0.73345470428467f,
    -0.52487736940384f, 0.65872496366501f, 0.49966385960579f,
    0.65980970859528f, -0.34778571128845f, 0.29999852180481f,
    0.17855672538280f, -0.27653738856316f, 0.20048195123672f,
    -0.24937935173512f, -0.25242936611176f, 0.01629528403282f,
    0.09943564981222f, 0.41424322128296f, -0.24126961827278f,
    0.43298086524010f, -0.69079750776291f, 0.14768490195274f,
    0.12623906135559f, 0.10512144118547f, -0.15129885077477f,
    -0.07833972573280f, -0.01517451275140f, 0.44638746976852f,
    -0.48324355483055f, -0.07047277688980f, -0.13900725543499f,
    0.66683745384216f, 0.04016428440809f, 0.14384347200394f,
    -0.65921354293823f, -0.05008545517921f, -0.36574861407280f,
    -0.26274853944778f},
    {-0.20994088053703f, 0.11885776370764f, -0.63171994686127f,
    -0.05478969961405f, -0.97243177890778f, 0.24370297789574f,
    -0.16399307549000f, 0.32447755336761f, -0.18673168122768f,
    0.08841750770807f, 0.55693179368973f, 0.43507382273674f,
    -0.30740129947662f, -0.62415039539337f, -0.18003898859024f,
    0.91742092370987f, 0.70717692375183f, -0.45069769024849f,
    0.01135523244739f, 0.61178332567215f, -0.93218582868576f,
    -0.00528606399894f, -0.02547791600227f, 0.27721530199051f,
    0.44220536947250f, -0.02312664873898f, -0.21669581532478f,
    -0.27724933624268f, -0.34672799706459f, 0.56349480152130f,
    -0.56860232353210f, -0.35714268684387f, 0.04003874212503f,
    -0.59455680847168f, 0.05768900737166f, -0.24487628042698f,
    0.42592239379883f, -0.00566868018359f, -0.14650870859623f,
    0.08649958670139f, 0.04654768109322f, 0.32823953032494f,
    0.12419066578150f, 0.32062482833862f, 0.05496062338352f,
    0.16164988279343f, -0.23172833025455f, 0.84574377536774f,
    0.26956659555435f, 0.03759909048676f, -0.09513702988625f,
    -0.08602620661259f, -0.11767621338367f, -0.11890882998705f,
    0.21706712245941f, 0.16091501712799f, 0.60923010110855f,
    -0.35601180791855f, 0.33863383531570f, -0.53031170368195f,
    -0.27973017096519f, -0.31852024793625f, -0.09864942729473f,
    -0.02730441838503f},
    {0.12916629016399f, 0.58685207366943f, 0.63929390907288f,
    0.21784318983555f, 0.11902282387018f, 0.35312798619270f,
    0.10495141148567f, -0.14615310728550f, -0.22603696584702f,
    0.18633173406124f, 0.22226384282112f, -0.17588146030903f,
    0.17049522697926f, 0.27649420499802f, -0.16022039949894f,
    -0.49296188354492f, 0.25045177340508f, 0.09337899833918f,
    0.18250906467438f, 0.13456340134144f, 0.35518127679825f,
    0.03692625835538f, 0.58505558967590f, 0.17604862153530f,
    -0.26796647906303f, -0.66027164459229f, -0.12519271671772f,
    0.25080743432045f, 0.32865515351295f, 0.57269716262817f,
    -0.88327258825302f, -0.16905738413334f, 0.17540943622589f,
    0.56192827224731f, 0.53323805332184f, -0.27187383174896f,
    -0.86815601587296f, 0.20683534443378f, -0.27977159619331f,
    -0.28945180773735f, -0.17914535105228f, 0.15933124721050f,
    -0.27071535587311f, 0.36611640453339f, -0.22375623881817f,
    -0.37169688940048f, 0.35391250252724f, -0.11702091246843f,
    0.41371339559555f, 0.33804935216904f, 0.17321573197842f,
    -0.24251358211040f, -0.00662177288905f, -0.13047151267529f,
    -0.13217531144619f, -0.17475551366806f, -0.16820426285267f,
    0.05906950309873f, 0.60982769727707f, 0.73272883892059f,
    -0.04418855160475f, 0.27196893095970f, -0.09179680794477f,
    0.16062447428703f},
    {-0.38211986422539f, 0.35523566603661f, -0.07995017617941f,
    -0.19974541664124f, -0.17308612167835f, -0.08926995098591f,
    -0.55447107553482f, -0.21422220766544f, -0.21646800637245f,
    -0.05891301482916f, -0.30595421791077f, -0.36536693572998f,
    0.11258278042078f, -0.22625136375427f, -0.16046646237373f,
    -0.02532533928752f, 0.16095910966396f, 0.19562794268131f,
    0.10116268694401f, 0.00245138257742f, -1.04753541946411f,
    0.12693604826927f, 0.19182352721691f, -0.16280521452427f,
    0.20505274832249f, -0.03152104094625f, -0.70749485492706f,
    -0.25281259417534f, -0.52942281961441f, 0.37458151578903f,
    0.14281529188156f, 0.15900860726833f, 0.04756334051490f,
    -0.06511301547289f, 0.07356537133455f, -0.16000169515610f,
    0.02716885320842f, 0.07351795583963f, -0.10983318090439f,
    0.13668386638165f, -0.19340252876282f, -0.03303906321526f,
    0.01176634989679f, -0.09178187698126f, 0.11808821558952f,
    -0.16934348642826f, 0.28721791505814f, 0.11775357276201f,
    -0.49286997318268f, 0.21474055945873f, -0.08904869109392f,
    -0.05647738277912f, -0.28343218564987f, -0.11330585181713f,
    0.35471886396408f, -0.24542871117592f, 0.03607716783881f,
    -0.15326872467995f, 0.04464979097247f, -0.53660625219345f,
    0.17418308556080f, -0.60789698362350f, -0.04756154865026f,
    -0.09507657587528f},
    {0.33460274338722f, -0.43873053789139f, -0.01208419539034f,
    -0.17993921041489f, -0.29229176044464f, 0.20536015927792f,
    -0.25094738602638f, -0.00870798900723f, 0.07742309570312f,
    0.08787853270769f, 0.19820083677769f, 0.38808700442314f,
    -0.04945484176278f, -0.09882184863091f, -0.22542221844196f,
    0.50152260065079f, 0.06632506102324f, 0.08140563964844f,
    -0.14003358781338f, -0.09892714768648f, -0.27542558312416f,
    -0.52326929569244f, -0.27730408310890f, -0.86709910631180f,
    0.14450399577618f, 0.51706242561340f, 0.32928737998009f,
    -0.66922807693481f, -0.23981642723083f, -0.87342309951782f,
    0.20859968662262f, 0.04136542975903f, 0.08017261326313f,
    -0.15047340095043f, -0.08200722932816f, -0.03420512378216f,
    0.35784915089607f, -0.20492196083069f, -0.01046702265739f,
    -0.00409659929574f, -0.26743158698082f, 0.04437652230263f,
    0.12645636498928f, -0.65906834602356f, -0.17152908444405f,
    -0.34585386514664f, -0.02370052039623f, 0.07359823584557f,
    -0.11633753031492f, -0.69271111488342f, 0.32940837740898f,
    0.00591921806335f, -0.14425952732563f, 0.18266180157661f,
    -0.58618962764740f, -0.14469261467457f, 0.27612110972404f,
    -0.53140085935593f, -0.43085619807243f, -0.24619011580944f,
    -0.31598958373070f, -0.23170791566372f, 0.33630084991455f,
    0.11407327651978f},
    {-0.45532888174057f, 0.07245153933764f, -0.46320700645447f,
    0.22293357551098f, 0.30004400014877f, -0.13611349463463f,
    0.07972904294729f, 0.32799723744392f, -0.19129067659378f,
    -0.20454682409763f, 0.08276108652353f, -0.13172192871571f,
    0.34872996807098f, -0.05470586940646f, -0.03813495486975f,
    -0.31163921952248f, -0.00862138997763f, -0.45566150546074f,
    0.33182865381241f, -0.04548448696733f, 0.40397378802299f,
    0.48663914203644f, -0.16719412803650f, 0.37385120987892f,
    -0.40341365337372f, -0.06870170682669f, 0.10280425846577f,
    -0.00958862341940f, -0.17713971436024f, -0.06039162352681f,
    -0.06106952205300f, -0.37456342577934f, 0.09813710302114f,
    -0.01007499359548f, 0.00657452130690f, -0.21846649050713f,
    -0.48235079646111f, -0.21056909859180f, -0.10296565294266f,
    -0.11997649073601f, -0.27288973331451f, -0.00454495707527f,
    -0.05144529789686f, 0.10547059774399f, -0.09636772423983f,
    0.39422029256821f, 0.30526065826416f, -0.55254179239273f,
    0.44424253702164f, 0.44078430533409f, -0.08214723318815f,
    -0.14006254076958f, 0.03535041585565f, 0.08361715078354f,
    0.29178494215012f, -0.14014481008053f, -0.21498884260654f,
    0.28057897090912f, 0.21377497911453f, 0.31677192449570f,
    -0.10133282840252f, 0.11676330119371f, 0.19597609341145f,
    -0.10032898932695f},
    {0.45315411686897f, 0.18508283793926f, -0.48234000802040f,
    0.23957110941410f, 0.17246294021606f, -0.01281552016735f,
    -0.21666643023491f, 0.51376825571060f, 0.08582088351250f,
    -0.21199528872967f, -0.12386676669121f, 0.12962491810322f,
    0.09714140743017f, -0.53443455696106f, 0.07063604146242f,
    0.00823581963778f, 0.19127571582794f, 0.12598587572575f,
    -0.20815289020538f, -0.27873945236206f, -0.16304934024811f,
    0.07490459829569f, -0.05683394521475f, 0.27903479337692f,
    -0.19123157858849f, 0.07355300337076f, 0.03115771897137f,
    0.16236473619938f, 0.38621404767036f, -0.32812932133675f,
    0.24275711178780f, -0.48009142279625f, -0.34302827715874f,
    0.19530048966408f, 0.37968245148659f, -0.27494290471077f,
    0.04534260183573f, -0.18165615200996f, -0.11986483633518f,
    0.37893500924110f, 0.14497831463814f, -1.46291315555573f,
    0.00342777674086f, -0.18271784484386f, -0.35121127963066f,
    -0.15642359852791f, 0.34393313527107f, -0.18155667185783f,
    0.05815836042166f, 0.28086373209953f, -0.15256850421429f,
    -0.11221179366112f, 0.14856141805649f, -0.15756189823151f,
    0.26626810431480f, -0.21242007613182f, 0.14241415262222f,
    -0.02343626879156f, -1.04630541801453f, -0.36315217614174f,
    -0.03005145676434f, -0.69768840074539f, 0.19938813149929f,
    0.27552750706673f},
    {0.26467508077621f, -0.41834965348244f, 0.67354315519333f,
    -0.47143605351448f, -0.13430909812450f, -0.09281061589718f,
    0.18027774989605f, -0.41468775272369f, -0.24872240424156f,
    0.06030957773328f, -0.03090376593173f, 0.55046123266220f,
    -0.30093151330948f, 0.44732689857483f, 0.07339481264353f,
    0.35876584053040f, 0.30639779567719f, 0.78266716003418f,
    -0.31711643934250f, -0.27093338966370f, 0.11809357255697f,
    -0.28316479921341f, -0.52161669731140f, -0.25364419817924f,
    0.12471131980419f, -0.44212093949318f, 0.02469664998353f,
    0.36507907509804f, 0.32732090353966f, 0.05543733015656f,
    -0.00845889747143f, 0.28622916340828f, 0.12851324677467f,
    0.04301735013723f, -0.33388221263885f, -0.20329472422600f,
    0.76902031898499f, -0.17230476438999f, 0.02985462546349f,
    -0.27276784181595f, 0.24614980816841f, 0.04324749112129f,
    -0.01248974725604f, 0.04246764630079f, -0.38188004493713f,
    -0.40758639574051f, 0.45016527175903f, 0.74839824438095f,
    -0.52482926845551f, -0.22339458763599f, 0.26520413160324f,
    -0.25274634361267f, -0.25002157688141f, 0.24822738766670f,
    0.09065782278776f, -0.02312791347504f, 0.46827954053879f,
    -0.27422460913658f, -0.07540363073349f, 0.01446329802275f,
    0.14933565258980f, 0.76053076982498f, 0.45102319121361f,
    0.14633445441723f},
    {-0.01166957616806f, -0.10120931267738f, 0.11067819595337f,
    -0.24435204267502f, -0.00666052103043f, -0.00462859869003f,
    -0.26885217428207f, -0.24444308876991f, 0.27419516444206f,
    0.13454324007034f, -0.03195287287235f, 0.13443380594254f,
    0.25673899054527f, 0.28029134869576f, -0.11869820952415f,
    0.21191623806953f, -0.06074276566505f, -0.06509080529213f,
    0.10494735836983f, 0.14128938317299f, -0.16461324691772f,
    -0.16491243243217f, -0.26843562722206f, -0.21494901180267f,
    -0.02231130003929f, -0.24540010094643f, 0.27458432316780f,
    0.00832858681679f, 0.09960088133812f, 0.16647115349770f,
    0.08031392097473f, 0.22932538390160f, 0.07128897309303f,
    -0.00300481915474f, -0.19149404764175f, -0.06789794564247f,
    -0.04806052148342f, -0.23673397302628f, -0.16288504004478f,
    0.23775294423103f, 0.24851348996162f, 0.04536727070808f,
    -0.10932151973248f, 0.00385197997093f, 0.02811723947525f,
    -0.14065171778202f, -0.10280950367451f, -0.08791483938694f,
    -0.19077399373055f, 0.21302464604378f, -0.04188217222691f,
    -0.26769104599953f, -0.14479893445969f, -0.00504836440086f,
    0.17378273606300f, -0.23641844093800f, 0.18295192718506f,
    0.09142410755157f, 0.00234705209732f, 0.17356830835342f,
    0.13099032640457f, 0.23389574885368f, 0.03751537203789f,
    -0.16416870057583f},
    {-0.21385672688484f, -0.35111340880394f, -0.36657288670540f,
    0.05854585766792f, -0.34096443653107f, -0.30806657671928f,
    -0.50438684225082f, -0.12983585894108f, 0.20802167057991f,
    -0.29138469696045f, 0.52363455295563f, 0.04521655291319f,
    0.12961541116238f, 0.08646571636200f, 0.07666905224323f,
    -0.38073098659515f, 0.11181409657001f, -0.39801821112633f,
    -0.04582375288010f, 0.52847242355347f, 0.02802004478872f,
    -0.51094073057175f, 0.17526133358479f, -0.17824777960777f,
    0.21031337976456f, 0.13880470395088f, 0.25656840205193f,
    0.13357028365135f, -0.45867317914963f, 0.04172101989388f,
    0.08173885196447f, -0.06784668564796f, 0.01920813880861f,
    -0.83535408973694f, -0.10678313672543f, 0.35402441024780f,
    -0.29098066687584f, 0.12335759401321f, -0.22609597444534f,
    -0.39260074496269f, -0.25259253382683f, -0.15462626516819f,
    -0.12850210070610f, 0.22101336717606f, 0.19194601476192f,
    -0.18537294864655f, -0.25452828407288f, -0.53879755735397f,
    0.11741492897272f, -0.64455372095108f, 0.38069003820419f,
    0.18368309736252f, 0.00645156390965f, 0.21165733039379f,
    -0.06694232672453f, -0.06944052875042f, -0.15748490393162f,
    -0.53111571073532f, -0.22362004220486f, 0.37501767277718f,
    -0.21753266453743f, 0.13414014875889f, 0.22118358314037f,
    -0.44555422663689f},
    {-1.21230041980743f, 0.25035014748573f, -0.14042174816132f,
    0.30449700355530f, -0.60268384218216f, 0.00298620364629f,
    0.37177136540413f, 0.70851379632950f, 0.07441887259483f,
    -0.14619885385036f, 0.09383720159531f, 0.43088975548744f,
    0.42791241407394f, -1.31470799446106f, 0.13378417491913f,
    -0.08724191784859f, 0.42851242423058f, -0.69544243812561f,
    -0.22847743332386f, -0.10486935079098f, 0.19248458743095f,
    0.13778960704803f, -0.27527996897697f, 0.43033495545387f,
    0.10086251050234f, 0.51386666297913f, -0.05193056538701f,
    -0.50102829933167f, 0.26175805926323f, -0.36988407373428f,
    -0.71115416288376f, 0.01464379206300f, -0.26312577724457f,
    0.53431111574173f, -0.24857090413570f, -0.26141789555550f,
    -0.41462391614914f, -0.18241606652737f, 0.14559322595596f,
    0.17811836302280f, -0.00783520936966f, -0.73348367214203f,
    -0.09112554043531f, 0.25709888339043f, -0.25016680359840f,
    -0.00605019088835f, 0.04013737291098f, 0.25811377167702f,
    0.47175866365433f, 0.48119053244591f, -0.23008285462856f,
    -0.14325393736362f, 0.14672601222992f, -0.38350179791451f,
    1.06026864051819f, -0.26773592829704f, -0.06089863181114f,
    0.28466156125069f, 0.14779685437679f, -0.38900810480118f,
    0.13532969355583f, -0.00027676860918f, -0.06429630517960f,
    0.89855086803436f} },                
    //w3[][] = 
    { {0.29996874928474f, 0.14731882512569f, 0.08015863597393f,
    -0.18043287098408f, -0.15490336716175f, 0.28045740723610f,
    -0.07626501470804f, 0.20886366069317f, 0.05497067049146f,
    0.01278226729482f, -0.20433828234673f, 0.03637066856027f,
    -0.04511351883411f, -0.27722302079201f, 0.62759327888489f,
    -0.17183981835842f, -0.03748804330826f, -0.10643294453621f,
    -0.16908133029938f, -0.25371614098549f, -0.07922175526619f,
    -0.16244234144688f, -0.23779915273190f, -0.18323296308517f,
    -0.06064746528864f, -0.22457067668438f, -0.76778483390808f,
    0.18672803044319f, 0.02483450993896f, 0.14616219699383f,
    0.73798811435699f, -0.24124172329903f, -0.08475766330957f,
    0.18030217289925f, 0.43914946913719f, 0.12272435426712f,
    0.10448116809130f, -0.11479613184929f, -0.11091138422489f,
    0.11203987896442f, 0.12995956838131f, -0.14375638961792f,
    0.53639698028564f, 0.38979399204254f, 0.02232000604272f,
    0.06337496638298f, -0.05243980884552f, -0.21542885899544f,
    -0.30884954333305f, 0.18064497411251f, -0.20632764697075f,
    -0.18480700254440f, -0.13082483410835f, 0.18380315601826f,
    -0.02154989913106f, 0.88443851470947f, 0.07218884676695f,
    -0.04236362501979f, -0.38433605432510f, -0.25843834877014f,
    -0.20240554213524f, 0.26602545380592f, 0.01210306584835f,
    -0.10060369968414f},
    {0.10061340779066f, 0.21831366419792f, 0.07339100539684f,
    0.06207302957773f, -0.52456122636795f, -0.06457355618477f,
    0.08793192356825f, -0.07164072245359f, -0.16006064414978f,
    -0.18688221275806f, -0.46608701348305f, -0.21563005447388f,
    -0.17177459597588f, -0.15025278925896f, -0.27092215418816f,
    -0.46293526887894f, 0.45238789916039f, 0.17304909229279f,
    -0.19226470589638f, 0.07276886701584f, -0.16970616579056f,
    -0.11467248946428f, 0.21767722070217f, -0.09991027414799f,
    -0.04670028015971f, 0.15448372066021f, -0.84305578470230f,
    0.14931514859200f, 0.14527036249638f, -0.17392913997173f,
    0.38081675767899f, 0.07491718232632f, -0.16231760382652f,
    -0.00387106463313f, -0.26705202460289f, -0.22404980659485f,
    0.09115939587355f, 0.00283392472193f, 0.03653335943818f,
    -0.15588048100471f, 0.14562343060970f, -0.29619461297989f,
    0.02817908860743f, 0.00390541530214f, -0.05542917177081f,
    0.01616204902530f, 0.22268386185169f, 0.19169290363789f,
    -0.18421468138695f, 0.03414788469672f, 0.03645861893892f,
    -0.15857920050621f, 0.16081175208092f, -0.12867765128613f,
    0.03004321455956f, 0.65554267168045f, 0.07580532878637f,
    -0.16428291797638f, -0.32930070161819f, -0.14312767982483f,
    -0.00249169091694f, -0.24308331310749f, -2.36630558967590f,
    0.18272374570370f},
    {0.12895658612251f, 0.17169414460659f, 0.01398068666458f,
    -0.03080240823328f, -0.11428066343069f, 0.08021790534258f,
    -0.10722053050995f, -0.32482349872589f, 0.09862418472767f,
    -0.10734348744154f, 0.07979608327150f, -0.18345583975315f,
    -0.42019602656364f, -0.01985496282578f, -1.48619413375854f,
    0.44424852728844f, -0.42124912142754f, -0.07565454393625f,
    -0.01478513889015f, 0.18186871707439f, -0.49340292811394f,
    0.38676673173904f, 0.01682966388762f, -1.16747796535492f,
    -0.02900345809758f, -0.06156061589718f, -0.38656571507454f,
    0.21465933322906f, -0.35861003398895f, 0.00385212898254f,
    0.25927820801735f, -0.02149249985814f, 0.18693415820599f,
    -0.18652337789536f, 0.65572494268417f, -0.10016270726919f,
    0.08882050216198f, -0.02299757860601f, 0.12721221148968f,
    -0.06522649526596f, 0.07252494990826f, 0.18747352063656f,
    -0.32872834801674f, 0.03902661800385f, -0.40662652254105f,
    -0.02312657982111f, 0.17967896163464f, 0.08153092116117f,
    0.42847964167595f, -1.04603123664856f, 0.19858022034168f,
    0.03396293893456f, 0.04946572706103f, -1.05615484714508f,
    -0.04044234752655f, 0.34402418136597f, -0.04984723031521f,
    -0.03843186050653f, 0.30565917491913f, 0.07045206427574f,
    0.22963966429234f, -1.09916174411774f, -1.09088385105133f,
    -0.13304482400417f},
    {-0.24878415465355f, 0.15536293387413f, -0.19856008887291f,
    -0.11739893257618f, -0.11572214215994f, -0.05352464690804f,
    -0.19618733227253f, 0.13221395015717f, 0.07666996866465f,
    -0.27195137739182f, 0.08138671517372f, -0.04566513374448f,
    0.31879788637161f, -0.24090266227722f, -0.29042160511017f,
    0.10058870166540f, -0.09635489434004f, -0.07153275609016f,
    -0.35075208544731f, -0.04284612461925f, 0.33450084924698f,
    -0.12911352515221f, 0.12962435185909f, -0.13861292600632f,
    -0.04263288155198f, 0.07002598792315f, -0.14517381787300f,
    -0.01362807303667f, 0.06960753351450f, -0.15186141431332f,
    0.06806881725788f, -0.18208695948124f, -0.07054168730974f,
    0.14614436030388f, 0.02103183418512f, 0.10053893178701f,
    -0.14058150351048f, -0.18680635094643f, -0.16370746493340f,
    0.04438571631908f, -0.11744388937950f, 0.19686709344387f,
    0.00241393083706f, 0.24733816087246f, 0.28681367635727f,
    -0.15821096301079f, -0.02125125564635f, -0.11666801571846f,
    -0.02546664327383f, 0.03505080938339f, -0.68371111154556f,
    -0.05390104651451f, -0.05779111757874f, 0.17300696671009f,
    -0.01462802570313f, -0.35781919956207f, -0.43487548828125f,
    0.06975511461496f, -0.01214540563524f, -0.08589682728052f,
    -0.08093475550413f, -0.06149192154408f, 0.13435542583466f,
    -0.03198541328311f},
    {-0.21809585392475f, 0.25445047020912f, -0.09887185692787f,
    -0.07946194708347f, 0.53854376077652f, 0.04625202715397f,
    -0.11948265880346f, 0.04017607495189f, -0.12101662158966f,
    0.09434156864882f, 0.33972153067589f, -0.20220011472702f,
    0.11828743666410f, -0.08448115736246f, 0.12125948071480f,
    -0.05405055731535f, -0.26310542225838f, -0.03244068101048f,
    0.12202394753695f, -0.05439955368638f, -0.14468272030354f,
    0.44940677285194f, -0.00952440127730f, -0.45888316631317f,
    -0.10286095738411f, -0.00725475419313f, -0.04616518691182f,
    -0.01611993834376f, -0.02106085047126f, -0.10282620042562f,
    -0.24616058170795f, -0.19498415291309f, -0.04920679703355f,
    -0.04656272009015f, 0.21821428835392f, -0.18858842551708f,
    -0.06509780138731f, 0.10108404606581f, -0.09744536876678f,
    0.17538927495480f, -0.08834879100323f, -0.02582476660609f,
    -0.09929249435663f, 0.07042440026999f, 0.18666586279869f,
    0.19232295453548f, -0.14680752158165f, 0.10720884054899f,
    -0.16887222230434f, 0.25489524006844f, -0.92950630187988f,
    -0.12391372025013f, 0.37037974596024f, 0.21659845113754f,
    -0.20297166705132f, -0.05342448502779f, 0.30545920133591f,
    0.04371870681643f, -0.05570134148002f, 0.11810287833214f,
    -0.21661886572838f, -0.35892045497894f, 0.20338982343674f,
    0.18266253173351f},
    {0.32200485467911f, -0.05464694276452f, -0.12647272646427f,
    0.02470508031547f, 0.30085000395775f, 0.22649008035660f,
    -0.04928968846798f, 0.21495413780212f, -0.05297366529703f,
    -0.06036087870598f, 0.10811861604452f, -0.01206509117037f,
    0.21343411505222f, 0.10836237668991f, -0.00711424229667f,
    0.29696485400200f, 0.31868359446526f, 0.12922656536102f,
    -0.05267025530338f, -0.23373147845268f, 0.36071142554283f,
    0.12430180609226f, -0.15504753589630f, 0.08949076384306f,
    -0.11355707049370f, -0.26086920499802f, 0.15941537916660f,
    -0.08337810635567f, -0.21471542119980f, -0.10457704961300f,
    0.13566319644451f, 0.07295495271683f, -0.06681205332279f,
    0.02556208893657f, 0.05547686666250f, 0.10273956507444f,
    0.08298303186893f, 0.16275811195374f, 0.15127934515476f,
    -0.17241303622723f, -0.20308639109135f, -0.00489176111296f,
    0.22954776883125f, -0.20074109733105f, 0.06813576817513f,
    -0.01290237624198f, 0.14323852956295f, -0.06263715028763f,
    -0.05311742052436f, -0.10856083035469f, -0.18024928867817f,
    -0.10823773592710f, 0.01497809961438f, -0.03214119374752f,
    -0.21471720933914f, -0.10610563308001f, 0.14305700361729f,
    0.26830580830574f, 0.14098246395588f, 0.15143568813801f,
    -0.21024401485920f, 0.20846432447433f, 0.13061083853245f,
    0.12015032023191f},
    {0.03391284123063f, -0.15288649499416f, -0.23165825009346f,
    -0.24295489490032f, -0.29687339067459f, 0.20815463364124f,
    -0.08994825184345f, 0.08715279400349f, -0.16940724849701f,
    0.08348054438829f, -0.04708831384778f, -0.16815058887005f,
    -0.12924717366695f, -0.19825269281864f, 0.35825863480568f,
    0.06068777292967f, 0.21189294755459f, -0.05013886839151f,
    -0.04858024790883f, -0.22938880324364f, 0.26644495129585f,
    0.27892524003983f, 0.00317880953662f, -0.22847135365009f,
    0.32155880331993f, -0.18910714983940f, 0.34951433539391f,
    -0.22536532580853f, -0.69173222780228f, -0.22683770954609f,
    0.68940103054047f, -0.07180606573820f, 0.08695821464062f,
    -0.05904622003436f, -1.10884499549866f, -0.03673959523439f,
    -0.45198008418083f, 0.38485017418861f, -0.23613396286964f,
    -0.11519166082144f, -0.17979727685452f, 0.54586321115494f,
    -0.28445661067963f, 0.12368000298738f, 0.03388346359134f,
    -0.04662497714162f, -0.14296154677868f, -0.12052779644728f,
    -0.13330231606960f, -0.07161114364862f, -0.02031782083213f,
    -0.07241556048393f, 0.09887626767159f, 0.11709830909967f,
    0.14493885636330f, 0.12493901699781f, -0.33279094099998f,
    0.74746167659760f, -0.24190784990788f, -0.13153803348541f,
    0.14877922832966f, 0.09385798126459f, 0.03242119774222f,
    -0.18108016252518f},
    {0.09281256049871f, 0.19861035048962f, 0.17835016548634f,
    -0.14471039175987f, 0.10325232148170f, -0.09459375590086f,
    0.03396818041801f, -0.07135031372309f, -0.23081322014332f,
    -0.19479592144489f, -0.02099284715950f, -0.08966425806284f,
    -0.00260584754869f, 0.15773278474808f, -0.04064741358161f,
    -0.15016956627369f, 0.39153489470482f, -0.07190363854170f,
    -0.16711074113846f, -0.35316163301468f, 0.08178437501192f,
    0.03362291678786f, -0.22395202517509f, -0.02040055207908f,
    -0.15192629396915f, -0.28490081429482f, 0.42147225141525f,
    0.02767458371818f, 0.12569417059422f, -0.04106750711799f,
    -0.10472598671913f, -0.10002361238003f, -0.22853696346283f,
    -0.14180585741997f, 0.19894529879093f, -0.11041933298111f,
    -0.19671663641930f, -0.02732799574733f, -0.06881696730852f,
    -0.12677668035030f, 0.05747801065445f, 0.35349705815315f,
    0.14630098640919f, 0.09450211375952f, 0.23847261071205f,
    -0.25213086605072f, -0.43640002608299f, -0.31725302338600f,
    0.30420228838921f, 0.08615367114544f, -1.44095075130463f,
    -0.08227748423815f, -0.16342620551586f, 0.36328598856926f,
    0.02908305823803f, -0.65706026554108f, -0.62223500013351f,
    -0.10436739027500f, 0.11508843302727f, -0.09536436945200f,
    0.00962093286216f, -0.32144704461098f, 0.11586070805788f,
    0.00897434726357f},
    {-0.08054335415363f, 0.08885939419270f, -0.07916362583637f,
    -0.11364391446114f, 0.01099905371666f, 0.05798403918743f,
    -0.08347345888615f, -0.11188339442015f, 0.01184204220772f,
    0.12954260408878f, 0.12770672142506f, 0.17984174191952f,
    0.11277432739735f, -0.03090350329876f, -0.15379337966442f,
    -0.19960427284241f, 0.07074140012264f, 0.11015899479389f,
    -0.00471778213978f, -0.20639823377132f, 0.14499326050282f,
    -0.05413913726807f, -0.11779383569956f, -0.18131645023823f,
    0.14953796565533f, -0.02984236180782f, -0.11363782733679f,
    -0.06301529705524f, -0.05345135927200f, -0.00183072686195f,
    -0.12766036391258f, -0.13263687491417f, -0.01503902673721f,
    0.00996769964695f, -0.10601827502251f, 0.13664354383945f,
    0.12999777495861f, -0.03220239281654f, 0.14139477908611f,
    0.03248123824596f, -0.00579021871090f, -0.09690785408020f,
    0.17079047858715f, 0.16601292788982f, 0.20110483467579f,
    0.04354362189770f, 0.18825288116932f, 0.12476320564747f,
    0.03920887410641f, 0.09668140113354f, 0.16940213739872f,
    -0.00212763249874f, 0.13915745913982f, 0.02691979706287f,
    -0.15535944700241f, -0.21434386074543f, 0.06826613843441f,
    0.20414082705975f, 0.01888765394688f, 0.07230080664158f,
    0.20324511826038f, 0.21313823759556f, -0.17835360765457f,
    -0.10510363429785f},
    {0.09522309899330f, -0.17987482249737f, -0.18582428991795f,
    0.00351159274578f, 0.13674740493298f, -0.10340228676796f,
    -0.06033879518509f, 0.11829350143671f, -0.01698341965675f,
    -0.03818257525563f, -0.03411195054650f, 0.07495662570000f,
    0.03452864289284f, 0.05431540682912f, -0.25109615921974f,
    -0.26055827736855f, -0.03634109348059f, -0.15164808928967f,
    0.08709318935871f, -0.11330688744783f, -0.17763221263885f,
    -0.14334560930729f, 0.06272526085377f, -0.04612051695585f,
    0.07630093395710f, 0.13133178651333f, -0.04876831173897f,
    -0.13756969571114f, -0.06036641448736f, -0.21545992791653f,
    0.03045084327459f, 0.11814169585705f, -0.07278649508953f,
    0.00558508932590f, -0.09452524036169f, 0.05774353444576f,
    0.21259537339211f, 0.08262686431408f, 0.01985274814069f,
    0.12266797572374f, -0.11766453087330f, 0.05047943443060f,
    0.14051158726215f, 0.00529516674578f, -0.08547449111938f,
    -0.16316762566566f, -0.13161177933216f, 0.08131794631481f,
    0.14627496898174f, 0.19540680944920f, 0.15068237483501f,
    0.08683232963085f, -0.07942062616348f, -0.05756842717528f,
    0.05244551599026f, -0.21478174626827f, -0.13767173886299f,
    0.01812060549855f, -0.18384431302547f, 0.01627716422081f,
    -0.09871672838926f, -0.04582144692540f, -0.12998491525650f,
    -0.05773837119341f},
    {-0.15262451767921f, 0.03812963515520f, 0.10900303721428f,
    -0.23845541477203f, 0.00813727267087f, -0.26763489842415f,
    -0.17812076210976f, 0.13201127946377f, -0.08901300281286f,
    -0.21606408059597f, 0.19458399713039f, -0.06941867619753f,
    0.32761603593826f, 0.14867782592773f, -0.10887309163809f,
    0.06209680065513f, -0.03826761990786f, -0.14021191000938f,
    -0.09879060089588f, 0.17549590766430f, -0.19150856137276f,
    0.22120128571987f, 0.06447619199753f, -0.02977488748729f,
    0.06738287955523f, -0.13569529354572f, -0.04004175961018f,
    0.43311244249344f, 0.00229172548279f, -0.17074643075466f,
    0.07056531310081f, -0.10230167210102f, -0.00468224519864f,
    0.07484476268291f, -0.03218418732285f, -0.22936749458313f,
    -0.05152319744229f, -0.03055524826050f, 0.26769345998764f,
    -0.13419754803181f, -0.20984435081482f, -0.01187423802912f,
    0.15913739800453f, 0.11668664962053f, 0.06106686219573f,
    -0.01535931788385f, 0.12128540873528f, -0.02488365024328f,
    -0.06067213043571f, 0.27658903598785f, 0.18003903329372f,
    0.03889733552933f, -0.17151083052158f, -0.36617931723595f,
    0.07725562155247f, -0.30939838290215f, 0.30973532795906f,
    -0.33171799778938f, -0.07882752269506f, 0.12796555459499f,
    -0.01591165550053f, 0.30823218822479f, 0.16125135123730f,
    0.11590988934040f},
    {0.11961036175489f, -0.02630011737347f, -0.01457046065480f,
    0.14261956512928f, -0.10150115936995f, 0.20889997482300f,
    -0.04519867151976f, 0.20385022461414f, -0.04328620061278f,
    -0.05245539546013f, 0.15512517094612f, 0.14448541402817f,
    -0.14274792373180f, 0.33256402611732f, -0.31720310449600f,
    0.09830272942781f, 0.07086589932442f, -0.11765962094069f,
    -0.12813134491444f, 0.37091657519341f, -0.14456808567047f,
    -0.03036072291434f, -0.21089988946915f, -0.06370916962624f,
    0.17536592483521f, -0.17482034862041f, 0.24718527495861f,
    0.21628668904305f, -0.46673905849457f, -0.01589422859251f,
    0.40206378698349f, -0.14706684648991f, -0.10672094672918f,
    -0.10385433584452f, 0.15305124223232f, -0.15329809486866f,
    0.27848449349403f, -0.00423391722143f, 0.39364957809448f,
    -0.09690343588591f, 0.01276533398777f, -0.27901005744934f,
    0.01244705170393f, -0.04156259447336f, 0.28152641654015f,
    -0.13208177685738f, 0.67478120326996f, 0.02818294614553f,
    -0.01078815292567f, 0.12179555743933f, -0.44475337862968f,
    -0.12958890199661f, 0.03636009246111f, -0.15585173666477f,
    -0.20550745725632f, 0.41246378421783f, 0.37015268206596f,
    0.09452956914902f, 0.13391135632992f, 0.10199761390686f,
    -0.01720095239580f, 0.16379423439503f, -0.07307800650597f,
    -0.81418448686600f},
    {-0.08224238455296f, -0.15117959678173f, -0.15297174453735f,
    -0.13315936923027f, -0.23063741624355f, 0.10724049061537f,
    -0.23083557188511f, -0.27717769145966f, 0.05112195760012f,
    0.04966787993908f, -0.05249071121216f, -0.22897411882877f,
    0.06128047034144f, -0.02643779851496f, -0.03005788475275f,
    -0.02590868622065f, -0.68681555986404f, -0.06717000156641f,
    -0.04259313642979f, -0.21776525676250f, 0.19044066965580f,
    0.06991429626942f, 0.00816565006971f, -0.17643739283085f,
    0.01291877590120f, -0.04309309646487f, 0.11736708134413f,
    0.10946417599916f, 0.33497223258018f, 0.02234953083098f,
    0.07258661091328f, -0.10329749435186f, -0.07298573106527f,
    -0.06455752253532f, -0.04712755978107f, -0.12285992503166f,
    -0.18447345495224f, -0.00573039986193f, 0.18227626383305f,
    -0.15899847447872f, 0.08678110688925f, -0.20023958384991f,
    -0.16227865219116f, 0.24504163861275f, 0.05774579942226f,
    0.00061952526448f, -0.06290638446808f, -0.20290483534336f,
    0.05033455416560f, 0.15743693709373f, -0.30144569277763f,
    -0.20217962563038f, -0.07077255100012f, -0.21512268483639f,
    -0.16969272494316f, 0.25535270571709f, -0.16426967084408f,
    0.04047557711601f, 0.18048655986786f, -0.24293184280396f,
    -0.14051039516926f, -0.25935977697372f, -0.19581767916679f,
    -0.20329134166241f},
    {0.19384472072124f, -0.02198279649019f, -0.23380421102047f,
    -0.02110355719924f, -0.31563669443130f, 0.10256414860487f,
    -0.15672679245472f, 0.24312594532967f, -0.12403520196676f,
    -0.17971841990948f, 0.36719447374344f, 0.09898328781128f,
    0.25670105218887f, -0.03623239323497f, -0.25699266791344f,
    0.31808415055275f, 0.55096900463104f, 0.01515425648540f,
    0.05428270250559f, 0.14878824353218f, -0.04277697950602f,
    0.49040958285332f, 0.01524442899972f, -0.41846463084221f,
    -0.08340539038181f, 0.11244106292725f, -0.44493159651756f,
    -0.12502688169479f, -0.35506293177605f, -0.02061459049582f,
    0.07015478610992f, -0.13789419829845f, -0.19005733728409f,
    -0.20082460343838f, 0.04741872102022f, -0.00941299740225f,
    0.27794289588928f, 0.21867869794369f, 0.05061896517873f,
    0.02965779788792f, -0.00746894115582f, 0.10704642534256f,
    -0.87586492300034f, -0.07507363706827f, 0.13504362106323f,
    0.21453769505024f, 0.21684747934341f, 0.27167725563049f,
    -0.38044473528862f, -0.52675008773804f, -0.09094188362360f,
    -0.23155312240124f, 0.11182016879320f, -0.04710258916020f,
    -0.07502682507038f, 0.01304222829640f, -0.32741957902908f,
    0.37796902656555f, -0.10916402190924f, -0.12905758619308f,
    -0.16837143898010f, -0.31806349754333f, 0.01370144728571f,
    0.04461590573192f},
    {-0.02452442236245f, -0.13735777139664f, -0.07577668130398f,
    0.06441672146320f, -0.04753055796027f, -0.19255094230175f,
    -0.15993517637253f, -0.07993644475937f, -0.13921706378460f,
    0.11615957319736f, 0.17924162745476f, 0.05683405697346f,
    0.15733577311039f, -0.20564399659634f, 0.20517809689045f,
    -0.13399749994278f, 0.11594481766224f, -0.01696632802486f,
    -0.04005888104439f, -0.13826809823513f, 0.17380772531033f,
    -0.04414935037494f, -0.16280525922775f, -0.06402657926083f,
    -0.02975372970104f, 0.10336901247501f, 0.01787022873759f,
    -0.09207935631275f, 0.16361616551876f, 0.10106304287910f,
    0.00823021028191f, -0.15243455767632f, -0.10163869708776f,
    0.11471469700336f, 0.09890089929104f, 0.02035073935986f,
    0.08398040384054f, 0.15067768096924f, 0.18578694760799f,
    -0.00165915815160f, -0.03119927644730f, 0.14689463376999f,
    -0.00534873222932f, -0.01745932362974f, 0.07959031313658f,
    -0.15309914946556f, 0.02425827831030f, -0.17969147861004f,
    -0.12322557717562f, 0.15120626986027f, 0.10551603883505f,
    -0.06725968420506f, 0.01978612132370f, 0.05762290209532f,
    -0.04017791152000f, 0.23282998800278f, -0.12253742665052f,
    -0.17410050332546f, 0.04200570657849f, -0.12396836280823f,
    0.01214280351996f, 0.01757955178618f, -0.00752545287833f,
    -0.15567499399185f},
    {0.28876388072968f, 0.05263530462980f, -0.21982784569263f,
    -0.26484087109566f, 0.08985847979784f, -0.33854439854622f,
    -0.24976316094398f, -0.20132961869240f, -0.22329799830914f,
    0.11839760839939f, -0.26894316077232f, -0.20936413109303f,
    -0.61818826198578f, 0.14495298266411f, 0.10894827544689f,
    0.30741843581200f, -0.11646453291178f, -0.16784425079823f,
    -0.26338160037994f, 0.20023562014103f, -0.26365682482719f,
    -0.33159640431404f, -0.19682730734348f, 0.20291143655777f,
    -0.18122491240501f, 0.11100025475025f, 0.25386208295822f,
    0.06779762357473f, -0.16003187000751f, 0.13126191496849f,
    0.20054978132248f, -0.14118313789368f, -0.12795032560825f,
    -0.12220948934555f, 0.45940247178078f, -0.16702654957771f,
    0.23273335397243f, 0.35625287890434f, 0.28972506523132f,
    0.15978156030178f, -0.04059447720647f, 0.26420119404793f,
    -0.29712024331093f, -0.45857983827591f, -0.38899284601212f,
    0.02975496463478f, -0.01557014137506f, 0.00052075705025f,
    0.17174178361893f, 0.46872350573540f, -0.02170816063881f,
    -0.09114149212837f, -0.20863893628120f, 0.02561587281525f,
    -0.22319316864014f, 0.40323182940483f, -0.13022184371948f,
    -0.51109677553177f, -0.32025256752968f, -0.21558102965355f,
    -0.01556673459709f, 0.25118827819824f, -1.25746750831604f,
    -0.19645471870899f},
    {-0.10909900814295f, 0.22529496252537f, -0.24360078573227f,
    -0.21043658256531f, 0.30320227146149f, 0.12406716495752f,
    -0.06221167743206f, 0.01143510174006f, -0.07042890042067f,
    0.15542778372765f, -0.02023954875767f, -0.13322485983372f,
    -0.31315913796425f, 0.05546097829938f, 0.10237931460142f,
    -0.54703307151794f, -0.08354042470455f, -0.14916931092739f,
    0.04584154859185f, 0.00226621842012f, -0.34306347370148f,
    -0.42324259877205f, -0.11517056077719f, -0.02941639348865f,
    -0.28439486026764f, -0.02436739392579f, -1.04939019680023f,
    -0.00832760706544f, 0.24672217667103f, -0.02244708128273f,
    0.02585897222161f, 0.01212573144585f, -0.18406555056572f,
    -0.27798238396645f, 0.32639470696449f, -0.18189536035061f,
    0.06693841516972f, -0.30900597572327f, -0.28989461064339f,
    -0.00180004804861f, -0.12726642191410f, -0.17358800768852f,
    -0.37243774533272f, 0.12248530983925f, -0.02732614800334f,
    -0.09521253407001f, -0.31518179178238f, -0.16549248993397f,
    -0.18201096355915f, 0.24525077641010f, -0.09543415904045f,
    -0.05319440364838f, -0.34232133626938f, -0.21344693005085f,
    -0.00952372793108f, -0.17451527714729f, -0.59097814559937f,
    0.04984070733190f, 0.10388781875372f, -0.00338281248696f,
    -0.10480601340532f, -0.05683178454638f, -0.15247629582882f,
    0.06058068200946f},
    {0.43087789416313f, -0.71356320381165f, -0.21687021851540f,
    0.06057303398848f, 0.32189634442329f, -0.48441344499588f,
    -0.03441426157951f, -0.12874548137188f, 0.10281617939472f,
    -0.18190500140190f, 0.01141460053623f, -0.21605870127678f,
    0.37795564532280f, -0.05716043338180f, 0.27031275629997f,
    -0.13301880657673f, 0.80794101953506f, -0.07667348533869f,
    -0.04902665317059f, -0.54368418455124f, -0.72652113437653f,
    -0.07680983841419f, -0.16650071740150f, 0.34087073802948f,
    -0.02855605818331f, -0.03433277830482f, 0.68097174167633f,
    0.24746356904507f, 0.36468970775604f, 0.02750116959214f,
    0.10163679718971f, 0.07734954357147f, 0.12924294173717f,
    -0.13587968051434f, 0.21965713799000f, 0.06068128719926f,
    0.53252053260803f, -0.14483584463596f, -0.12953062355518f,
    0.11938355118036f, 0.02770831435919f, 0.03712051361799f,
    -0.07039272040129f, -0.19528201222420f, 0.04966854676604f,
    -0.16252221167088f, -0.14206524193287f, -0.25477236509323f,
    0.02124584838748f, -0.15438863635063f, 0.77400851249695f,
    0.05757164582610f, -0.10516891628504f, 0.22654967010021f,
    -0.19637864828110f, 0.42973351478577f, 0.40217927098274f,
    -0.18358382582664f, -0.13831391930580f, 0.13529770076275f,
    -0.23132653534412f, -0.18167677521706f, 0.29503977298737f,
    0.28237813711166f},
    {-0.08394001424313f, 0.32692757248878f, -0.13427975773811f,
    0.00316078984179f, -0.42575621604919f, 0.08092022687197f,
    -0.08142784982920f, -0.01027047820389f, -0.20344328880310f,
    0.03086685016751f, 0.04510538652539f, 0.04010593891144f,
    -0.18029658496380f, -0.11963050812483f, 0.08227653056383f,
    -0.27134683728218f, -0.40490818023682f, 0.04301628097892f,
    -0.26798981428146f, 0.00739457225427f, 0.41946274042130f,
    -0.09609732776880f, 0.00534196989611f, -0.09849253296852f,
    -0.20962080359459f, -0.05169735103846f, 0.00352056859992f,
    -0.11369412392378f, 0.24844522774220f, -0.22104726731777f,
    0.17862935364246f, 0.16742107272148f, -0.04143358767033f,
    -0.22115619480610f, -0.26278191804886f, -0.00712117506191f,
    -0.04493321105838f, -0.05457831174135f, -0.11102235317230f,
    -0.01693833805621f, -0.12620709836483f, 0.11329425126314f,
    -0.35438078641891f, 0.30183354020119f, -0.29199630022049f,
    -0.22924579679966f, -0.05722399055958f, -0.16474461555481f,
    0.00735962390900f, -0.14182171225548f, -0.15816360712051f,
    -0.22111868858337f, 0.23517684638500f, 0.07715672999620f,
    0.02512209117413f, -0.16842822730541f, 0.26076379418373f,
    -0.08276402205229f, -0.07084374129772f, -0.16830086708069f,
    -0.16777765750885f, 0.05621631070971f, 0.01390712615103f,
    0.10885505378246f},
    {0.00543826213107f, 0.04088740423322f, -0.07193921506405f,
    -0.14839768409729f, 0.04829125851393f, -0.54260128736496f,
    -0.17238670587540f, -0.27744030952454f, 0.02040027827024f,
    0.02317841537297f, -0.06186946108937f, 0.06630842387676f,
    -0.16739024221897f, -0.43466711044312f, 0.23370821774006f,
    -0.48871845006943f, 0.49607732892036f, -0.04611729085445f,
    -0.28499522805214f, 0.53910571336746f, -0.19618073105812f,
    0.16028499603271f, 0.02214623615146f, -0.15415039658546f,
    -0.13548156619072f, -0.03648724406958f, 0.08873298019171f,
    -0.12385226786137f, 0.39544096589088f, -0.19137766957283f,
    -0.10658778995275f, -0.23510475456715f, 0.17224988341331f,
    0.15259440243244f, 0.36607319116592f, -0.18513715267181f,
    -0.06272017210722f, -0.09234052151442f, -0.11184193193913f,
    -0.15414585173130f, -0.10769738256931f, 0.45101538300514f,
    0.78432768583298f, 0.06650248914957f, -0.20852811634541f,
    -0.09573736786842f, -0.04757232218981f, -0.13632740080357f,
    -0.04473152011633f, 0.18138234317303f, 0.43067225813866f,
    0.03836838528514f, -0.01755001395941f, 0.16844771802425f,
    -0.04349081590772f, 0.10394500195980f, 0.90283161401749f,
    0.05948320403695f, -0.02324986830354f, 0.09325297176838f,
    -0.22430898249149f, -0.22757405042648f, 0.08480716496706f,
    0.40596622228622f},
    {-0.37923827767372f, -0.72119027376175f, 0.18581990897655f,
    -0.12211955338717f, 0.26259526610374f, -0.11317983269691f,
    0.13068665564060f, -0.10994274914265f, -0.03770349919796f,
    0.19959279894829f, 0.30947330594063f, -0.11685948073864f,
    0.51747947931290f, 0.25559571385384f, -0.74900740385056f,
    -0.39106017351151f, 0.32565683126450f, 0.06281799823046f,
    0.06839533895254f, -1.80625033378601f, 0.10948412120342f,
    -0.03576490655541f, 0.02808416262269f, -1.08234906196594f,
    0.21794381737709f, -0.03687186539173f, -2.01609063148499f,
    0.05165688320994f, -0.08106733113527f, -0.12639367580414f,
    -0.72602808475494f, -0.15881489217281f, -0.16136799752712f,
    -0.07017214596272f, 0.21076193451881f, -0.15564917027950f,
    0.29975277185440f, -0.07010687142611f, 0.15954065322876f,
    0.16759017109871f, -0.19652256369591f, -0.02410265803337f,
    -1.40749347209930f, 0.25029045343399f, -0.24528646469116f,
    -0.05416219681501f, -0.72568047046661f, 0.09435941278934f,
    -1.80851101875305f, -0.62501734495163f, -0.19037491083145f,
    0.10283415019512f, 0.05716958269477f, -0.14255963265896f,
    0.01733072660863f, -0.22544698417187f, -1.92830693721771f,
    0.17672505974770f, 0.17774736881256f, 0.16461384296417f,
    -0.06615009158850f, -1.83892524242401f, 0.19166058301926f,
    0.11642782390118f},
    {0.27946892380714f, 0.33707582950592f, -0.05436426028609f,
    -0.17320765554905f, 0.12408169358969f, 0.26606118679047f,
    -0.04666650295258f, 0.00452676229179f, -0.12270483374596f,
    0.08434690535069f, -0.20072829723358f, -0.23093359172344f,
    -0.00928573682904f, -0.03473389893770f, 0.18209865689278f,
    -0.33879995346069f, 0.06539140641689f, -0.14827199280262f,
    -0.04121109843254f, -0.35301655530930f, 0.31419306993484f,
    -0.13081163167953f, 0.09986562281847f, 0.18088506162167f,
    -0.20670568943024f, -0.07076643407345f, 0.14665891230106f,
    -0.12434402853251f, -0.02929072082043f, -0.19823731482029f,
    0.35229343175888f, -0.14095292985439f, -0.23477138578892f,
    -0.25958999991417f, 0.27973175048828f, -0.25487464666367f,
    -0.09903893619776f, 0.07791391015053f, -0.03271710500121f,
    0.07573375850916f, 0.02902789600194f, 0.14270666241646f,
    -0.15934528410435f, -0.06499713659286f, 0.13929703831673f,
    -0.24793660640717f, -0.44197839498520f, -0.17553219199181f,
    -0.13728578388691f, 0.18234424293041f, 0.07337651401758f,
    -0.13364015519619f, 0.37525725364685f, 0.20000363886356f,
    0.11932529509068f, -0.29705339670181f, -0.11101433634758f,
    0.15112321078777f, 0.05900659412146f, -0.22843813896179f,
    0.09833832085133f, 0.07716424763203f, -0.49893841147423f,
    0.28726783394814f},
    {-0.16116525232792f, -0.12866115570068f, -0.10327276587486f,
    0.12238165736198f, 0.00779729336500f, -0.10727784037590f,
    0.00620162487030f, -0.04707776755095f, -0.10155521333218f,
    0.11478419601917f, 0.57077485322952f, -0.18402308225632f,
    0.02556639164686f, -0.01211320608854f, -0.17069059610367f,
    0.14746825397015f, -0.18033897876740f, 0.15564365684986f,
    -0.26213815808296f, 0.35266128182411f, 0.21250918507576f,
    0.11573317646980f, -0.12461087107658f, -0.09626601636410f,
    -0.12390188127756f, 0.06349009275436f, -0.15777027606964f,
    -0.12729227542877f, 0.06625661998987f, 0.11712074279785f,
    -0.03027673624456f, -0.13330397009850f, -0.10082716494799f,
    0.02668751589954f, 0.01272747572511f, 0.13554416596889f,
    -0.24748705327511f, 0.30508196353912f, -0.04545829445124f,
    -0.24483522772789f, -0.08731937408447f, 0.43784531950951f,
    0.21341887116432f, 0.08730695396662f, -0.18646343052387f,
    0.06107854098082f, -0.10461621731520f, 0.17877754569054f,
    0.04660276323557f, 0.17585708200932f, 0.00557515770197f,
    0.01577488705516f, 0.05269973725080f, -0.38483908772469f,
    0.02289373427629f, 0.24297298491001f, 0.40862721204758f,
    0.09329486638308f, -0.08333327621222f, 0.07914537936449f,
    -0.10871013998985f, 0.13253340125084f, 0.38853988051414f,
    0.34248098731041f},
    {-0.12102619558573f, 0.15734227001667f, -0.15160857141018f,
    -0.23587533831596f, -0.41898563504219f, 0.08233019709587f,
    -0.10694734007120f, -0.30911254882812f, 0.06386975198984f,
    -0.23377412557602f, -0.40167310833931f, -0.23372684419155f,
    -0.07269895821810f, 0.25842875242233f, -0.73124498128891f,
    0.01677861995995f, -0.18925595283508f, -0.14134609699249f,
    -0.06557769328356f, -0.92544281482697f, 0.04500676691532f,
    -0.03073838353157f, -0.18954552710056f, -0.20598229765892f,
    0.01488621812314f, -0.17383661866188f, 0.11616055667400f,
    -0.05398107320070f, -0.09863442182541f, 0.10881259292364f,
    0.06688167154789f, 0.06036959588528f, -0.00468855164945f,
    -0.15573517978191f, 0.59523332118988f, -0.08493151515722f,
    -0.41248008608818f, -0.07568497210741f, -0.02979657612741f,
    0.00499242451042f, -0.14933131635189f, -0.00839332398027f,
    0.12230187654495f, -0.30099314451218f, -0.01023570448160f,
    -0.10970241576433f, -0.35092937946320f, -0.19451774656773f,
    -0.03673026338220f, -0.23762746155262f, -0.01165456417948f,
    -0.25588276982307f, 0.00917699187994f, 0.34062600135803f,
    -0.02775621041656f, -0.42838165163994f, -0.15428139269352f,
    -0.34869959950447f, -0.11004141718149f, -0.11026932299137f,
    0.16846704483032f, 0.51506918668747f, -0.05889659374952f,
    0.37454414367676f},
    {-0.10997685045004f, 0.41104313731194f, -0.17720852792263f,
    -0.06502400338650f, -0.03066565468907f, -0.19054634869099f,
    0.10952971875668f, -0.21548378467560f, 0.07750179618597f,
    -0.15413174033165f, -0.08534424751997f, 0.04384335875511f,
    -0.02535992302001f, 0.25131675601006f, -0.19771459698677f,
    -0.12216205149889f, -0.06872083246708f, -0.08879997581244f,
    -0.09972753375769f, 0.08840571343899f, 0.10403764992952f,
    -0.34836629033089f, -0.15921878814697f, 0.38174155354500f,
    -0.08990970999002f, 0.11336202174425f, 0.40359398722649f,
    0.00366632267833f, -0.08910374343395f, 0.03062163852155f,
    -0.17355498671532f, 0.05826410278678f, -0.15092690289021f,
    -0.13801944255829f, 0.04907043278217f, -0.00490006571636f,
    0.12279455363750f, 0.00889020599425f, 0.14618241786957f,
    -0.11933211237192f, -0.06737076491117f, -0.01451436243951f,
    -0.04831479489803f, 0.05931321904063f, 0.11232350021601f,
    -0.18736122548580f, 0.54516518115997f, 0.02693242207170f,
    -0.05816465616226f, -0.25714987516403f, -0.13178969919682f,
    -0.27260696887970f, 0.19877704977989f, -0.22134162485600f,
    0.10521028935909f, -0.22778716683388f, -0.17077948153019f,
    0.01492156460881f, -0.29602539539337f, 0.15092737972736f,
    0.11956419050694f, -0.15255115926266f, -1.42643618583679f,
    -0.05782402679324f},
    {-0.08839965611696f, -0.08951105922461f, 0.10252142697573f,
    -0.14240564405918f, 0.00332598807290f, -0.24922999739647f,
    0.03099079616368f, 0.10488926619291f, -0.00656793266535f,
    -0.16218025982380f, 0.23155067861080f, -0.23256313800812f,
    -0.04259781911969f, 0.31745904684067f, -0.28964686393738f,
    -0.19531857967377f, -0.51740372180939f, -0.14170970022678f,
    0.13199943304062f, 0.09289678186178f, 0.13696266710758f,
    -0.21815092861652f, -0.27582618594170f, 0.08515717089176f,
    -0.07140573859215f, -0.11846899986267f, -0.07530648261309f,
    0.18025884032249f, 0.18798014521599f, -0.10979210585356f,
    -0.07329021394253f, -0.04574060440063f, -0.03740452975035f,
    0.03272812068462f, -0.09407432377338f, -0.27039819955826f,
    -0.26674509048462f, -0.07935346662998f, 0.03932495787740f,
    -0.23240350186825f, -0.13232822716236f, -0.19134950637817f,
    -0.45624175667763f, 0.30925673246384f, -0.11033495515585f,
    -0.17667916417122f, 0.26441577076912f, 0.21431319415569f,
    -0.01126431021839f, -0.13626344501972f, -0.48053857684135f,
    0.07556989789009f, -0.07232021540403f, -0.22925125062466f,
    -0.04121900349855f, 0.06117266416550f, -0.03598261997104f,
    0.01498039439321f, -0.01744010485709f, 0.17622493207455f,
    -0.21840873360634f, -0.47075739502907f, -0.28922680020332f,
    0.05202269181609f},
    {0.01110248174518f, 0.51981037855148f, 0.17912419140339f,
    -0.07823056727648f, 0.11537025123835f, -0.18257726728916f,
    -0.17165690660477f, -0.40546944737434f, 0.08579263091087f,
    -0.12448087334633f, 0.02765528671443f, -0.05043397843838f,
    0.06258592754602f, -0.44270694255829f, -1.08616578578949f,
    0.13110390305519f, -1.07744491100311f, -0.10481793433428f,
    0.06378410756588f, -0.14384001493454f, -0.05235459655523f,
    0.11997302621603f, 0.04376298189163f, 0.60467028617859f,
    -0.09141023457050f, -0.16199426352978f, -0.23155377805233f,
    0.19201275706291f, 0.05280824378133f, 0.01537708193064f,
    0.35678392648697f, -0.02175638265908f, 0.18012939393520f,
    0.10677820444107f, 0.21798641979694f, 0.13012267649174f,
    0.11188109964132f, 0.09582868963480f, -0.34013122320175f,
    -0.20175582170486f, -0.07251130044460f, 0.08953595906496f,
    0.34883472323418f, 0.14278948307037f, -0.06544447690248f,
    0.10658202320337f, 0.06036972627044f, 0.17575250566006f,
    0.06512093544006f, 0.15113393962383f, -0.37723445892334f,
    -0.03328609094024f, 0.11342850327492f, 0.00379420793615f,
    -0.19554148614407f, -0.24677053093910f, 0.34900745749474f,
    -0.32207351922989f, -0.44066438078880f, 0.11791796982288f,
    0.09684011340141f, -0.65425038337708f, 0.13068340718746f,
    0.55337131023407f},
    {-0.40976032614708f, -0.56329548358917f, -0.06457270681858f,
    -0.11102331429720f, 0.10632849484682f, -0.27160173654556f,
    0.00377114117146f, -0.43682181835175f, -0.08700105547905f,
    -0.08123011887074f, 0.29073905944824f, -0.17754375934601f,
    0.24108701944351f, -0.21863095462322f, 0.35463073849678f,
    -0.27272522449493f, 0.13037478923798f, 0.15414349734783f,
    -0.14736500382423f, -0.50382417440414f, 0.38152056932449f,
    -0.24242630600929f, -0.15480904281139f, 0.01149565074593f,
    -0.22391465306282f, -0.12496002018452f, 0.14064958691597f,
    0.15707409381866f, -1.12760615348816f, -0.20816448330879f,
    -1.55486905574799f, 0.07240627706051f, 0.16208866238594f,
    0.21748733520508f, -0.34430286288261f, 0.00365571654402f,
    0.24359764158726f, -0.19239696860313f, -0.24480062723160f,
    0.19188433885574f, 0.16713002324104f, 0.34626257419586f,
    0.77962517738342f, 0.35545349121094f, -0.01286121457815f,
    0.06188508123159f, -0.18700085580349f, 0.06682807952166f,
    0.13074202835560f, -0.06770702451468f, 0.30380108952522f,
    -0.08175493031740f, -0.10349664837122f, -0.26002955436707f,
    0.04460518434644f, -0.56688457727432f, -0.40885233879089f,
    0.05810210108757f, 0.04770931228995f, -0.22068698704243f,
    0.17587688565254f, 0.39164486527443f, 0.10446810722351f,
    0.38507530093193f},
    {-0.75052481889725f, 0.27090099453926f, -0.06900884211063f,
    0.05509051308036f, -0.19798949360847f, -0.14212317764759f,
    -0.20095483958721f, -0.34553772211075f, -0.09769546240568f,
    -0.22524040937424f, 0.12728941440582f, 0.16866602003574f,
    -0.10771151632071f, -0.08153564482927f, -0.12285781651735f,
    0.01788243465126f, -0.18929050862789f, -0.01075273286551f,
    -0.20865182578564f, -0.20273028314114f, 0.25869944691658f,
    0.26797202229500f, -0.15520112216473f, -0.56445586681366f,
    0.22125971317291f, 0.04227454587817f, 0.30749249458313f,
    -0.06760435551405f, -0.01174962706864f, 0.02239495515823f,
    -0.34946423768997f, 0.08732918649912f, -0.06001435220242f,
    0.16045971214771f, -0.22287970781326f, 0.13724100589752f,
    -0.97634524106979f, -0.26410415768623f, -0.00861432868987f,
    -0.06765481829643f, 0.17261548340321f, 0.31113937497139f,
    0.02248561941087f, 0.16296052932739f, -0.04428161680698f,
    0.08675905317068f, -0.21764837205410f, 0.17034086585045f,
    -1.65511286258698f, 0.03458923473954f, -0.67259764671326f,
    0.12227402627468f, 0.28536307811737f, 0.09690437465906f,
    -0.14935582876205f, 0.06165257841349f, 0.52236801385880f,
    0.42278820276260f, 0.33606213331223f, -0.00626623677090f,
    -0.18375310301781f, -0.62572908401489f, 0.47435179352760f,
    0.01585726439953f},
    {0.22324453294277f, 0.30289247632027f, -0.02312444895506f,
    -0.16648389399052f, 0.03811624646187f, 0.37529319524765f,
    -0.05924798548222f, -0.12222806364298f, 0.06205072253942f,
    -0.23946924507618f, 0.06626553833485f, -0.15741667151451f,
    0.12289218604565f, -0.01752576418221f, 0.47305786609650f,
    0.35580548644066f, -0.25363847613335f, -0.01633648201823f,
    -0.16895331442356f, -0.15714445710182f, -0.09898138791323f,
    0.49198785424232f, -0.05203459039330f, -0.07778623700142f,
    -0.57366389036179f, -0.13413023948669f, -0.51351261138916f,
    0.22647261619568f, 0.21263585984707f, 0.02009824849665f,
    0.14044411480427f, -0.22981235384941f, 0.11507225781679f,
    0.00832050852478f, -0.08190228044987f, -0.11808572709560f,
    -0.43429183959961f, -0.14526651799679f, -0.23075900971889f,
    0.03191721066833f, 0.11760209500790f, 0.33035233616829f,
    0.43447518348694f, 0.21187688410282f, 0.17348791658878f,
    -0.07747338712215f, -0.04020844027400f, -0.46348020434380f,
    0.17091123759747f, -0.00897567346692f, 0.06634058058262f,
    -0.03148747235537f, -0.08273345977068f, 0.04582914337516f,
    0.16890171170235f, 0.56695771217346f, -0.31379452347755f,
    -0.24059696495533f, -0.02158422581851f, 0.17166447639465f,
    0.12093447893858f, 0.17685709893703f, -0.16094751656055f,
    -0.59230399131775f},
    {0.06239200383425f, 0.04381393641233f, -0.00252268020995f,
    -0.08079256862402f, 0.07165016978979f, 0.30677530169487f,
    -0.19210651516914f, 0.10522054880857f, -0.14289361238480f,
    -0.22463920712471f, -0.07124257832766f, 0.06936523318291f,
    -0.24249637126923f, 0.06818186491728f, -0.06899323314428f,
    0.00302793877199f, -0.56946086883545f, 0.11763824522495f,
    0.14799456298351f, -0.21016766130924f, -0.29661545157433f,
    0.02617243304849f, -0.09060411900282f, 0.11663383245468f,
    -0.12316232919693f, -0.27348852157593f, -0.23822030425072f,
    0.10446576774120f, 0.19559073448181f, -0.07667569071054f,
    -0.06501358002424f, 0.09716213494539f, 0.01955847628415f,
    -0.13714700937271f, 0.33877393603325f, -0.03973003849387f,
    -0.04366574063897f, 0.11725059151649f, 0.13260321319103f,
    -0.08189535886049f, 0.16620232164860f, 0.00309514557011f,
    -0.07197379320860f, 0.10637862980366f, 0.20942398905754f,
    -0.21013176441193f, 0.05748027563095f, -0.05019539967179f,
    -0.15643808245659f, 0.03735190629959f, -0.00655553024262f,
    0.07501471787691f, 0.08627435564995f, -0.05149059370160f,
    -0.15348008275032f, 0.18999096751213f, 0.23433819413185f,
    -0.49630194902420f, -0.08455620706081f, -0.17564167082310f,
    -0.07957231253386f, -0.00458015687764f, -1.65672194957733f,
    -0.47701218724251f},
    {0.36316606402397f, 0.21878598630428f, 0.09432629495859f,
    -0.22521328926086f, 0.26112312078476f, -0.06620685011148f,
    -0.21306075155735f, -0.02156135253608f, -0.20195920765400f,
    -0.13814368844032f, -0.04829731956124f, -0.18252089619637f,
    0.39840465784073f, 0.01543343998492f, 0.02281547151506f,
    0.22464336454868f, 0.39117246866226f, 0.05941949784756f,
    -0.01813035644591f, 0.13993801176548f, -0.13683536648750f,
    -0.26513084769249f, 0.11219173669815f, 0.18880258500576f,
    0.33709532022476f, -0.03687300533056f, 0.28770127892494f,
    -0.06671113520861f, 0.08444309979677f, -0.23163047432899f,
    -0.40950939059258f, 0.14023211598396f, -0.01384498458356f,
    -0.07944057136774f, 0.30181595683098f, -0.25501221418381f,
    0.19760002195835f, 0.49771067500114f, 0.20292982459068f,
    0.07582519948483f, 0.01160537917167f, -0.03995318710804f,
    0.39470747113228f, -0.16609524190426f, -0.17232272028923f,
    0.06919428706169f, 0.14029638469219f, 0.31498038768768f,
    -0.29826742410660f, -0.07725568115711f, 0.18618135154247f,
    -0.09106449037790f, 0.08031702041626f, 0.16867050528526f,
    0.01881062984467f, -0.22450046241283f, 0.14190308749676f,
    -0.17504979670048f, -0.32314109802246f, -0.18390050530434f,
    -0.08406078070402f, 0.46089306473732f, 0.54828977584839f,
    0.23279842734337f},
    {-0.09703312069178f, 0.21340213716030f, -0.11666133254766f,
    0.03562138229609f, -0.10365777462721f, -0.01988999731839f,
    0.05610774084926f, -0.16332681477070f, -0.01687873341143f,
    0.11594895273447f, 0.13150489330292f, 0.06309528648853f,
    0.10291246324778f, 0.25032415986061f, -0.02934785559773f,
    -0.14701102674007f, -0.07877586781979f, -0.19009742140770f,
    -0.41606098413467f, -0.16484564542770f, 0.08798123151064f,
    -0.03089888766408f, -0.21365176141262f, -0.09155876934528f,
    0.16841126978397f, 0.08635959029198f, 0.12987881898880f,
    -0.21355685591698f, -0.22524864971638f, -0.19804614782333f,
    -0.17912025749683f, 0.10772746056318f, -0.08977638930082f,
    0.03529306873679f, 0.16257308423519f, -0.22984388470650f,
    0.23925483226776f, 0.15413364768028f, 0.13125610351562f,
    0.01976710930467f, -0.17721329629421f, -0.19377064704895f,
    -0.45392727851868f, 0.04313792288303f, -0.30200558900833f,
    -0.12090452015400f, 0.00266512390226f, 0.24335871636868f,
    -0.25045394897461f, -0.17814110219479f, 0.23223213851452f,
    -0.10442190617323f, 0.38253203034401f, -0.10246199369431f,
    -0.18388694524765f, -0.32461395859718f, -0.34890937805176f,
    0.02687129750848f, -0.06501682847738f, -0.27057456970215f,
    -0.12675879895687f, 0.18882377445698f, -0.19466273486614f,
    0.29364064335823f},
    {-0.71390628814697f, -0.01559801772237f, -0.04053573310375f,
    0.03601106256247f, -0.90713351964951f, -0.10888386517763f,
    0.09210883080959f, 0.20723876357079f, -0.00367153109983f,
    0.13487036526203f, -0.39157629013062f, 0.12860929965973f,
    0.22512742877007f, -0.16933289170265f, -0.12723827362061f,
    0.01523398421705f, -0.45230567455292f, -0.19698569178581f,
    0.02381253242493f, 0.38839194178581f, 0.06570028513670f,
    0.03680062294006f, -0.00242693047039f, -0.04453879967332f,
    0.53666144609451f, 0.14449612796307f, 0.46542474627495f,
    -0.21640832722187f, 0.15645007789135f, -0.00643333792686f,
    -1.01654160022736f, 0.13338796794415f, -0.00265223463066f,
    0.02146463282406f, -1.22518050670624f, -0.19933484494686f,
    -0.78496879339218f, -0.01226996164769f, 0.01662579923868f,
    -0.11628808081150f, -0.02725952304900f, 0.24043521285057f,
    0.25187885761261f, 0.25407907366753f, -0.40629509091377f,
    -0.01930137723684f, -0.36119568347931f, 0.08976560086012f,
    -0.19811235368252f, -0.44212448596954f, -0.64098316431046f,
    -0.14675852656364f, 0.12060196697712f, 0.08259156346321f,
    -0.05989110469818f, 0.19260439276695f, 0.50000816583633f,
    0.97837990522385f, 0.07399037480354f, 0.01572285033762f,
    -0.02746753580868f, 0.11747449636459f, 0.69263249635696f,
    -0.33758419752121f},
    {0.09831308573484f, 0.15016236901283f, 0.16514469683170f,
    -0.12820002436638f, 0.20166261494160f, -0.09584499150515f,
    0.13021759688854f, 0.08043547719717f, -0.26052591204643f,
    -0.17496398091316f, -0.16664347052574f, 0.12387042492628f,
    -0.07783252000809f, 0.13737252354622f, -0.21188375353813f,
    0.22514690458775f, -0.13789692521095f, -0.15827323496342f,
    -0.08346115797758f, -0.03291074559093f, -0.06659902632236f,
    -0.23830081522465f, -0.10650092363358f, -0.27354472875595f,
    -0.15173244476318f, -0.16560259461403f, -0.01633162237704f,
    -0.01885297521949f, 0.15532766282558f, -0.19353714585304f,
    -0.32534107565880f, 0.18354915082455f, 0.09950388222933f,
    -0.01570331305265f, -0.00738313188776f, 0.11033322662115f,
    -0.03157385811210f, 0.06065648049116f, -0.00423598662019f,
    -0.15868896245956f, -0.02023076079786f, 0.18508560955524f,
    0.07793176174164f, 0.18508730828762f, 0.22196236252785f,
    0.03626357764006f, 0.13272397220135f, 0.02443855628371f,
    0.11970812082291f, 0.36712759733200f, -0.40170454978943f,
    -0.21498765051365f, 0.12055992335081f, 0.20005938410759f,
    0.09923671185970f, 0.19274812936783f, -0.10626226663589f,
    0.15954323112965f, -0.08568267524242f, 0.11303731799126f,
    -0.24381233751774f, -0.18542164564133f, -0.50215297937393f,
    -0.09299721568823f},
    {0.20534799993038f, -0.16490986943245f, 0.13780041038990f,
    -0.24465717375278f, 0.09951805323362f, 0.17269839346409f,
    -0.14235118031502f, 0.05194714665413f, -0.06652110069990f,
    -0.07183355093002f, 0.25524106621742f, 0.06598477065563f,
    -0.09662255644798f, -0.09105935692787f, -0.35288676619530f,
    0.00911376718432f, -0.28751313686371f, -0.19722850620747f,
    -0.16756539046764f, -0.10123630613089f, -0.08741343766451f,
    -0.12422154843807f, -0.01541891880333f, -0.26014029979706f,
    -0.30377241969109f, -0.16528578102589f, -0.27736821770668f,
    0.26827532052994f, -0.10610814392567f, 0.11569443345070f,
    -0.35042172670364f, -0.15329088270664f, -0.17134964466095f,
    -0.10829297453165f, 0.08644226938486f, -0.06119862571359f,
    -0.12667350471020f, -0.14692562818527f, 0.03715445101261f,
    -0.10783603042364f, -0.22733852267265f, -0.00073331315070f,
    -0.96802037954330f, -0.21780078113079f, -0.06915710121393f,
    -0.01311441231519f, -0.07753209769726f, 0.26436218619347f,
    0.12187968939543f, -0.01219642721117f, -0.07242573052645f,
    -0.16985206305981f, 0.00888142082840f, -0.11816274374723f,
    -0.05593712627888f, -0.14732332527637f, 0.02376461587846f,
    0.09252927452326f, 0.43198722600937f, -0.07329237461090f,
    -0.14861191809177f, -0.10444318503141f, 0.04819779098034f,
    0.19603230059147f},
    {0.01616879180074f, -2.94489574432373f, -0.03287476673722f,
    0.06437696516514f, 0.45282849669456f, -0.15776002407074f,
    0.14523856341839f, -0.33603212237358f, -0.15829306840897f,
    -0.02195966802537f, 0.34562259912491f, -0.18395408987999f,
    0.52195006608963f, 0.31277048587799f, -0.27179008722305f,
    0.23191280663013f, 0.59370183944702f, -0.03272095322609f,
    -0.12725329399109f, 0.17247767746449f, -1.40616142749786f,
    -0.01595367304981f, -0.09414209425449f, -0.27333354949951f,
    -0.23141224682331f, -0.22017411887646f, -0.56436067819595f,
    0.03387633711100f, 0.39180099964142f, -0.04439467191696f,
    -0.08983305841684f, 0.06160406768322f, 0.00706920213997f,
    0.08870929479599f, 0.21396538615227f, 0.19575479626656f,
    0.41972902417183f, 0.08125004172325f, 0.01827625557780f,
    -0.21602445840836f, -0.19593766331673f, 0.08221729844809f,
    -1.96401810646057f, 0.34779614210129f, -0.22286054491997f,
    0.14953221380711f, -0.40339952707291f, -0.22305385768414f,
    -0.81972962617874f, -0.12116092443466f, 0.42182859778404f,
    0.01779000274837f, -0.01381451822817f, -0.19149170815945f,
    -0.03292025625706f, 0.37835118174553f, 0.09216968715191f,
    -0.31195664405823f, -0.66802191734314f, -0.20506928861141f,
    -0.03172959387302f, -0.44300818443298f, -0.47351381182671f,
    0.21947357058525f},
    {0.10276719182730f, 0.00936567783356f, -0.14833538234234f,
    0.17644973099232f, 0.16422176361084f, -0.13661138713360f,
    -0.00998081266880f, -0.01843835972250f, 0.07091198861599f,
    0.13309150934219f, -0.18736098706722f, -0.02255208790302f,
    0.03905943036079f, 0.03820425271988f, -0.10771549493074f,
    -0.02327241934836f, -0.17758938670158f, 0.01780380308628f,
    -0.03064715862274f, 0.06789653003216f, -0.10957498103380f,
    0.07653366774321f, -0.01426185667515f, -0.13544633984566f,
    -0.02248075604439f, 0.14311142265797f, -0.04993247985840f,
    0.17948602139950f, 0.11417664587498f, 0.06324924528599f,
    -0.23133842647076f, -0.20976829528809f, -0.14865589141846f,
    0.05556432902813f, -0.01406379882246f, 0.15342719852924f,
    -0.10148572921753f, 0.16817696392536f, 0.06711865216494f,
    -0.03369141370058f, 0.00512149930000f, 0.17142032086849f,
    -0.12983900308609f, -0.03184765204787f, 0.04648911207914f,
    0.11976568400860f, 0.13565625250340f, -0.04813428968191f,
    -0.17907659709454f, 0.08861034363508f, -0.15706481039524f,
    -0.08794254064560f, -0.19541487097740f, 0.19720984995365f,
    -0.02369137108326f, 0.00945320352912f, -0.20470105111599f,
    0.20951569080353f, -0.17903560400009f, 0.07701899111271f,
    -0.17939163744450f, 0.08515600115061f, -0.08813725411892f,
    0.12719468772411f},
    {-0.20797231793404f, -0.03537645936012f, -0.17377230525017f,
    0.19827683269978f, -0.06474237143993f, 0.13701762259007f,
    0.08007438480854f, 0.07273586094379f, -0.10999754071236f,
    0.19579593837261f, -0.03596821427345f, 0.07599963247776f,
    -0.07390286028385f, 0.03253285586834f, 0.08014081418514f,
    -0.18474230170250f, 0.17901320755482f, -0.10419338196516f,
    0.02897568047047f, -0.18681104481220f, 0.18102757632732f,
    0.16634668409824f, -0.09412357211113f, 0.02612103521824f,
    0.12362949550152f, -0.04072238504887f, 0.04960979521275f,
    0.11958481371403f, 0.10241396725178f, -0.12188491225243f,
    0.02720059454441f, 0.08955998718739f, 0.08747966587543f,
    -0.11352173238993f, -0.08250260353088f, 0.04184247553349f,
    0.08104766905308f, -0.08192054927349f, -0.12068372964859f,
    0.04729865491390f, 0.04648168385029f, -0.05750495195389f,
    0.20194335281849f, 0.00882816314697f, 0.16430772840977f,
    0.18098573386669f, 0.16080723702908f, -0.03130370378494f,
    -0.17574246227741f, 0.04350306093693f, 0.10175023972988f,
    0.16198058426380f, -0.18152467906475f, -0.10144677758217f,
    0.04338552057743f, 0.14964564144611f, -0.15754160284996f,
    -0.03902623057365f, -0.02859622240067f, 0.08475889265537f,
    -0.18386131525040f, -0.07802800834179f, -0.18766249716282f,
    0.10920409858227f},
    {0.22587683796883f, 0.17740429937840f, -0.07227455824614f,
    -0.15228636562824f, 0.41704258322716f, -0.03359003737569f,
    -0.01587796024978f, -0.01222864724696f, -0.15066148340702f,
    0.12990401685238f, 0.33115881681442f, 0.11483986675739f,
    -0.20488037168980f, -0.04553877562284f, 0.15050075948238f,
    -0.13072156906128f, -0.13885016739368f, -0.19916728138924f,
    -0.17121013998985f, 0.24487894773483f, 0.11366989463568f,
    0.07122210413218f, -0.19907613098621f, -0.03951479867101f,
    -0.24211618304253f, 0.13691779971123f, -0.10476274043322f,
    -0.14638108015060f, 0.11775042116642f, -0.18602974712849f,
    0.00530620664358f, -0.10962664335966f, -0.13723294436932f,
    -0.23169802129269f, -0.04804914072156f, -0.21891202032566f,
    -0.01627315953374f, 0.03419925644994f, 0.10011582821608f,
    -0.02193829976022f, -0.00745765492320f, 0.00662815896794f,
    -0.24741335213184f, 0.02539954520762f, -0.08632839471102f,
    -0.07902465760708f, 0.08817475289106f, 0.14699140191078f,
    0.18473854660988f, 0.05551650747657f, -0.52129441499710f,
    0.09243632853031f, 0.12392964959145f, 0.12486732751131f,
    0.00522825121880f, -0.01368718221784f, 0.09775616228580f,
    0.12344951927662f, -0.16527627408504f, -0.12585224211216f,
    -0.09227824211121f, 0.01097169052809f, -1.45000410079956f,
    -0.10145626217127f},
    {0.14997453987598f, -0.20950545370579f, -0.13099217414856f,
    0.02702173590660f, 0.11445476114750f, 0.07004581391811f,
    0.15770460665226f, 0.17729438841343f, -0.17399318516254f,
    -0.03162358701229f, 0.03867392241955f, -0.09465122222900f,
    0.14110337197781f, -0.00730565190315f, 0.10087932646275f,
    -0.06730727851391f, -0.12238886952400f, 0.05889542400837f,
    0.12442781031132f, 0.09231211245060f, -0.12160843610764f,
    0.09957130253315f, 0.18703962862492f, 0.19281299412251f,
    -0.13923791050911f, -0.17259410023689f, 0.04713265597820f,
    -0.00489592552185f, 0.09520359337330f, -0.20794758200645f,
    0.11860896646976f, -0.20507627725601f, -0.21328929066658f,
    0.04816995561123f, -0.11653200536966f, -0.12287703156471f,
    0.09925653040409f, -0.17065714299679f, -0.21190217137337f,
    -0.10283692926168f, 0.12703917920589f, 0.08460681140423f,
    0.03939072787762f, -0.10215344280005f, -0.09665466099977f,
    0.03457288444042f, 0.05504350364208f, 0.12080024182796f,
    -0.08994680643082f, 0.16792996227741f, 0.01165874302387f,
    -0.08237949013710f, 0.13180477917194f, -0.14944931864738f,
    -0.07538896799088f, 0.05580519139767f, 0.06746615469456f,
    -0.08162090182304f, 0.13623653352261f, 0.13321994245052f,
    -0.17221671342850f, -0.11621315032244f, -0.12812674045563f,
    -0.13807778060436f},
    {0.28100880980492f, 0.88388848304749f, 0.08547126501799f,
    0.07830818742514f, -0.07641722261906f, 0.29363867640495f,
    -0.09091188013554f, 0.20187757909298f, 0.11815056204796f,
    -0.24141700565815f, -0.05779742822051f, -0.04819828644395f,
    0.20999826490879f, 0.09770680963993f, -0.00128133886028f,
    0.21097326278687f, -0.12640596926212f, -0.18026740849018f,
    0.00303167803213f, -0.12744241952896f, -0.27043581008911f,
    0.07146448642015f, 0.00583360483870f, -0.14790314435959f,
    -0.01724078133702f, -0.03152335435152f, 0.49902600049973f,
    0.09715843200684f, 0.38410475850105f, -0.06671623140574f,
    -0.17627887427807f, -0.12699975073338f, 0.03759098798037f,
    0.05377048626542f, 0.17471657693386f, -0.15577019751072f,
    -0.08487767726183f, 0.00540336407721f, -0.06423510611057f,
    -0.16885398328304f, -0.02781531400979f, 0.28414079546928f,
    0.11273766309023f, 0.02347427792847f, 0.13954310119152f,
    -0.21359832584858f, 0.23840205371380f, 0.18221029639244f,
    0.30377560853958f, -0.05273624882102f, 0.48756095767021f,
    -0.17276638746262f, 0.23181779682636f, -0.62422561645508f,
    -0.18607330322266f, -0.10998539626598f, -0.25647169351578f,
    0.05526903271675f, 0.56729108095169f, 0.13611099123955f,
    0.11128709465265f, 0.07512577623129f, -0.97869622707367f,
    0.06659657508135f},
    {-0.06322314590216f, 0.10678178071976f, 0.13424758613110f,
    0.13719199597836f, -0.07605881243944f, 0.05889261141419f,
    0.17860375344753f, 0.03516435995698f, -0.10428402572870f,
    -0.21663375198841f, 0.10219039022923f, -0.20770058035851f,
    -0.09774259477854f, 0.03931220993400f, -0.10145979374647f,
    -0.04039473831654f, 0.02316920086741f, -0.17514155805111f,
    -0.13272708654404f, 0.07327176630497f, -0.12487846612930f,
    0.04198733717203f, 0.04884221032262f, 0.08294843137264f,
    -0.13515226542950f, -0.00051593466196f, -0.12652318179607f,
    0.11668860167265f, -0.12639231979847f, 0.03229692578316f,
    -0.09482556581497f, 0.05749332532287f, -0.20937903225422f,
    0.19768770039082f, -0.12576821446419f, -0.02707454562187f,
    0.13515886664391f, -0.19762942194939f, 0.00771164987236f,
    -0.01116081885993f, 0.15891180932522f, -0.19386169314384f,
    0.17856480181217f, 0.08300932496786f, 0.16274365782738f,
    -0.07817320525646f, -0.13109481334686f, -0.08911592513323f,
    0.06987428665161f, 0.18978753685951f, 0.16524176299572f,
    0.00967575702816f, 0.20415510237217f, -0.13687816262245f,
    -0.07776571810246f, -0.02979623153806f, -0.08018172532320f,
    0.12115153670311f, 0.13233561813831f, -0.18394991755486f,
    0.17843081057072f, 0.04531722888350f, 0.00279961712658f,
    0.01050369627774f},
    {-0.27547320723534f, 0.25244989991188f, -0.20226396620274f,
    0.06304828822613f, -0.02830178104341f, -0.04007760435343f,
    -0.00697101093829f, -0.87925571203232f, 0.14216108620167f,
    0.17140901088715f, -0.19079832732677f, 0.10538352280855f,
    -0.54324257373810f, -0.03430380299687f, -0.54916352033615f,
    -0.60167318582535f, 0.33157640695572f, 0.11716102063656f,
    -0.12663909792900f, 0.15379397571087f, 0.00625643460080f,
    0.04704393073916f, 0.01898543350399f, -0.09339790791273f,
    0.11159455031157f, 0.13293871283531f, -0.08850527554750f,
    -0.21216572821140f, 0.32619330286980f, 0.01295422762632f,
    -0.44294178485870f, -0.21420399844646f, -0.07926683872938f,
    -0.24540135264397f, -0.16713643074036f, 0.02846634760499f,
    0.13560375571251f, 0.14905761182308f, -0.55405956506729f,
    -0.22585983574390f, 0.02624869532883f, 0.41142651438713f,
    -0.04212589934468f, 0.07433258742094f, -0.18076583743095f,
    -0.08858823031187f, -0.10492690652609f, -0.05494620278478f,
    -0.18078026175499f, -0.45237383246422f, 0.38598445057869f,
    0.01562546379864f, 0.13681009411812f, 0.01608043350279f,
    0.02943993732333f, 0.26727780699730f, -0.68430477380753f,
    -0.06788772344589f, 0.46175691485405f, 0.10514950752258f,
    -0.11317050457001f, 0.13729357719421f, 0.06548815965652f,
    0.34176117181778f},
    {-0.27006384730339f, 0.10219930857420f, 0.17297710478306f,
    -0.20119822025299f, -0.14327624440193f, 0.12943945825100f,
    -0.22914841771126f, -0.40686723589897f, -0.05114988982677f,
    -0.21958917379379f, -0.02353817783296f, -0.18346631526947f,
    -0.02641318552196f, -0.05860143154860f, -0.93361389636993f,
    0.02773230336607f, -0.86317676305771f, 0.08197566121817f,
    0.06908555328846f, -0.10618603974581f, 0.19764833152294f,
    -0.27307087182999f, 0.00539005221799f, -0.01387930382043f,
    -0.47070476412773f, -0.15011821687222f, 0.05134240165353f,
    -0.24079309403896f, -0.20732437074184f, -0.11345095932484f,
    -0.50830668210983f, -0.29368600249290f, -0.08105420321226f,
    -0.01448374055326f, -0.36842530965805f, -0.13681770861149f,
    -0.50210285186768f, 0.15590225160122f, -0.07463465631008f,
    -0.10440793633461f, -0.14860978722572f, -0.00206888653338f,
    -0.04261313006282f, -0.20251789689064f, -0.22279603779316f,
    0.01599769666791f, 0.22853738069534f, 0.05822816491127f,
    -0.25266820192337f, 0.01783470064402f, 0.23667488992214f,
    -0.17649404704571f, 0.20071330666542f, -0.06795926392078f,
    -0.16099950671196f, -0.10324919223785f, 0.14505840837955f,
    -0.18979762494564f, -0.01264929398894f, -0.08095912635326f,
    -0.02807374298573f, 0.02234688028693f, -0.28889250755310f,
    0.15946513414383f},
    {-0.49614888429642f, 0.18997575342655f, -0.16228491067886f,
    0.06925822049379f, -0.23528324067593f, 0.05211382359266f,
    0.15566585958004f, -0.05336119607091f, -0.16404955089092f,
    0.16841305792332f, -0.04420572519302f, 0.05905547738075f,
    0.18846338987350f, -0.05408055707812f, -0.23907339572906f,
    0.29301702976227f, -0.23977643251419f, -0.12032874673605f,
    -0.26735925674438f, -0.11751147359610f, 0.26789981126785f,
    0.45805561542511f, 0.02890685573220f, 0.30709227919579f,
    0.14973555505276f, -0.16577738523483f, 0.30065944790840f,
    -0.17937007546425f, 0.10090415179729f, 0.10055790841579f,
    0.51346081495285f, 0.10652916878462f, -0.19554579257965f,
    -0.12521560490131f, 0.07622049003839f, 0.02812830545008f,
    -0.35121130943298f, 0.28806537389755f, -0.12392568588257f,
    -0.12946392595768f, 0.06023230403662f, 0.11141905188560f,
    -0.03700682520866f, 0.09998619556427f, -0.01173920463771f,
    -0.08141203224659f, -0.36064881086349f, 0.12417105585337f,
    0.01075510680676f, 0.01528443302959f, -0.96257656812668f,
    0.11498256027699f, 0.10908285528421f, -0.09823130816221f,
    0.03247600421309f, 0.13027830421925f, 0.09755668044090f,
    0.26832902431488f, 0.09018350392580f, -0.26864185929298f,
    -0.00373994070105f, -0.16149239242077f, 0.16454431414604f,
    0.14752309024334f},
    {-0.28700998425484f, 0.16887167096138f, 0.02994720637798f,
    -0.15120191872120f, -0.21767893433571f, -0.18126976490021f,
    -0.11183452606201f, -0.05196233838797f, 0.08193635940552f,
    0.07219436764717f, -0.88080364465714f, -0.16981160640717f,
    -0.23798549175262f, -0.22135943174362f, 0.38536566495895f,
    -1.11393904685974f, 0.27022999525070f, 0.11671841144562f,
    0.04198408871889f, 0.00841282680631f, -0.16163073480129f,
    0.24053201079369f, -0.08200272172689f, 0.17023688554764f,
    -0.29317769408226f, 0.07887179404497f, -0.39630469679832f,
    -0.17028307914734f, 0.36183708906174f, 0.09535470604897f,
    0.02064593136311f, -0.04273005202413f, -0.00708658341318f,
    0.10836046934128f, 0.30707496404648f, -0.03427334874868f,
    0.21899107098579f, -0.05955347791314f, -0.11954864114523f,
    -0.17901051044464f, 0.05332498997450f, 0.11123397946358f,
    -0.10464008152485f, 0.21497599780560f, 0.05406647548079f,
    0.12386622279882f, -0.28846666216850f, 0.06357637047768f,
    -0.18986657261848f, 0.20057176053524f, 0.22926868498325f,
    0.05003784224391f, 0.00767437275499f, 0.13066940009594f,
    -0.11052089184523f, -0.24577625095844f, -0.19097517430782f,
    -0.25658890604973f, 0.49928104877472f, -0.08158338069916f,
    0.17088913917542f, 0.22044520080090f, -0.16228845715523f,
    0.10437612235546f},
    {-0.55708187818527f, 0.45797473192215f, -0.05873824656010f,
    -0.00434915162623f, 0.46428340673447f, 0.09176613390446f,
    -0.18000438809395f, -0.29872530698776f, 0.03290734440088f,
    -0.17842730879784f, -0.26783657073975f, -0.18063578009605f,
    -0.40613281726837f, 0.47626894712448f, 0.92474490404129f,
    -0.53917419910431f, 0.00141192926094f, 0.06319639086723f,
    -0.21465037763119f, 0.04379941895604f, -0.97347807884216f,
    0.08570006489754f, 0.17307463288307f, 0.63006681203842f,
    0.12429220229387f, -0.17644092440605f, -0.32663428783417f,
    -0.26517832279205f, 0.10319585353136f, -0.15949179232121f,
    1.52751672267914f, 0.11774274706841f, 0.12153542786837f,
    0.03117217868567f, 0.83861279487610f, -0.16824737191200f,
    0.43267190456390f, -0.08663208037615f, 0.20604111254215f,
    -0.00031042509363f, 0.03404594585299f, -0.33304667472839f,
    -0.05217424035072f, -0.24780316650867f, -0.32106730341911f,
    -0.21685275435448f, 0.31051418185234f, -0.33885157108307f,
    0.24902416765690f, 0.67001140117645f, -0.27712741494179f,
    -0.09998918324709f, -0.28955593705177f, 0.28933021426201f,
    -0.08511649072170f, 0.17288427054882f, 0.80307847261429f,
    -0.15856440365314f, 0.39856392145157f, -0.10128103941679f,
    -0.06627526134253f, 0.59602618217468f, -0.38085967302322f,
    -0.94797194004059f},
    {-0.08841701596975f, -0.52950745820999f, -0.12918163836002f,
    -0.11423203349113f, 0.72561883926392f, -0.23105147480965f,
    -0.19361093640327f, 0.38836503028870f, 0.18697963654995f,
    -0.02474071644247f, -0.01827578432858f, -0.13306859135628f,
    0.62212353944778f, 0.39414298534393f, -0.28894755244255f,
    0.44943323731422f, -0.34443575143814f, -0.13798345625401f,
    -0.14299637079239f, -0.40083459019661f, -0.49899917840958f,
    0.20752137899399f, -0.09206245094538f, -0.31970593333244f,
    0.56093490123749f, -0.15560141205788f, 0.37388890981674f,
    0.66001713275909f, 0.10741513967514f, -0.17844511568546f,
    -0.34671619534492f, -0.00664872210473f, 0.12760470807552f,
    0.11645951867104f, 0.50611740350723f, -0.02547621726990f,
    0.54078137874603f, -0.03810312226415f, 0.51291215419769f,
    -0.00238113710657f, 0.15248717367649f, -0.16447138786316f,
    0.08017890900373f, 0.26058092713356f, 0.47728088498116f,
    0.09752129763365f, -0.02609370462596f, 0.35003376007080f,
    0.41015568375587f, 0.37246030569077f, -0.05528305843472f,
    -0.20421294867992f, -0.16908456385136f, 0.23098953068256f,
    0.02932445332408f, -0.39776152372360f, 0.39567613601685f,
    -0.04336866736412f, -0.12727750837803f, -0.13352586328983f,
    -0.10661802440882f, 0.66719549894333f, 0.86630558967590f,
    0.57528352737427f},
    {-1.34503793716431f, 0.01874279044569f, -0.18674317002296f,
    -0.14551034569740f, -0.87142705917358f, 0.50385099649429f,
    -0.21594050526619f, 0.40075051784515f, -0.03107766620815f,
    0.04830073937774f, -1.68804442882538f, -0.19035743176937f,
    0.06936654448509f, -0.01048094127327f, -0.16716022789478f,
    -0.51346516609192f, -0.66621708869934f, -0.09305113554001f,
    -0.00760938227177f, 0.68234550952911f, 0.19309371709824f,
    0.27290821075439f, -0.03874328359962f, 0.20307014882565f,
    0.10177730768919f, 0.09979639202356f, 0.27127271890640f,
    -0.08988467603922f, -0.14259096980095f, 0.17398749291897f,
    0.18123336136341f, 0.11164522916079f, -0.15440367162228f,
    -0.10746022313833f, -0.32459983229637f, -0.12964269518852f,
    0.06215566769242f, 0.35972696542740f, 0.09347863495350f,
    0.06831808388233f, -0.04748291522264f, -0.53634327650070f,
    0.60959357023239f, 0.29196739196777f, -0.38794898986816f,
    -0.21286647021770f, -1.35272455215454f, 0.29904946684837f,
    -0.22564128041267f, 0.17676174640656f, -0.49150040745735f,
    0.03657993674278f, 0.39804345369339f, -0.23201708495617f,
    -0.19367107748985f, 0.01137667987496f, 0.29389429092407f,
    -0.56866472959518f, 0.12844935059547f, -0.12863373756409f,
    0.04438097029924f, -0.30386230349541f, -0.41811379790306f,
    -0.91193008422852f},
    {-0.01442399341613f, -0.12404123693705f, -0.02532971836627f,
    -0.01609759405255f, 0.01005723234266f, -0.16539770364761f,
    -0.16923683881760f, 0.04274115711451f, -0.14703828096390f,
    0.06689058244228f, -0.34177798032761f, -0.03205631300807f,
    -0.20477202534676f, 0.29613012075424f, -0.05860725417733f,
    0.14697884023190f, -0.03853417187929f, -0.05086581781507f,
    -0.04928610101342f, -0.15874956548214f, -0.04082917794585f,
    -0.29411777853966f, 0.15333749353886f, 0.23100215196609f,
    -0.00125074118841f, 0.00070512038656f, -0.11887836456299f,
    0.40572369098663f, -0.18961556255817f, -0.02486636117101f,
    0.11159877479076f, -0.11120945960283f, -0.21584746241570f,
    0.01605673879385f, 0.02220289595425f, 0.01282167993486f,
    -0.03083136118948f, -0.29026770591736f, 0.04159474745393f,
    -0.00354427588172f, -0.15170687437057f, -0.05631893873215f,
    0.06801376491785f, -0.00403588637710f, -0.01245979871601f,
    -0.19694785773754f, 0.25858792662621f, -0.07154043763876f,
    -0.10304819792509f, -0.01742966659367f, 0.42093443870544f,
    -0.03093991614878f, -0.09872853010893f, -0.16984380781651f,
    -0.06084238365293f, -0.06003290042281f, -0.28627985715866f,
    -0.55682015419006f, 0.00454356661066f, 0.08941133320332f,
    -0.10715024173260f, 0.15917034447193f, -0.01941862329841f,
    0.11591336131096f},
    {0.01475729048252f, -0.18171277642250f, 0.07019655406475f,
    0.14111532270908f, -0.13116660714149f, 0.19163076579571f,
    0.21255661547184f, 0.01936574280262f, 0.15419389307499f,
    -0.11349421739578f, 0.17375724017620f, 0.02630944550037f,
    0.12829323112965f, 0.09950296580791f, -0.18633025884628f,
    0.07495377957821f, 0.00796875357628f, -0.16651847958565f,
    -0.21233743429184f, -0.14003503322601f, -0.01198287308216f,
    -0.04025590419769f, -0.16118095815182f, 0.00930532813072f,
    -0.14185476303101f, -0.09828794747591f, 0.09992514550686f,
    -0.18332995474339f, 0.08294637501240f, 0.05859167873859f,
    -0.10043137520552f, 0.16005147993565f, 0.20225621759892f,
    0.20612825453281f, 0.08601932227612f, -0.16890761256218f,
    -0.18443341553211f, 0.10136319696903f, 0.12394414842129f,
    -0.10990566015244f, -0.13434237241745f, -0.21216502785683f,
    -0.00269457697868f, -0.11900006979704f, -0.14911043643951f,
    -0.13994097709656f, 0.02352315187454f, -0.01753176748753f,
    -0.01088054478168f, -0.15796400606632f, -0.02538731694221f,
    -0.13604733347893f, -0.16131892800331f, 0.15710623562336f,
    0.02735906839371f, 0.09647460281849f, 0.12928245961666f,
    0.16890193521976f, -0.09972491860390f, -0.07443061470985f,
    0.11583198606968f, 0.12326236069202f, -0.05608166754246f,
    0.00044609606266f},
    {-0.14041772484779f, -0.06841680407524f, 0.18839766085148f,
    -0.14326715469360f, 0.12765282392502f, 0.25626486539841f,
    -0.20088072121143f, 0.18153251707554f, 0.08996988832951f,
    -0.21026904881001f, -0.11870026588440f, 0.08540521562099f,
    0.10225898027420f, -0.04522600397468f, 0.09093764424324f,
    -0.15064127743244f, 0.15264762938023f, 0.17715470492840f,
    0.03450603783131f, -0.12832741439342f, 0.03958888351917f,
    0.09435185790062f, -0.07863086462021f, -0.08068104833364f,
    0.03652487695217f, -0.17672492563725f, 0.00130330747925f,
    -0.03212238848209f, 0.02897106483579f, 0.04613722860813f,
    0.17001712322235f, -0.09233899414539f, 0.20300154387951f,
    0.05033360421658f, 0.02708794735372f, 0.20761726796627f,
    -0.14662767946720f, -0.17046312987804f, 0.10286426544189f,
    0.09727583825588f, -0.08415797352791f, -0.16650104522705f,
    0.14763432741165f, 0.03255903348327f, -0.21362723410130f,
    -0.17039000988007f, -0.05397514998913f, -0.18620575964451f,
    0.10604155063629f, -0.16452772915363f, -0.17177340388298f,
    0.13064698874950f, -0.02371688745916f, 0.21812519431114f,
    0.16820631921291f, 0.13924963772297f, 0.09931516647339f,
    0.05514091253281f, -0.10805214196444f, -0.02766393125057f,
    0.14262185990810f, 0.11998031288385f, -0.05444680154324f,
    0.03261780366302f},
    {0.23599362373352f, 0.02566826716065f, 0.12263845652342f,
    -0.17381973564625f, 0.20796519517899f, -0.07343007624149f,
    0.07663143426180f, -0.06199055910110f, 0.00273625273257f,
    0.02675249055028f, 0.25874140858650f, 0.11228677630424f,
    0.15758904814720f, 0.14837110042572f, -0.11533069610596f,
    0.00853024702519f, -0.05234955623746f, 0.05253420025110f,
    0.11455386877060f, 0.09165257215500f, -0.12004710733891f,
    -0.06037435308099f, 0.03805634006858f, -0.45708331465721f,
    -0.16582411527634f, 0.03325110301375f, -0.38132447004318f,
    0.31658840179443f, -0.11831928789616f, -0.13051758706570f,
    0.06061667576432f, -0.25748637318611f, -0.11129946261644f,
    -0.00424644863233f, 0.38970100879669f, 0.12100224196911f,
    0.16413675248623f, -0.23848460614681f, -0.01122091710567f,
    0.04557874053717f, -0.21067906916142f, -0.03873752057552f,
    -0.84616702795029f, 0.01162779238075f, 0.26802775263786f,
    -0.14898437261581f, -0.02127274498343f, -0.09319233149290f,
    -0.42954325675964f, -0.33812993764877f, 0.07137238234282f,
    -0.20979817211628f, 0.01865242235363f, -0.00372129026800f,
    0.01474966201931f, 0.13927575945854f, 0.14876531064510f,
    0.32411274313927f, -0.26712405681610f, -0.24159157276154f,
    -0.19600956141949f, -0.43669807910919f, -0.05455771461129f,
    0.33515423536301f},
    {-0.30496424436569f, 0.30393752455711f, 0.08999471366405f,
    0.12369601428509f, -0.16966794431210f, 0.05266849696636f,
    -0.00761809945107f, 0.16809637844563f, 0.08227971941233f,
    -0.22720728814602f, -3.93791031837463f, 0.06658749282360f,
    0.23827452957630f, 0.11347055435181f, 0.12885744869709f,
    -1.00188446044922f, 0.34478381276131f, -0.15623068809509f,
    -0.31761217117310f, 0.12602362036705f, -0.16222959756851f,
    0.32253691554070f, -0.00955183058977f, 0.24197351932526f,
    0.16963768005371f, -0.07379993796349f, -0.20341888070107f,
    -0.02216080762446f, 0.21052557229996f, 0.11196058988571f,
    0.07496858388186f, -0.15384837985039f, 0.09123323112726f,
    -0.03279440850019f, 0.03344354405999f, -0.00496173975989f,
    -0.01007196772844f, 0.12883059680462f, 0.08647540956736f,
    0.13723212480545f, 0.02801324240863f, -0.25041392445564f,
    0.33818143606186f, -0.02112246863544f, -0.14732792973518f,
    -0.15148971974850f, -0.70182430744171f, 0.27021139860153f,
    -0.13130043447018f, -0.02180639468133f, -1.34579253196716f,
    -0.03214389458299f, 0.20272155106068f, 0.06779977679253f,
    -0.11554762721062f, 0.55725526809692f, -0.26676151156425f,
    -2.64392876625061f, 0.52462571859360f, -0.03864078968763f,
    -0.15327760577202f, 0.17936982214451f, -1.28862106800079f,
    -0.30562186241150f},
    {-0.08005028963089f, -0.20321550965309f, -0.16811835765839f,
    0.18633635342121f, 0.13868941366673f, 0.18457587063313f,
    0.14226351678371f, 0.17523349821568f, 0.00014479458332f,
    -0.04026333987713f, -0.17565073072910f, -0.03113211691380f,
    0.03790603578091f, 0.07617612183094f, 0.11581002175808f,
    -0.00516392290592f, 0.01247841119766f, 0.10169853270054f,
    0.03256316483021f, 0.00090922415257f, -0.08413490653038f,
    -0.00707259774208f, -0.10400233417749f, -0.11584702134132f,
    -0.18029789626598f, 0.00433997809887f, 0.08860616385937f,
    0.18506591022015f, 0.18818055093288f, 0.06205682456493f,
    -0.06936527788639f, 0.11122585833073f, 0.15798841416836f,
    -0.08198089897633f, -0.07285183668137f, -0.16830465197563f,
    0.07894404232502f, -0.15241143107414f, -0.05246093869209f,
    -0.14237073063850f, -0.06906634569168f, 0.13742424547672f,
    0.18459229171276f, -0.01865221560001f, -0.00956265628338f,
    -0.00014010071754f, 0.02678522467613f, -0.13655605912209f,
    0.00420933961868f, -0.03763690590858f, -0.12946999073029f,
    -0.12495098263025f, -0.00703579187393f, -0.21332670748234f,
    0.07556103169918f, -0.18800969421864f, -0.06543174386024f,
    -0.09089727699757f, 0.10653723776340f, 0.16413642466068f,
    0.01658357679844f, 0.03891028463840f, -0.08917525410652f,
    -0.14486667513847f},
    {0.20663377642632f, -0.11724255979061f, -0.01757232099771f,
    -0.02591951377690f, 0.32551503181458f, 0.10928379744291f,
    -0.14934568107128f, -0.08725636452436f, 0.02832873351872f,
    0.05846877023578f, -0.37913513183594f, -0.15647442638874f,
    -0.29396528005600f, -0.10541883856058f, 0.33120837807655f,
    0.16188722848892f, 0.10326066613197f, -0.01458850968629f,
    0.08817837387323f, -0.07174648344517f, -0.23808118700981f,
    -0.14526082575321f, 0.20080880820751f, 0.26808550953865f,
    -0.22756019234657f, -0.06223982572556f, -0.05335653945804f,
    0.22461465001106f, -0.05459110066295f, 0.10763030499220f,
    0.39958071708679f, 0.05417007207870f, -0.12248996645212f,
    -0.20797340571880f, 0.12888856232166f, 0.16495856642723f,
    0.30805757641792f, -0.17297448217869f, 0.24919494986534f,
    -0.04512020200491f, 0.14812044799328f, 0.09976039081812f,
    0.26733642816544f, 0.11238221824169f, -0.08101018518209f,
    0.19256901741028f, 0.22077012062073f, 0.20785178244114f,
    0.12308242917061f, 0.12106837332249f, 0.15798079967499f,
    -0.01139558479190f, -0.21166768670082f, 0.13865758478642f,
    0.09402295947075f, 0.00454975338653f, 0.06054428219795f,
    0.11541957408190f, 0.17692533135414f, -0.08251182734966f,
    0.00179992150515f, 0.05672248452902f, -0.00701329624280f,
    -0.14666512608528f},
    {-0.84428596496582f, 0.04939020425081f, -0.23188735544682f,
    0.15302808582783f, -0.34628501534462f, 0.29681518673897f,
    0.05890708416700f, 0.16904293000698f, 0.18322691321373f,
    -0.18398717045784f, 0.01031269505620f, 0.05453611537814f,
    0.27745777368546f, -0.17643685638905f, -0.05300775542855f,
    0.04854719713330f, -0.35513666272163f, 0.00518150534481f,
    0.01799567043781f, -0.19057171046734f, 0.20553149282932f,
    0.27429342269897f, -0.13964445888996f, -0.16106168925762f,
    0.38894540071487f, 0.08941889554262f, 0.37100771069527f,
